Experiment	bias spectroscopy
Saved Date	24.04.2024 14:24:26
User
Date
X (m)	2E-9
Y (m)	833.333E-12
Z (m)	-666.419E-12
Z offset (m)	0E+0
Settling time (s)	200E-6
Integration time (s)	10E-3
Z-Ctrl hold	TRUE
Final Z (m)	N/A
Start time	24.04.2024 14:24:23
Filter type	None
Order
Cutoff frq
Bias>Bias (V)	2E+0
Bias>Calibration (V/V)	1E+0
Bias>Offset (V)	0E+0
Bias Spectroscopy>Sweep Start (V)	-2E+0
Bias Spectroscopy>Sweep End (V)	2E+0
Bias Spectroscopy>Num Pixel	256
Bias Spectroscopy>Z Avg time (s)	50E-3
Bias Spectroscopy>Z offset (m)	0E+0
Bias Spectroscopy>1st Settling time (s)	5E-3
Bias Spectroscopy>Settling time (s)	200E-6
Bias Spectroscopy>Integration time (s)	10E-3
Bias Spectroscopy>End Settling time (s)	5E-3
Bias Spectroscopy>Z control time (s)	200E-3
Bias Spectroscopy>Max Slew rate (V/s)	Inf
Bias Spectroscopy>backward sweep	FALSE
Bias Spectroscopy>Z-controller hold	TRUE
Bias Spectroscopy>Number of sweeps	1
Bias Spectroscopy>Channels	Current (A);Bias (V);LI Demod 1 X (A);LI Demod 1 Y (A);LI Demod 2 X (A);LI Demod 2 Y (A)
Bias Spectroscopy>Reset Bias	TRUE
Bias Spectroscopy>Record final Z	FALSE
Bias Spectroscopy>Lock-In run	FALSE
Bias Spectroscopy>Revert Z Offset	FALSE
Current>Current (A)	30.1411E-12
Current>Calibration (A/V)	1E-9
Current>Offset (A)	0E+0
Current>Gain	LN 10^9
Lock-in>Lock-in status	OFF
Lock-in>Modulated signal	Bias (V)
Lock-in>Frequency (Hz)	2E+3
Lock-in>Amplitude	100E-3
Lock-in>Demodulated signal	Current (A)
Lock-in>HP Filter Cutoff D1 (Hz)	38.8562E+0
Lock-in>HP Filter Cutoff D2 (Hz)	38.8562E+0
Lock-in>HP Filter Order D1	OFF
Lock-in>HP Filter Order D2	OFF
Lock-in>Harmonic D1	1
Lock-in>Harmonic D2	2
Lock-in>Reference phase D1 (deg)	0E+0
Lock-in>Reference phase D2 (deg)	0E+0
Lock-in>LP Filter Cutoff D1 (Hz)	621.699E+0
Lock-in>LP Filter Cutoff D2 (Hz)	621.699E+0
Lock-in>LP Filter Order D1	OFF
Lock-in>LP Filter Order D2	OFF
Lock-in>Sync Filter D1	ON
Lock-in>Sync Filter D2	ON
Lock-in 2>Lock-in status	OFF
Lock-in 2>Modulated signal	Input 2 (V)
Lock-in 2>Frequency (Hz)	1E+3
Lock-in 2>Amplitude	1E+0
Lock-in 2>Demodulated signal	Current (A)
Lock-in 2>HP Filter Cutoff D3 (Hz)	38.8562E+0
Lock-in 2>HP Filter Cutoff D4 (Hz)	38.8562E+0
Lock-in 2>HP Filter Order D3	OFF
Lock-in 2>HP Filter Order D4	OFF
Lock-in 2>Harmonic D3	1
Lock-in 2>Harmonic D4	1
Lock-in 2>Reference phase D3 (deg)	0E+0
Lock-in 2>Reference phase D4 (deg)	0E+0
Lock-in 2>LP Filter Cutoff D3 (Hz)	621.699E+0
Lock-in 2>LP Filter Cutoff D4 (Hz)	621.699E+0
Lock-in 2>LP Filter Order D3	OFF
Lock-in 2>LP Filter Order D4	OFF
Lock-in 2>Sync Filter D3	ON
Lock-in 2>Sync Filter D4	ON
NanonisMain>Session Path	C:\Users\scbr\Documents\Nanonis Sessions\nanonis_session_sim
NanonisMain>SW Version	Generic 5e
NanonisMain>UI Release	13632
NanonisMain>RT Release	13632
NanonisMain>RT Frequency (Hz)	20E+3
NanonisMain>Signals Oversampling	10
NanonisMain>Acquisition Period (s)	20E-3
NanonisMain>Animations Period (s)	20E-3
NanonisMain>Indicators Period (s)	300E-3
NanonisMain>Measurements Period (s)	500E-3
Piezo Configuration>Active Calib.	Default
Piezo Configuration>Calib. X (m/V)	10E-9
Piezo Configuration>Calib. Y (m/V)	10E-9
Piezo Configuration>Calib. Z (m/V)	5E-9
Piezo Configuration>HV Gain X	15
Piezo Configuration>HV Gain Y	15
Piezo Configuration>HV Gain Z	15
Piezo Configuration>Tilt X (deg)	0
Piezo Configuration>Tilt Y (deg)	0
Piezo Configuration>Curvature radius X (m)	Inf
Piezo Configuration>Curvature radius Y (m)	Inf
Piezo Configuration>2nd order corr X (V/m^2)	0E+0
Piezo Configuration>2nd order corr Y (V/m^2)	0E+0
Piezo Configuration>Drift X (m/s)	0E+0
Piezo Configuration>Drift Y (m/s)	0E+0
Piezo Configuration>Drift Z (m/s)	0E+0
Piezo Configuration>Drift correction status (on/off)	FALSE
Temperature 1>Temperature 1 (K)	515.131E+0
Z-Controller>Z (m)	-666.437E-12
Z-Controller>Controller name	log Current
Z-Controller>Controller status	ON
Z-Controller>Setpoint	50E-12
Z-Controller>Setpoint unit	A
Z-Controller>P gain	200E-12
Z-Controller>I gain	200E-9
Z-Controller>Time const (s)	1E-3
Z-Controller>TipLift (m)	0E+0
Z-Controller>Switch off delay (s)	0E+0

[DATA]
Bias calc (V)	Current (A)	Bias (V)	LI Demod 1 X (A)	LI Demod 1 Y (A)	LI Demod 2 X (A)	LI Demod 2 Y (A)
-2.0000000E+0	-64.314339E-12	-2.0000000E+0	-25.984059E-15	-54.520502E-15	-54.486868E-15	-61.575724E-15
-1.9843137E+0	-63.230740E-12	-1.9843137E+0	-182.40918E-15	58.830572E-15	26.879262E-15	102.68654E-15
-1.9686275E+0	-61.949668E-12	-1.9686275E+0	-57.670069E-15	-150.21113E-15	-66.889995E-15	-34.347850E-15
-1.9529412E+0	-61.163283E-12	-1.9529412E+0	-62.672693E-15	-227.36947E-15	10.667940E-15	762.70775E-18
-1.9372549E+0	-59.869644E-12	-1.9372549E+0	-16.545428E-15	58.515123E-15	95.410611E-15	-118.02881E-15
-1.9215686E+0	-59.252561E-12	-1.9215686E+0	-14.472358E-15	-67.954560E-15	-141.99347E-15	-11.088311E-15
-1.9058824E+0	-58.415467E-12	-1.9058824E+0	-85.870628E-15	-51.593153E-15	-74.708320E-15	107.80617E-15
-1.8901961E+0	-57.324905E-12	-1.8901961E+0	-85.254991E-15	4.8718510E-15	-55.171681E-15	5.5859900E-15
-1.8745098E+0	-56.526044E-12	-1.8745098E+0	-98.490714E-15	26.517329E-15	15.343504E-15	-9.4128645E-15
-1.8588235E+0	-55.419929E-12	-1.8588235E+0	-83.101976E-15	-106.45315E-15	56.620958E-15	-41.590144E-15
-1.8431373E+0	-54.544629E-12	-1.8431373E+0	-51.689295E-15	7.2913401E-15	88.403921E-15	-15.804759E-15
-1.8274510E+0	-53.755958E-12	-1.8274510E+0	15.190426E-15	-59.331893E-15	-79.953405E-15	-17.287085E-15
-1.8117647E+0	-52.899154E-12	-1.8117647E+0	-89.531098E-15	102.85863E-15	28.978410E-15	94.360012E-15
-1.7960784E+0	-52.085034E-12	-1.7960784E+0	-64.398546E-15	-108.01662E-15	-24.202693E-15	-14.584474E-15
-1.7803922E+0	-51.143596E-12	-1.7803922E+0	-111.14679E-15	38.375407E-15	29.410231E-15	-21.721650E-15
-1.7647059E+0	-50.155363E-12	-1.7647059E+0	59.061493E-15	-48.871226E-15	61.611306E-15	39.109588E-15
-1.7490196E+0	-49.522275E-12	-1.7490196E+0	87.864991E-15	-46.742331E-15	-53.852647E-15	-32.768096E-15
-1.7333333E+0	-48.805786E-12	-1.7333333E+0	2.9074389E-15	8.8151278E-15	-38.023536E-15	-39.376990E-15
-1.7176471E+0	-47.857010E-12	-1.7176471E+0	7.8325086E-15	-22.423563E-15	-3.4122534E-15	47.855220E-15
-1.7019608E+0	-47.134369E-12	-1.7019608E+0	-125.88556E-15	55.920343E-15	51.474948E-15	48.996407E-15
-1.6862745E+0	-46.187859E-12	-1.6862745E+0	-32.374999E-15	49.638370E-15	26.252055E-15	-48.192743E-15
-1.6705883E+0	-45.631655E-12	-1.6705883E+0	-14.511297E-15	-38.441980E-15	-9.3995170E-15	17.358671E-15
-1.6549020E+0	-44.769369E-12	-1.6549020E+0	-143.79063E-15	53.775039E-15	-42.651785E-15	61.934886E-15
-1.6392157E+0	-44.046714E-12	-1.6392157E+0	172.00179E-15	-44.753657E-15	-56.756391E-15	-76.126348E-15
-1.6235294E+0	-43.450722E-12	-1.6235294E+0	-35.228930E-15	56.852316E-15	76.847281E-15	12.886614E-15
-1.6078432E+0	-42.558932E-12	-1.6078432E+0	-16.636349E-15	60.375241E-15	-16.532714E-15	50.406921E-15
-1.5921569E+0	-41.848719E-12	-1.5921569E+0	-87.435322E-15	-13.374400E-15	101.85215E-15	-13.854069E-15
-1.5764706E+0	-41.183966E-12	-1.5764706E+0	121.56144E-15	-50.012461E-15	-4.1813654E-15	-85.292755E-15
-1.5607843E+0	-40.671078E-12	-1.5607843E+0	7.1211424E-15	-12.099567E-15	-112.46614E-15	52.598794E-15
-1.5450981E+0	-39.778653E-12	-1.5450981E+0	-40.268726E-15	39.336695E-15	10.550831E-15	19.225571E-15
-1.5294118E+0	-39.248257E-12	-1.5294118E+0	-54.945509E-15	47.331503E-15	25.100275E-15	41.428032E-15
-1.5137255E+0	-38.575559E-12	-1.5137255E+0	41.698531E-15	19.340410E-15	-53.446901E-15	44.094906E-15
-1.4980392E+0	-37.896894E-12	-1.4980392E+0	-19.106268E-15	35.949410E-15	-13.826337E-15	19.734109E-15
-1.4823530E+0	-37.204316E-12	-1.4823530E+0	13.704999E-15	77.711200E-15	33.696058E-15	-86.605873E-15
-1.4666667E+0	-36.653482E-12	-1.4666667E+0	-9.7257839E-15	9.5948801E-15	11.368677E-15	36.365357E-15
-1.4509804E+0	-36.004411E-12	-1.4509804E+0	35.784377E-15	-8.7244698E-15	15.765191E-15	6.2368582E-15
-1.4352942E+0	-35.424236E-12	-1.4352942E+0	-51.664236E-15	-24.992937E-15	-4.4460988E-15	31.937072E-15
-1.4196079E+0	-34.653308E-12	-1.4196079E+0	-75.666836E-15	-4.3893023E-15	5.4041418E-15	-29.986745E-15
-1.4039216E+0	-34.198991E-12	-1.4039216E+0	-31.700028E-15	8.2249542E-15	38.759394E-15	24.954046E-15
-1.3882353E+0	-33.659554E-12	-1.3882353E+0	-5.5925482E-15	10.251689E-15	-1.2179819E-15	38.101097E-15
-1.3725491E+0	-33.048241E-12	-1.3725491E+0	14.839345E-15	-30.149792E-15	11.592139E-15	5.9097514E-15
-1.3568628E+0	-32.528230E-12	-1.3568628E+0	159.46833E-15	-20.439576E-15	11.586119E-15	-43.446160E-18
-1.3411765E+0	-31.882552E-12	-1.3411765E+0	-13.336351E-15	16.653135E-15	27.061513E-15	-16.795503E-15
-1.3254902E+0	-31.295206E-12	-1.3254902E+0	19.020626E-15	-29.663351E-15	-27.268332E-15	49.392494E-15
-1.3098040E+0	-30.748144E-12	-1.3098040E+0	-54.351827E-15	74.119693E-15	-5.2372729E-15	-53.790295E-15
-1.2941177E+0	-30.150316E-12	-1.2941177E+0	-107.55036E-15	-10.762992E-15	12.951446E-15	41.528701E-15
-1.2784314E+0	-29.754671E-12	-1.2784314E+0	-8.7795245E-15	-43.062962E-15	-8.2694243E-15	-55.585541E-15
-1.2627451E+0	-29.226160E-12	-1.2627451E+0	12.071331E-15	36.129719E-15	46.436257E-15	29.571831E-15
-1.2470587E+0	-28.606645E-12	-1.2470589E+0	48.966399E-15	105.74697E-15	17.708730E-15	32.150542E-15
-1.2313725E+0	-28.200928E-12	-1.2313726E+0	-26.433386E-15	43.167408E-15	-5.0502091E-15	-4.7689755E-15
-1.2156862E+0	-27.765927E-12	-1.2156863E+0	23.846908E-15	28.777900E-15	10.987277E-15	23.337221E-15
-1.1999999E+0	-27.303590E-12	-1.2000000E+0	31.997398E-15	-31.363980E-15	13.891796E-15	43.377879E-15
-1.1843137E+0	-26.692483E-12	-1.1843138E+0	107.96615E-15	-59.145153E-15	-31.668380E-15	-42.249278E-15
-1.1686274E+0	-26.238865E-12	-1.1686275E+0	-55.887190E-15	-48.457450E-15	-35.400339E-15	8.2481375E-15
-1.1529411E+0	-25.686163E-12	-1.1529412E+0	-6.6480893E-15	31.446464E-15	-63.536070E-15	-14.093216E-15
-1.1372548E+0	-25.324185E-12	-1.1372550E+0	-80.587900E-15	-15.615054E-15	-35.956986E-15	-1.7878934E-15
-1.1215686E+0	-24.905413E-12	-1.1215687E+0	600.51682E-18	61.290877E-15	-47.033863E-15	28.827655E-15
-1.1058823E+0	-24.302739E-12	-1.1058824E+0	-99.752421E-15	10.401946E-15	80.517190E-15	-45.008647E-15
-1.0901960E+0	-23.880321E-12	-1.0901961E+0	22.608295E-15	36.711882E-15	59.967581E-15	45.963453E-15
-1.0745097E+0	-23.426166E-12	-1.0745099E+0	-31.379643E-15	-37.077770E-15	-97.137989E-15	-41.103948E-15
-1.0588235E+0	-23.033523E-12	-1.0588236E+0	57.100897E-15	-29.394608E-15	-27.982301E-15	88.846777E-15
-1.0431372E+0	-22.651799E-12	-1.0431373E+0	33.297553E-15	30.536209E-15	50.254614E-15	3.1762999E-15
-1.0274509E+0	-22.105132E-12	-1.0274510E+0	-52.063487E-15	-6.3703332E-15	-61.579675E-15	-18.274333E-15
-1.0117646E+0	-21.782624E-12	-1.0117648E+0	-31.244548E-15	-29.357257E-15	62.834449E-15	78.589519E-15
-996.07837E-3	-21.303763E-12	-996.07843E-3	-5.0793195E-15	-57.540290E-15	-18.536403E-15	6.5319420E-15
-980.39210E-3	-20.860955E-12	-980.39216E-3	699.08483E-18	-34.523572E-15	16.066723E-15	-3.1295544E-15
-964.70582E-3	-20.418356E-12	-964.70588E-3	-51.079810E-15	-29.265808E-15	-16.878514E-15	18.605268E-15
-949.01955E-3	-20.119033E-12	-949.01961E-3	-54.179707E-15	-84.400016E-15	35.264906E-15	-40.736396E-15
-933.33328E-3	-19.688078E-12	-933.33334E-3	47.636493E-15	-47.360075E-15	3.3534632E-15	-12.875887E-15
-917.64700E-3	-19.333160E-12	-917.64706E-3	-56.955695E-15	21.969934E-15	9.8292507E-15	31.191572E-15
-901.96073E-3	-18.948430E-12	-901.96079E-3	-14.334694E-15	-39.682172E-15	-11.401077E-15	3.5833576E-15
-886.27446E-3	-18.455107E-12	-886.27452E-3	-11.588796E-15	97.177258E-15	-7.4962085E-15	-7.5646336E-15
-870.58818E-3	-18.106381E-12	-870.58824E-3	108.19617E-15	-44.610830E-15	-8.2166999E-15	-56.540737E-15
-854.90191E-3	-17.706928E-12	-854.90197E-3	-13.838211E-15	35.063261E-15	36.980733E-15	-31.533376E-15
-839.21564E-3	-17.415031E-12	-839.21570E-3	-9.2733709E-15	-40.343827E-15	49.394001E-15	-29.952423E-15
-823.52936E-3	-17.042175E-12	-823.52942E-3	23.473146E-15	14.975597E-15	-13.500629E-15	22.549936E-15
-807.84309E-3	-16.726157E-12	-807.84315E-3	25.434729E-15	45.489545E-15	12.137381E-15	29.714739E-15
-792.15682E-3	-16.314878E-12	-792.15688E-3	27.132346E-15	47.793820E-15	-4.0045003E-15	8.7931642E-15
-776.47054E-3	-15.922088E-12	-776.47060E-3	-5.6342692E-15	59.828776E-15	60.558268E-15	24.626836E-15
-760.78427E-3	-15.678799E-12	-760.78433E-3	54.398214E-15	40.653184E-15	18.267174E-15	-47.345367E-15
-745.09799E-3	-15.267515E-12	-745.09805E-3	7.0574662E-15	-53.172307E-15	-5.1252443E-15	-3.8599296E-15
-729.41172E-3	-14.951455E-12	-729.41178E-3	36.969437E-15	-16.288227E-15	-51.760391E-15	-36.786455E-15
-713.72545E-3	-14.596145E-12	-713.72551E-3	49.640813E-15	53.803638E-15	39.179655E-15	-8.4083927E-15
-698.03917E-3	-14.224090E-12	-698.03923E-3	7.0768315E-15	-94.947609E-18	-62.413535E-15	-16.583945E-15
-682.35290E-3	-13.893747E-12	-682.35296E-3	-14.701417E-15	-4.4878669E-15	37.025220E-15	-13.420121E-15
-666.66663E-3	-13.587763E-12	-666.66669E-3	-25.759351E-15	-15.473261E-15	16.043638E-15	-50.557184E-15
-650.98035E-3	-13.329800E-12	-650.98041E-3	-49.769891E-15	-1.1777796E-15	19.755288E-15	53.093204E-15
-635.29408E-3	-12.911358E-12	-635.29414E-3	33.971496E-15	-1.7317115E-15	-8.7689230E-15	56.042841E-15
-619.60781E-3	-12.646413E-12	-619.60787E-3	-29.690223E-15	9.3961754E-15	10.063957E-15	14.991318E-15
-603.92153E-3	-12.301518E-12	-603.92159E-3	-31.529582E-15	-26.392279E-15	69.685502E-15	-17.037785E-15
-588.23526E-3	-11.979764E-12	-588.23532E-3	-12.167071E-15	-40.510096E-15	46.190058E-15	-14.742470E-15
-572.54899E-3	-11.758994E-12	-572.54905E-3	17.057970E-15	32.797820E-15	-21.483971E-15	-1.2396894E-15
-556.86271E-3	-11.375017E-12	-556.86277E-3	-43.180991E-15	72.234739E-15	-49.918559E-15	2.4249234E-15
-541.17644E-3	-11.091929E-12	-541.17650E-3	-49.834546E-15	-14.174877E-15	-32.201333E-15	2.2353229E-15
-525.49016E-3	-10.882236E-12	-525.49022E-3	12.925637E-15	18.479277E-15	-26.253466E-15	-7.0835299E-15
-509.80389E-3	-10.499425E-12	-509.80395E-3	-37.922512E-15	13.202444E-15	35.034818E-15	58.913594E-15
-494.11750E-3	-10.199836E-12	-494.11765E-3	52.489188E-15	-15.568569E-15	33.983697E-15	31.749526E-15
-478.43122E-3	-9.9525726E-12	-478.43137E-3	-56.929254E-15	-16.768962E-15	22.064300E-15	5.3887275E-15
-462.74495E-3	-9.6626587E-12	-462.74510E-3	3.0256191E-15	-6.6867487E-15	45.232162E-15	-44.629976E-15
-447.05868E-3	-9.3354378E-12	-447.05883E-3	-78.725397E-15	26.009097E-15	7.1119393E-15	32.127390E-15
-431.37240E-3	-9.0537066E-12	-431.37255E-3	-24.361718E-15	-43.530683E-15	-22.179261E-15	29.546525E-15
-415.68613E-3	-8.8068216E-12	-415.68628E-3	26.352135E-15	-6.3791381E-15	34.752559E-15	-1.7358535E-15
-399.99986E-3	-8.4800170E-12	-400.00001E-3	-18.456467E-15	-14.669372E-15	37.295653E-15	29.893721E-15
-384.31358E-3	-8.2078866E-12	-384.31373E-3	-7.9213767E-15	25.805753E-15	-50.794584E-15	20.339230E-15
-368.62731E-3	-7.9824689E-12	-368.62746E-3	-2.3187385E-15	-39.050397E-15	-18.657710E-15	46.704367E-15
-352.94104E-3	-7.6654611E-12	-352.94119E-3	-12.386734E-15	18.928989E-15	66.788372E-15	6.5704867E-15
-337.25476E-3	-7.3982365E-12	-337.25491E-3	30.442063E-15	6.1071757E-15	-7.0257156E-15	-37.456082E-15
-321.56849E-3	-7.1520307E-12	-321.56864E-3	53.064158E-15	-21.816126E-15	28.078343E-15	-22.571258E-15
-305.88222E-3	-6.8551545E-12	-305.88236E-3	21.212524E-15	-47.465094E-15	33.532930E-15	7.3649278E-15
-290.19594E-3	-6.5904504E-12	-290.19609E-3	34.082729E-15	-7.1420302E-15	-11.493349E-15	8.9594859E-15
-274.50967E-3	-6.3125069E-12	-274.50982E-3	15.704016E-15	-37.358757E-15	1.9002831E-15	-39.421076E-15
-258.82339E-3	-6.0445464E-12	-258.82354E-3	-21.595505E-15	-16.671833E-15	-8.7485815E-15	-37.830900E-15
-243.13712E-3	-5.7961110E-12	-243.13726E-3	8.2103683E-15	6.0236795E-15	6.7011690E-15	-18.552237E-15
-227.45085E-3	-5.5113791E-12	-227.45098E-3	7.8963020E-15	-25.937033E-15	-56.074825E-15	-15.242739E-15
-211.76457E-3	-5.2583948E-12	-211.76471E-3	-11.238584E-15	-41.045553E-15	8.4732577E-15	-24.038646E-15
-196.07830E-3	-5.0149008E-12	-196.07843E-3	-20.300910E-15	-7.8597102E-15	32.256343E-15	20.675940E-15
-180.39203E-3	-4.7664507E-12	-180.39216E-3	-31.447203E-15	-10.578977E-15	-2.6522747E-15	-40.633858E-15
-164.70575E-3	-4.4968807E-12	-164.70589E-3	-47.599952E-15	41.211212E-15	2.5265604E-15	-28.743643E-15
-149.01948E-3	-4.2471343E-12	-149.01961E-3	-50.367601E-15	26.861109E-15	-537.40233E-18	-12.878806E-15
-133.33321E-3	-3.9409973E-12	-133.33334E-3	-5.2092179E-15	9.9563819E-15	10.541548E-15	-27.210174E-15
-117.64693E-3	-3.7108996E-12	-117.64706E-3	9.1310507E-15	18.879870E-15	19.907888E-15	-40.133702E-15
-101.96066E-3	-3.4859077E-12	-101.96079E-3	-68.034662E-15	-9.1756623E-15	16.488599E-15	45.543755E-15
-86.274385E-3	-3.2523233E-12	-86.274512E-3	-71.413510E-15	-11.627925E-15	3.0577959E-15	9.8950914E-15
-70.588112E-3	-2.9951068E-12	-70.588239E-3	-75.312640E-15	-42.681479E-15	5.2261094E-15	22.046685E-15
-54.901838E-3	-2.7734713E-12	-54.901961E-3	15.058680E-15	-45.279312E-15	-13.255394E-15	-29.111597E-15
-39.215565E-3	-2.4724881E-12	-39.215688E-3	37.435062E-15	-7.8866111E-15	-5.0961788E-15	-7.8349455E-15
-23.529291E-3	-2.2334231E-12	-23.529412E-3	5.0301157E-15	27.985953E-15	-57.393536E-15	-15.032323E-15
-7.8430176E-3	-1.9884702E-12	-7.8431377E-3	-1.4873918E-15	3.3569381E-15	9.5175620E-15	8.5688301E-15
7.8432560E-3	-1.8033389E-12	7.8431377E-3	-985.18953E-18	17.509438E-15	20.070552E-15	-14.015026E-15
23.529530E-3	-1.5064139E-12	23.529412E-3	34.773525E-15	3.1274750E-15	-9.2583446E-15	33.256187E-15
39.215803E-3	-1.2767271E-12	39.215688E-3	3.3327267E-15	60.639068E-15	-16.165869E-15	72.228790E-15
54.902077E-3	-1.0268074E-12	54.901961E-3	-11.765379E-15	26.914714E-15	29.622928E-15	31.402429E-15
70.588350E-3	-767.50672E-15	70.588239E-3	20.875862E-15	-47.248037E-15	-27.504893E-15	32.443442E-15
86.274624E-3	-540.41819E-15	86.274512E-3	-74.836194E-15	-6.4335672E-15	-1.7925714E-15	26.010644E-15
101.96090E-3	-290.38848E-15	101.96079E-3	-11.838431E-15	12.650419E-15	1.4571461E-15	-31.193171E-15
117.64717E-3	5.0834344E-15	117.64706E-3	-8.6117857E-15	-42.786040E-15	402.08495E-18	21.083446E-15
133.33344E-3	210.22203E-15	133.33334E-3	30.906989E-15	29.818423E-15	-27.629026E-15	65.869646E-15
149.01972E-3	454.50444E-15	149.01961E-3	-51.974291E-15	-9.7730399E-15	17.423625E-15	-49.050184E-15
164.70599E-3	681.01135E-15	164.70589E-3	-30.339819E-15	11.345023E-15	-8.9419430E-15	4.0805575E-15
180.39227E-3	960.54913E-15	180.39216E-3	-17.935069E-15	-4.7624643E-15	52.864566E-15	-6.1224109E-15
196.07854E-3	1.1786301E-12	196.07843E-3	18.260919E-15	-3.9927608E-15	-24.747137E-15	-52.322093E-15
211.76481E-3	1.4211982E-12	211.76471E-3	16.965907E-15	-18.447529E-15	-13.464387E-15	33.928935E-15
227.45109E-3	1.6535728E-12	227.45098E-3	20.491423E-15	-224.03262E-18	-41.940728E-15	29.173136E-15
243.13736E-3	1.9498439E-12	243.13726E-3	33.026184E-15	-42.294107E-15	21.074109E-15	-53.206574E-15
258.82363E-3	2.1766135E-12	258.82354E-3	-44.971439E-15	-34.771031E-15	-7.3594483E-15	-1.0791242E-15
274.50991E-3	2.4308288E-12	274.50982E-3	12.997778E-15	18.486608E-15	-2.2847843E-15	4.0727669E-15
290.19618E-3	2.6926738E-12	290.19609E-3	50.517923E-15	9.1057075E-15	-37.785052E-15	19.639026E-15
305.88245E-3	2.9124858E-12	305.88236E-3	-18.030831E-15	96.878418E-15	8.1027773E-15	67.656099E-15
321.56873E-3	3.1828980E-12	321.56864E-3	-54.560560E-15	25.711162E-15	-44.008935E-15	-23.748546E-15
337.25500E-3	3.4352788E-12	337.25491E-3	-41.595969E-15	-12.732794E-15	26.183611E-15	-39.643971E-15
352.94127E-3	3.6804917E-12	352.94119E-3	1.9122573E-15	35.782883E-15	-26.267823E-15	-52.147594E-15
368.62755E-3	3.9044202E-12	368.62746E-3	-21.145261E-15	2.6567034E-15	1.6407458E-15	-12.293371E-15
384.31382E-3	4.1948198E-12	384.31373E-3	-30.346992E-15	-28.802146E-15	-4.7732009E-15	-31.321157E-15
400.00010E-3	4.4235744E-12	400.00001E-3	-10.012307E-15	-18.284854E-15	-18.047008E-15	-6.8914626E-15
415.68637E-3	4.6790076E-12	415.68628E-3	-11.433053E-15	32.919834E-15	-4.3646134E-15	-1.0707021E-15
431.37264E-3	4.9857453E-12	431.37255E-3	-17.763855E-15	-43.195739E-15	21.034041E-15	-31.959807E-15
447.05892E-3	5.1614255E-12	447.05883E-3	-29.030160E-15	720.78692E-18	-31.607878E-15	16.630901E-15
462.74519E-3	5.5031769E-12	462.74510E-3	-13.138768E-15	4.1272108E-15	-5.0983714E-15	-39.052068E-15
478.43146E-3	5.7114556E-12	478.43137E-3	1.0203688E-15	-2.8148211E-15	-32.509331E-15	-4.8613440E-15
494.11774E-3	5.9398831E-12	494.11765E-3	5.7064097E-15	60.231354E-15	-9.6119833E-15	-17.300960E-15
509.80401E-3	6.3230493E-12	509.80395E-3	-2.6028230E-15	-21.569699E-15	-2.0346060E-15	-41.231846E-15
525.49028E-3	6.4682591E-12	525.49022E-3	-68.934360E-15	36.625451E-15	-42.505448E-15	29.387822E-15
541.17656E-3	6.7893729E-12	541.17650E-3	7.4503451E-15	-24.387132E-15	-27.859608E-15	-2.3314857E-15
556.86283E-3	6.9805568E-12	556.86277E-3	56.543322E-15	41.228190E-15	-11.732055E-15	-13.957149E-15
572.54910E-3	7.3162934E-12	572.54905E-3	-33.363987E-15	24.875919E-15	24.198263E-15	45.515902E-15
588.23538E-3	7.6058127E-12	588.23532E-3	27.955147E-15	-43.116193E-15	-5.4148695E-15	-268.37172E-18
603.92165E-3	7.8540724E-12	603.92159E-3	7.2546568E-15	-9.7861477E-15	40.226221E-15	3.1230528E-15
619.60793E-3	8.1555162E-12	619.60787E-3	26.397723E-15	-50.640888E-15	4.4298879E-15	51.369048E-15
635.29420E-3	8.3894463E-12	635.29414E-3	-39.951298E-15	14.489058E-15	-22.627826E-15	54.248327E-15
650.98047E-3	8.7059804E-12	650.98041E-3	-31.673533E-15	10.317819E-15	-20.771061E-15	-51.843749E-15
666.66675E-3	8.9690503E-12	666.66669E-3	-32.161004E-15	9.2119238E-15	-11.039431E-15	-30.091713E-15
682.35302E-3	9.3019360E-12	682.35296E-3	-9.6344628E-15	7.8882239E-15	-21.231501E-15	30.012505E-15
698.03929E-3	9.5808812E-12	698.03923E-3	-34.167114E-15	7.3822606E-15	55.922660E-15	-19.044116E-15
713.72557E-3	9.8557213E-12	713.72551E-3	-29.275359E-15	36.787319E-15	-23.240699E-15	17.078378E-15
729.41184E-3	10.103397E-12	729.41178E-3	36.114707E-15	-34.017490E-15	-3.5165426E-15	9.6275484E-15
745.09811E-3	10.391720E-12	745.09805E-3	43.299362E-15	15.091384E-15	-33.149353E-15	-20.355701E-15
760.78439E-3	10.721342E-12	760.78433E-3	48.203046E-15	-5.2731714E-15	31.534278E-15	-3.3306216E-15
776.47066E-3	10.994063E-12	776.47060E-3	-3.6820586E-15	-46.598274E-15	-71.773825E-15	-33.532347E-15
792.15693E-3	11.346420E-12	792.15688E-3	-22.417488E-15	-5.6943382E-15	55.434878E-15	12.029880E-15
807.84321E-3	11.634676E-12	807.84315E-3	-54.833803E-15	5.2050801E-15	16.574905E-15	6.4360545E-15
823.52948E-3	11.951725E-12	823.52942E-3	20.862076E-15	-21.914665E-15	3.6057680E-15	-13.532069E-15
839.21576E-3	12.232153E-12	839.21570E-3	52.131402E-15	-7.1804067E-15	-10.064137E-15	1.4053127E-15
854.90203E-3	12.546146E-12	854.90197E-3	-15.325125E-15	-13.134379E-15	7.2992268E-15	-62.857414E-15
870.58830E-3	12.875962E-12	870.58824E-3	7.3728518E-15	28.550340E-15	-30.759503E-15	66.415311E-15
886.27458E-3	13.191526E-12	886.27452E-3	8.6924986E-15	-73.400121E-15	28.120752E-15	40.680794E-15
901.96085E-3	13.507003E-12	901.96079E-3	-15.242400E-15	-18.193121E-15	17.542347E-15	16.882073E-15
917.64712E-3	13.837723E-12	917.64706E-3	-54.780199E-15	-34.680212E-15	8.3033378E-15	-43.749591E-15
933.33340E-3	14.223230E-12	933.33334E-3	-33.149349E-15	26.243822E-15	-17.772245E-15	29.872945E-15
949.01967E-3	14.443448E-12	949.01961E-3	59.270006E-15	76.773094E-15	10.671400E-15	41.515887E-15
964.70594E-3	14.828350E-12	964.70588E-3	-17.664035E-15	539.97403E-18	-73.922456E-15	-15.514794E-15
980.39222E-3	15.213320E-12	980.39216E-3	-2.4934359E-15	16.791684E-15	-3.3910672E-15	-11.313765E-15
996.07849E-3	15.616997E-12	996.07843E-3	-6.0001324E-15	33.517998E-15	-23.567924E-15	-31.847653E-15
1.0117650E+0	15.859933E-12	1.0117648E+0	-51.042432E-15	-4.8422612E-15	692.50931E-18	50.520979E-15
1.0274513E+0	16.168273E-12	1.0274510E+0	10.524243E-15	10.050617E-15	53.312145E-15	-26.914314E-15
1.0431376E+0	16.501295E-12	1.0431373E+0	12.164518E-15	54.285959E-15	16.766236E-15	13.959604E-15
1.0588238E+0	16.874190E-12	1.0588236E+0	-68.434773E-15	26.187255E-15	3.8662705E-15	36.514608E-15
1.0745101E+0	17.341793E-12	1.0745099E+0	-50.499057E-15	40.948805E-15	-11.739408E-15	17.078959E-15
1.0901964E+0	17.693248E-12	1.0901961E+0	34.242120E-15	-2.1296822E-15	45.253298E-15	31.493701E-15
1.1058826E+0	18.023869E-12	1.1058824E+0	-7.4718487E-15	-65.818031E-15	31.516670E-15	50.815502E-15
1.1215689E+0	18.410233E-12	1.1215687E+0	-57.165244E-15	89.877866E-15	-17.363347E-15	36.674639E-15
1.1372552E+0	18.791768E-12	1.1372550E+0	-52.231446E-15	-21.745077E-15	12.949659E-15	-24.153632E-15
1.1529415E+0	19.199566E-12	1.1529412E+0	-24.648752E-15	-40.891512E-15	91.918692E-18	117.48868E-18
1.1686277E+0	19.563691E-12	1.1686275E+0	-324.20750E-18	-8.4826284E-15	27.653000E-15	7.3348454E-15
1.1843140E+0	19.968419E-12	1.1843138E+0	32.218775E-15	57.794027E-15	6.2222375E-15	12.880495E-15
1.2000003E+0	20.354558E-12	1.2000000E+0	-57.020625E-15	102.56717E-15	-26.351864E-15	-30.815177E-15
1.2156866E+0	20.768703E-12	1.2156863E+0	-29.362275E-15	5.6581297E-15	-28.034842E-15	-61.944028E-15
1.2313728E+0	21.138093E-12	1.2313726E+0	27.085830E-15	-21.405090E-15	13.544171E-15	1.0187603E-15
1.2470591E+0	21.543984E-12	1.2470589E+0	13.334481E-15	-10.842353E-15	25.360517E-15	41.153269E-15
1.2627454E+0	22.043362E-12	1.2627451E+0	-28.625146E-15	71.452725E-15	-37.630330E-15	-2.6306239E-15
1.2784317E+0	22.441242E-12	1.2784314E+0	31.065028E-15	-6.1547917E-15	36.762138E-15	-9.5404446E-15
1.2941179E+0	22.843068E-12	1.2941177E+0	-11.601655E-15	-76.988044E-15	64.705802E-15	7.9506290E-15
1.3098042E+0	23.314427E-12	1.3098040E+0	31.834781E-15	20.013849E-15	-37.737574E-15	-30.606238E-15
1.3254905E+0	23.857897E-12	1.3254902E+0	-23.248556E-15	56.459506E-15	-51.040776E-15	51.515178E-15
1.3411767E+0	24.227061E-12	1.3411765E+0	-72.518224E-15	50.343139E-15	-28.210307E-15	-10.623342E-15
1.3568630E+0	24.598355E-12	1.3568628E+0	16.487413E-15	18.164738E-15	762.16750E-18	39.232344E-15
1.3725493E+0	25.122810E-12	1.3725491E+0	-26.907154E-15	67.622374E-15	55.215117E-15	35.865818E-15
1.3882356E+0	25.656312E-12	1.3882353E+0	-106.04218E-15	-19.454875E-15	-35.577732E-15	-19.112036E-15
1.4039218E+0	26.024778E-12	1.4039216E+0	-71.315810E-15	33.674445E-15	-30.452830E-15	53.563897E-15
1.4196081E+0	26.539550E-12	1.4196079E+0	-22.528634E-15	-83.285124E-15	19.886512E-15	27.379195E-15
1.4352944E+0	26.948830E-12	1.4352942E+0	59.151035E-15	6.9364799E-15	-46.141357E-15	8.4920466E-15
1.4509807E+0	27.517580E-12	1.4509804E+0	-69.046826E-15	-12.736165E-15	27.784424E-15	-6.4400271E-15
1.4666669E+0	27.988752E-12	1.4666667E+0	-68.562892E-15	13.847697E-15	-47.028953E-15	-13.344532E-15
1.4823532E+0	28.536371E-12	1.4823530E+0	-11.313019E-15	-104.60088E-15	-62.602111E-15	-21.536656E-15
1.4980395E+0	29.114416E-12	1.4980392E+0	-40.530967E-15	34.271908E-15	-28.804646E-15	-1.0125060E-15
1.5137258E+0	29.565711E-12	1.5137255E+0	86.203200E-15	31.350604E-15	-34.538602E-15	-76.094912E-15
1.5294120E+0	30.107253E-12	1.5294118E+0	-4.3039383E-15	-3.4609957E-15	-71.308539E-15	41.436012E-15
1.5450983E+0	30.659201E-12	1.5450981E+0	36.665803E-15	101.98544E-15	-10.853334E-15	-40.588433E-15
1.5607846E+0	31.259113E-12	1.5607843E+0	41.133353E-15	22.709450E-15	25.010840E-15	21.471618E-15
1.5764709E+0	31.741783E-12	1.5764706E+0	67.631095E-15	-59.929350E-15	9.8586504E-15	-7.5597309E-15
1.5921571E+0	32.329403E-12	1.5921569E+0	132.34365E-15	11.129746E-15	-28.433290E-15	-34.369056E-15
1.6078434E+0	32.841140E-12	1.6078432E+0	11.321822E-15	13.676795E-15	-2.8588419E-15	62.592923E-15
1.6235297E+0	33.500400E-12	1.6235294E+0	48.372368E-15	-27.759823E-15	877.97247E-18	-24.206367E-15
1.6392159E+0	34.120727E-12	1.6392157E+0	-94.103036E-15	81.185248E-15	-31.886383E-15	-20.051320E-15
1.6549022E+0	34.682882E-12	1.6549020E+0	-33.474186E-15	24.825214E-15	-15.649464E-15	-25.203272E-15
1.6705885E+0	35.250636E-12	1.6705883E+0	9.6649407E-15	62.847595E-15	-121.64709E-15	-53.289553E-15
1.6862748E+0	35.783002E-12	1.6862745E+0	-52.131083E-15	23.148953E-15	6.7130605E-15	28.276750E-15
1.7019610E+0	36.400535E-12	1.7019608E+0	15.180799E-15	-29.314235E-15	-36.541635E-15	4.9994324E-15
1.7176473E+0	36.946581E-12	1.7176471E+0	-96.783719E-15	6.8832438E-15	-37.025345E-15	-27.449407E-15
1.7333336E+0	37.686649E-12	1.7333333E+0	-24.140246E-15	-16.075823E-15	-11.660373E-15	63.825464E-15
1.7490199E+0	38.294135E-12	1.7490196E+0	55.206321E-15	-402.96534E-18	-21.331823E-15	3.9102543E-15
1.7647061E+0	38.930074E-12	1.7647059E+0	-8.6096605E-15	-41.529748E-15	13.830146E-15	7.2015139E-15
1.7803924E+0	39.439067E-12	1.7803922E+0	-25.937026E-15	-33.049345E-15	35.874390E-15	53.642553E-15
1.7960787E+0	40.364882E-12	1.7960784E+0	-102.57780E-15	121.84345E-15	55.779688E-15	-58.687233E-15
1.8117650E+0	41.035720E-12	1.8117647E+0	-100.53589E-15	97.870693E-15	22.991847E-15	-100.61894E-15
1.8274512E+0	41.630935E-12	1.8274510E+0	77.338811E-15	125.10217E-15	-33.500258E-15	-49.814682E-15
1.8431375E+0	42.400059E-12	1.8431373E+0	-148.28801E-15	14.435806E-15	9.8733167E-15	42.341734E-15
1.8588238E+0	43.129736E-12	1.8588235E+0	185.83588E-15	54.326742E-15	5.7599519E-15	-67.923179E-15
1.8745100E+0	43.796338E-12	1.8745098E+0	-75.681215E-15	55.990318E-15	-5.2307291E-15	-72.794405E-15
1.8901963E+0	44.603193E-12	1.8901961E+0	6.0089360E-15	-43.132815E-15	15.214062E-15	65.569376E-15
1.9058826E+0	45.321542E-12	1.9058824E+0	99.759258E-15	102.98790E-15	-83.232432E-15	-16.428785E-15
1.9215689E+0	46.176910E-12	1.9215686E+0	-2.1661328E-15	-67.597234E-15	8.0680481E-15	-15.376176E-15
1.9372551E+0	46.752279E-12	1.9372549E+0	12.724737E-15	-71.181403E-15	-10.973706E-15	49.678411E-15
1.9529414E+0	47.708993E-12	1.9529412E+0	74.706653E-15	-104.06252E-15	64.471405E-15	51.236745E-15
1.9686277E+0	48.452041E-12	1.9686275E+0	-27.974708E-15	-71.297379E-15	-16.909986E-15	97.603010E-15
1.9843140E+0	49.103169E-12	1.9843137E+0	70.116947E-15	-141.87048E-15	-17.421147E-15	-53.200527E-15
2.0000000E+0	50.034546E-12	2.0000000E+0	21.336409E-15	11.967136E-15	-17.391026E-15	9.6101885E-15
