Experiment	bias spectroscopy
Saved Date	24.04.2024 14:23:59
User
Date
X (m)	2E-9
Y (m)	-2.5E-9
Z (m)	-1.01534E-9
Z offset (m)	0E+0
Settling time (s)	200E-6
Integration time (s)	10E-3
Z-Ctrl hold	TRUE
Final Z (m)	N/A
Start time	24.04.2024 14:23:56
Filter type	None
Order
Cutoff frq
Bias>Bias (V)	2E+0
Bias>Calibration (V/V)	1E+0
Bias>Offset (V)	0E+0
Bias Spectroscopy>Sweep Start (V)	-2E+0
Bias Spectroscopy>Sweep End (V)	2E+0
Bias Spectroscopy>Num Pixel	256
Bias Spectroscopy>Z Avg time (s)	50E-3
Bias Spectroscopy>Z offset (m)	0E+0
Bias Spectroscopy>1st Settling time (s)	5E-3
Bias Spectroscopy>Settling time (s)	200E-6
Bias Spectroscopy>Integration time (s)	10E-3
Bias Spectroscopy>End Settling time (s)	5E-3
Bias Spectroscopy>Z control time (s)	200E-3
Bias Spectroscopy>Max Slew rate (V/s)	Inf
Bias Spectroscopy>backward sweep	FALSE
Bias Spectroscopy>Z-controller hold	TRUE
Bias Spectroscopy>Number of sweeps	1
Bias Spectroscopy>Channels	Current (A);Bias (V);LI Demod 1 X (A);LI Demod 1 Y (A);LI Demod 2 X (A);LI Demod 2 Y (A)
Bias Spectroscopy>Reset Bias	TRUE
Bias Spectroscopy>Record final Z	FALSE
Bias Spectroscopy>Lock-In run	FALSE
Bias Spectroscopy>Revert Z Offset	FALSE
Current>Current (A)	29.8357E-12
Current>Calibration (A/V)	1E-9
Current>Offset (A)	0E+0
Current>Gain	LN 10^9
Lock-in>Lock-in status	OFF
Lock-in>Modulated signal	Bias (V)
Lock-in>Frequency (Hz)	2E+3
Lock-in>Amplitude	100E-3
Lock-in>Demodulated signal	Current (A)
Lock-in>HP Filter Cutoff D1 (Hz)	38.8562E+0
Lock-in>HP Filter Cutoff D2 (Hz)	38.8562E+0
Lock-in>HP Filter Order D1	OFF
Lock-in>HP Filter Order D2	OFF
Lock-in>Harmonic D1	1
Lock-in>Harmonic D2	2
Lock-in>Reference phase D1 (deg)	0E+0
Lock-in>Reference phase D2 (deg)	0E+0
Lock-in>LP Filter Cutoff D1 (Hz)	621.699E+0
Lock-in>LP Filter Cutoff D2 (Hz)	621.699E+0
Lock-in>LP Filter Order D1	OFF
Lock-in>LP Filter Order D2	OFF
Lock-in>Sync Filter D1	ON
Lock-in>Sync Filter D2	ON
Lock-in 2>Lock-in status	OFF
Lock-in 2>Modulated signal	Input 2 (V)
Lock-in 2>Frequency (Hz)	1E+3
Lock-in 2>Amplitude	1E+0
Lock-in 2>Demodulated signal	Current (A)
Lock-in 2>HP Filter Cutoff D3 (Hz)	38.8562E+0
Lock-in 2>HP Filter Cutoff D4 (Hz)	38.8562E+0
Lock-in 2>HP Filter Order D3	OFF
Lock-in 2>HP Filter Order D4	OFF
Lock-in 2>Harmonic D3	1
Lock-in 2>Harmonic D4	1
Lock-in 2>Reference phase D3 (deg)	0E+0
Lock-in 2>Reference phase D4 (deg)	0E+0
Lock-in 2>LP Filter Cutoff D3 (Hz)	621.699E+0
Lock-in 2>LP Filter Cutoff D4 (Hz)	621.699E+0
Lock-in 2>LP Filter Order D3	OFF
Lock-in 2>LP Filter Order D4	OFF
Lock-in 2>Sync Filter D3	ON
Lock-in 2>Sync Filter D4	ON
NanonisMain>Session Path	C:\Users\scbr\Documents\Nanonis Sessions\nanonis_session_sim
NanonisMain>SW Version	Generic 5e
NanonisMain>UI Release	13632
NanonisMain>RT Release	13632
NanonisMain>RT Frequency (Hz)	20E+3
NanonisMain>Signals Oversampling	10
NanonisMain>Acquisition Period (s)	20E-3
NanonisMain>Animations Period (s)	20E-3
NanonisMain>Indicators Period (s)	300E-3
NanonisMain>Measurements Period (s)	500E-3
Piezo Configuration>Active Calib.	Default
Piezo Configuration>Calib. X (m/V)	10E-9
Piezo Configuration>Calib. Y (m/V)	10E-9
Piezo Configuration>Calib. Z (m/V)	5E-9
Piezo Configuration>HV Gain X	15
Piezo Configuration>HV Gain Y	15
Piezo Configuration>HV Gain Z	15
Piezo Configuration>Tilt X (deg)	0
Piezo Configuration>Tilt Y (deg)	0
Piezo Configuration>Curvature radius X (m)	Inf
Piezo Configuration>Curvature radius Y (m)	Inf
Piezo Configuration>2nd order corr X (V/m^2)	0E+0
Piezo Configuration>2nd order corr Y (V/m^2)	0E+0
Piezo Configuration>Drift X (m/s)	0E+0
Piezo Configuration>Drift Y (m/s)	0E+0
Piezo Configuration>Drift Z (m/s)	0E+0
Piezo Configuration>Drift correction status (on/off)	FALSE
Temperature 1>Temperature 1 (K)	515.131E+0
Z-Controller>Z (m)	-1.01545E-9
Z-Controller>Controller name	log Current
Z-Controller>Controller status	ON
Z-Controller>Setpoint	50E-12
Z-Controller>Setpoint unit	A
Z-Controller>P gain	200E-12
Z-Controller>I gain	200E-9
Z-Controller>Time const (s)	1E-3
Z-Controller>TipLift (m)	0E+0
Z-Controller>Switch off delay (s)	0E+0

[DATA]
Bias calc (V)	Current (A)	Bias (V)	LI Demod 1 X (A)	LI Demod 1 Y (A)	LI Demod 2 X (A)	LI Demod 2 Y (A)
-2.0000000E+0	-93.154304E-12	-2.0000000E+0	111.88751E-15	81.736165E-15	127.76862E-15	-9.7668786E-15
-1.9843137E+0	-91.741899E-12	-1.9843137E+0	-154.14993E-15	130.32517E-15	52.026895E-15	18.703695E-15
-1.9686275E+0	-90.423981E-12	-1.9686275E+0	-87.566625E-15	48.557912E-15	110.95507E-15	-10.119252E-15
-1.9529412E+0	-89.322216E-12	-1.9529412E+0	-221.05888E-15	-201.22184E-15	3.0744490E-15	-50.660739E-15
-1.9372549E+0	-87.279059E-12	-1.9372549E+0	-140.81789E-15	89.333102E-15	30.173970E-15	35.296378E-15
-1.9215686E+0	-86.135633E-12	-1.9215686E+0	-8.8251473E-15	-42.225829E-15	-46.335562E-15	259.96626E-15
-1.9058824E+0	-84.731465E-12	-1.9058824E+0	40.724619E-15	84.927467E-15	55.501980E-15	-94.967179E-15
-1.8901961E+0	-83.485698E-12	-1.8901961E+0	77.709174E-15	107.42172E-15	65.502122E-15	43.992167E-15
-1.8745098E+0	-82.283159E-12	-1.8745098E+0	-46.499110E-15	171.62430E-15	-9.3578133E-15	-21.229421E-15
-1.8588235E+0	-80.920229E-12	-1.8588235E+0	10.599669E-15	-92.522906E-15	19.855745E-15	26.497352E-15
-1.8431373E+0	-79.351699E-12	-1.8431373E+0	-144.24968E-15	66.441020E-15	-82.240543E-15	-26.764390E-15
-1.8274510E+0	-78.441108E-12	-1.8274510E+0	-123.72384E-15	-157.85024E-15	-10.106293E-15	-19.414739E-15
-1.8117647E+0	-77.133341E-12	-1.8117647E+0	-154.37039E-15	135.66439E-15	-176.90236E-15	-47.863619E-15
-1.7960784E+0	-75.923337E-12	-1.7960784E+0	7.8089712E-15	41.468643E-15	115.30478E-15	65.869815E-15
-1.7803922E+0	-74.499705E-12	-1.7803922E+0	-77.557806E-15	237.05151E-15	-97.140706E-15	-34.385496E-15
-1.7647059E+0	-73.388511E-12	-1.7647059E+0	46.510691E-15	-28.429140E-15	67.051514E-15	9.6875734E-15
-1.7490196E+0	-72.098841E-12	-1.7490196E+0	145.11706E-15	60.953887E-15	17.895824E-15	80.417179E-15
-1.7333333E+0	-71.174656E-12	-1.7333333E+0	93.035998E-15	-145.39934E-15	-49.186207E-15	-40.736772E-15
-1.7176471E+0	-70.026866E-12	-1.7176471E+0	107.04443E-15	-85.939333E-15	-25.150485E-15	-70.221789E-15
-1.7019608E+0	-68.710204E-12	-1.7019608E+0	76.787467E-15	-218.56616E-15	-2.2369632E-15	43.703942E-15
-1.6862745E+0	-67.587332E-12	-1.6862745E+0	-140.30121E-15	-234.33179E-15	-6.4045783E-15	115.14132E-15
-1.6705883E+0	-66.347421E-12	-1.6705883E+0	-31.301533E-15	35.310503E-15	51.433931E-15	-34.411730E-15
-1.6549020E+0	-65.462594E-12	-1.6549020E+0	-50.032424E-15	70.414486E-15	-90.250974E-15	-36.898903E-15
-1.6392157E+0	-64.439017E-12	-1.6392157E+0	44.683095E-15	39.867534E-15	38.181403E-15	27.622187E-15
-1.6235294E+0	-63.272408E-12	-1.6235294E+0	-70.300800E-15	82.753188E-15	25.750206E-15	-152.12663E-15
-1.6078432E+0	-62.429825E-12	-1.6078432E+0	-126.71584E-15	-65.923971E-15	-30.493593E-15	-98.349605E-15
-1.5921569E+0	-61.268726E-12	-1.5921569E+0	-53.736224E-15	135.44129E-15	29.778087E-15	42.725809E-15
-1.5764706E+0	-60.127160E-12	-1.5764706E+0	-38.791676E-15	-45.120456E-15	3.0168963E-15	-102.08058E-15
-1.5607843E+0	-59.327210E-12	-1.5607843E+0	56.061469E-15	-48.948225E-15	61.377695E-15	70.383186E-15
-1.5450981E+0	-58.225431E-12	-1.5450981E+0	-136.52529E-15	-87.455190E-15	-56.734575E-15	-4.4356778E-15
-1.5294118E+0	-57.320426E-12	-1.5294118E+0	53.366013E-15	101.07975E-15	46.659664E-15	15.550187E-15
-1.5137255E+0	-56.422745E-12	-1.5137255E+0	23.481303E-15	52.747920E-15	27.205745E-15	18.572180E-15
-1.4980392E+0	-55.484551E-12	-1.4980392E+0	125.81779E-15	-7.9112606E-15	11.718582E-15	22.032299E-15
-1.4823530E+0	-54.644764E-12	-1.4823530E+0	93.602914E-15	-46.572721E-15	55.827460E-15	-29.091740E-15
-1.4666667E+0	-53.667727E-12	-1.4666667E+0	45.542004E-15	-47.726376E-15	136.13722E-15	12.266613E-15
-1.4509804E+0	-52.722941E-12	-1.4509804E+0	-152.77952E-15	92.814076E-15	-38.103083E-15	-23.696297E-15
-1.4352942E+0	-51.916988E-12	-1.4352942E+0	-31.994942E-15	-116.21524E-15	140.87267E-15	-796.24697E-18
-1.4196079E+0	-51.021003E-12	-1.4196079E+0	-41.980423E-15	34.260474E-15	-74.729983E-15	-14.995807E-15
-1.4039216E+0	-50.116081E-12	-1.4039216E+0	-9.2905394E-15	53.185599E-15	105.35376E-15	8.8406345E-15
-1.3882353E+0	-49.331230E-12	-1.3882353E+0	-37.189114E-15	44.968779E-15	87.971663E-15	-77.431510E-15
-1.3725491E+0	-48.368552E-12	-1.3725491E+0	-2.4489611E-15	57.691821E-15	-65.480160E-15	-31.960135E-15
-1.3568628E+0	-47.690265E-12	-1.3568628E+0	-44.416222E-15	132.51798E-15	-49.872870E-15	6.1724028E-15
-1.3411765E+0	-46.866799E-12	-1.3411765E+0	58.520375E-15	133.67522E-15	26.263785E-15	36.273803E-15
-1.3254902E+0	-46.141195E-12	-1.3254902E+0	8.3480128E-15	116.91474E-15	-36.282467E-15	-4.4607186E-15
-1.3098040E+0	-45.231607E-12	-1.3098040E+0	-127.38007E-15	114.05116E-15	-72.717643E-15	-21.587988E-15
-1.2941177E+0	-44.653649E-12	-1.2941177E+0	78.916298E-15	24.748273E-15	76.487211E-15	7.3131893E-15
-1.2784314E+0	-43.808273E-12	-1.2784314E+0	16.859081E-15	2.1033241E-15	-115.48816E-15	-39.716257E-15
-1.2627451E+0	-43.168701E-12	-1.2627451E+0	20.874786E-15	-131.91210E-15	-74.057093E-15	-17.017919E-15
-1.2470587E+0	-42.340732E-12	-1.2470589E+0	-111.56308E-15	2.6395393E-15	15.185373E-15	-21.908917E-15
-1.2313725E+0	-41.612602E-12	-1.2313726E+0	77.188554E-15	-12.254703E-15	-70.026890E-15	-36.349762E-15
-1.2156862E+0	-40.927598E-12	-1.2156863E+0	-11.787013E-15	61.570981E-15	-17.671845E-15	-10.870747E-15
-1.1999999E+0	-40.444450E-12	-1.2000000E+0	63.266551E-15	-32.310455E-15	72.391678E-15	-15.322929E-15
-1.1843137E+0	-39.571693E-12	-1.1843138E+0	-20.699286E-15	-52.478465E-15	3.2257973E-15	-15.836606E-15
-1.1686274E+0	-38.780420E-12	-1.1686275E+0	16.668451E-15	-186.10145E-15	2.1418958E-15	35.877232E-15
-1.1529411E+0	-38.206154E-12	-1.1529412E+0	31.864163E-15	-54.470866E-15	-2.6831499E-15	-25.063398E-15
-1.1372548E+0	-37.433077E-12	-1.1372550E+0	-71.465295E-15	37.903034E-15	-36.139938E-15	-45.218851E-15
-1.1215686E+0	-36.823811E-12	-1.1215687E+0	54.111063E-15	84.343191E-15	6.9802761E-15	34.817825E-15
-1.1058823E+0	-36.232534E-12	-1.1058824E+0	-6.8007077E-15	-27.915047E-15	29.287709E-15	89.728538E-15
-1.0901960E+0	-35.724146E-12	-1.0901961E+0	-32.581885E-15	-11.229152E-15	46.170092E-15	-6.7131833E-15
-1.0745097E+0	-35.019803E-12	-1.0745099E+0	-9.9222320E-15	20.892528E-15	24.254024E-15	15.300856E-15
-1.0588235E+0	-34.303924E-12	-1.0588236E+0	-69.807692E-15	-3.6912180E-15	-103.41732E-15	35.200311E-15
-1.0431372E+0	-33.848903E-12	-1.0431373E+0	-17.167582E-15	1.1186434E-15	23.846491E-15	-63.712477E-15
-1.0274509E+0	-33.182592E-12	-1.0274510E+0	86.732189E-15	-27.028418E-15	14.876202E-15	62.332301E-15
-1.0117646E+0	-32.518994E-12	-1.0117648E+0	-78.723134E-15	146.38460E-15	9.4151490E-15	-43.398550E-15
-996.07837E-3	-32.014308E-12	-996.07843E-3	22.773038E-15	-7.5198535E-15	-6.7343075E-15	-6.9976742E-15
-980.39210E-3	-31.317827E-12	-980.39216E-3	-17.851265E-15	54.268872E-15	33.860999E-15	-67.615875E-15
-964.70582E-3	-30.761147E-12	-964.70588E-3	119.55556E-15	-35.465456E-15	-5.1002920E-15	49.848827E-15
-949.01955E-3	-30.102032E-12	-949.01961E-3	33.538100E-15	-17.752250E-15	20.578879E-15	64.939285E-15
-933.33328E-3	-29.730218E-12	-933.33334E-3	39.941696E-15	-31.942541E-15	-7.6924906E-15	10.866752E-15
-917.64700E-3	-29.135892E-12	-917.64706E-3	16.739101E-15	-46.937033E-15	-11.593915E-15	23.555038E-15
-901.96073E-3	-28.647066E-12	-901.96079E-3	-42.520549E-15	-41.932654E-15	31.882452E-15	-37.484284E-15
-886.27446E-3	-28.025060E-12	-886.27452E-3	-10.429702E-15	44.695445E-15	-81.263426E-15	-40.960386E-15
-870.58818E-3	-27.468099E-12	-870.58824E-3	-100.29700E-15	53.842313E-15	-7.6715926E-15	32.433440E-15
-854.90191E-3	-27.051776E-12	-854.90197E-3	-77.097725E-15	-18.390756E-15	36.611691E-15	70.332249E-15
-839.21564E-3	-26.489796E-12	-839.21570E-3	33.107153E-15	36.112769E-15	-51.352941E-15	5.6851606E-15
-823.52936E-3	-25.928362E-12	-823.52942E-3	-9.4276088E-15	-65.810381E-15	-11.383853E-15	-59.310873E-15
-807.84309E-3	-25.484318E-12	-807.84315E-3	19.442461E-15	-3.4836396E-15	-62.894771E-15	-26.925759E-15
-792.15682E-3	-25.029250E-12	-792.15688E-3	-30.493328E-15	-15.817336E-15	-9.8163775E-15	20.660479E-15
-776.47054E-3	-24.483807E-12	-776.47060E-3	14.078531E-15	48.005850E-15	-15.872039E-15	6.1148439E-15
-760.78427E-3	-23.950486E-12	-760.78433E-3	-116.14693E-15	-28.476252E-15	-26.250042E-15	3.2934352E-15
-745.09799E-3	-23.497758E-12	-745.09805E-3	25.201112E-15	2.4925643E-15	15.312663E-15	-44.271078E-15
-729.41172E-3	-23.108938E-12	-729.41178E-3	-44.259138E-15	-4.5191330E-15	35.259959E-15	-22.240483E-15
-713.72545E-3	-22.588502E-12	-713.72551E-3	-18.445447E-15	-349.05452E-18	-7.3990818E-15	-34.553710E-15
-698.03917E-3	-22.282360E-12	-698.03923E-3	-7.3194819E-15	21.257947E-15	-39.458982E-15	26.208719E-15
-682.35290E-3	-21.697397E-12	-682.35296E-3	-10.310570E-15	-73.388703E-15	-56.829517E-15	282.54669E-18
-666.66663E-3	-21.308753E-12	-666.66669E-3	-37.619024E-15	-29.385077E-15	32.680821E-15	38.129625E-15
-650.98035E-3	-20.773770E-12	-650.98041E-3	23.664838E-15	-50.716362E-15	1.9456667E-15	8.1397952E-15
-635.29408E-3	-20.325722E-12	-635.29414E-3	-3.2458688E-15	17.450737E-15	72.491052E-15	-4.0130359E-15
-619.60781E-3	-19.920773E-12	-619.60787E-3	9.7460475E-15	24.295905E-15	-2.1695843E-15	-29.893490E-15
-603.92153E-3	-19.533741E-12	-603.92159E-3	53.298572E-15	39.004634E-15	46.416803E-18	-17.502845E-15
-588.23526E-3	-19.135211E-12	-588.23532E-3	-51.736074E-15	-10.118368E-15	-45.579175E-15	-12.256548E-15
-572.54899E-3	-18.579693E-12	-572.54905E-3	72.909974E-15	-3.0710274E-15	-14.254690E-15	67.683652E-15
-556.86271E-3	-18.245872E-12	-556.86277E-3	-34.747524E-15	-58.386286E-15	-26.251826E-15	44.477839E-15
-541.17644E-3	-17.835351E-12	-541.17650E-3	-97.391327E-15	2.7182541E-15	10.227771E-15	35.686386E-15
-525.49016E-3	-17.405480E-12	-525.49022E-3	-48.404131E-15	15.899290E-15	4.2678784E-15	-48.240522E-15
-509.80389E-3	-17.022456E-12	-509.80395E-3	63.079120E-15	-1.7762999E-15	30.214458E-15	9.6947148E-15
-494.11750E-3	-16.611414E-12	-494.11765E-3	-67.986666E-15	-26.029577E-15	-34.151725E-15	-39.070594E-15
-478.43122E-3	-16.270206E-12	-478.43137E-3	-52.503852E-15	-54.201513E-15	-16.797014E-15	-35.881698E-15
-462.74495E-3	-15.870725E-12	-462.74510E-3	904.83162E-18	22.099135E-15	-91.202958E-15	-26.736871E-15
-447.05868E-3	-15.476079E-12	-447.05883E-3	-60.366290E-15	5.0218551E-15	-22.573747E-15	3.8014500E-15
-431.37240E-3	-15.050969E-12	-431.37255E-3	-21.459910E-15	-30.943116E-15	-337.08359E-18	-6.0304871E-15
-415.68613E-3	-14.708996E-12	-415.68628E-3	-83.580237E-15	16.763062E-15	-24.875782E-15	29.472908E-15
-399.99986E-3	-14.362935E-12	-400.00001E-3	3.9848597E-15	19.287872E-15	-38.049489E-15	-21.941303E-15
-384.31358E-3	-14.008021E-12	-384.31373E-3	12.748110E-15	-7.9989438E-15	-39.170649E-15	53.258325E-15
-368.62731E-3	-13.552370E-12	-368.62746E-3	-11.628532E-15	-29.616914E-15	-14.605620E-15	11.375164E-15
-352.94104E-3	-13.205478E-12	-352.94119E-3	30.970001E-15	37.646698E-15	292.21342E-18	10.468401E-15
-337.25476E-3	-12.855056E-12	-337.25491E-3	84.689437E-15	46.081171E-15	-25.880600E-15	7.3344744E-15
-321.56849E-3	-12.567647E-12	-321.56864E-3	-4.6535376E-15	-5.9582161E-15	-66.503728E-15	-23.655711E-15
-305.88222E-3	-12.114246E-12	-305.88236E-3	-4.0632327E-15	-29.772100E-15	-49.595924E-15	8.8696166E-15
-290.19594E-3	-11.808045E-12	-290.19609E-3	-74.923059E-15	19.073735E-15	-9.7659460E-15	52.410225E-15
-274.50967E-3	-11.432691E-12	-274.50982E-3	-17.537436E-15	52.625791E-15	2.7955141E-15	13.460655E-15
-258.82339E-3	-11.125988E-12	-258.82354E-3	-1.3453570E-15	10.471800E-15	31.314900E-15	19.900716E-15
-243.13712E-3	-10.737474E-12	-243.13726E-3	-15.326258E-15	-9.8791968E-15	-64.897469E-15	-53.630975E-15
-227.45085E-3	-10.450883E-12	-227.45098E-3	-24.410543E-15	-214.25399E-18	-15.404314E-15	-52.786927E-15
-211.76457E-3	-10.093089E-12	-211.76471E-3	-22.308205E-15	-31.426857E-15	31.377234E-15	-12.366555E-15
-196.07830E-3	-9.7983731E-12	-196.07843E-3	-42.616670E-15	5.8857897E-15	24.197304E-15	11.721782E-15
-180.39203E-3	-9.4353535E-12	-180.39216E-3	-35.950064E-15	-17.770558E-15	32.355673E-15	31.529985E-15
-164.70575E-3	-9.1157776E-12	-164.70589E-3	-39.780763E-15	54.364892E-15	-9.9691746E-15	20.815379E-15
-149.01948E-3	-8.7804269E-12	-149.01961E-3	-2.2071254E-15	17.248959E-15	18.658853E-15	-1.9233160E-15
-133.33321E-3	-8.4265503E-12	-133.33334E-3	-192.16623E-18	-20.125789E-15	-25.813017E-15	-58.216500E-15
-117.64693E-3	-8.1199561E-12	-117.64706E-3	-18.435642E-15	-41.154414E-15	40.386253E-15	50.401303E-15
-101.96066E-3	-7.7997808E-12	-101.96079E-3	-51.238639E-15	9.8395947E-15	-7.8830561E-15	34.529240E-15
-86.274385E-3	-7.4531587E-12	-86.274512E-3	-2.4687440E-15	-35.014272E-15	28.149243E-15	5.2633344E-15
-70.588112E-3	-7.1331001E-12	-70.588239E-3	-19.040022E-15	-43.549098E-15	24.137378E-15	-7.9568200E-15
-54.901838E-3	-6.8201391E-12	-54.901961E-3	17.839032E-15	-32.054942E-15	-47.955929E-15	49.860283E-15
-39.215565E-3	-6.5266143E-12	-39.215688E-3	14.868720E-15	-50.958085E-15	10.887068E-15	26.286563E-15
-23.529291E-3	-6.2367897E-12	-23.529412E-3	13.042857E-15	21.223642E-15	-11.598829E-15	43.324834E-15
-7.8430176E-3	-5.9194286E-12	-7.8431377E-3	10.768410E-15	-16.982565E-15	64.254544E-15	-5.0790798E-15
7.8432560E-3	-5.6353286E-12	7.8431377E-3	11.808766E-15	56.472659E-15	-38.485037E-15	27.373232E-15
23.529530E-3	-5.2866344E-12	23.529412E-3	2.7348578E-15	-48.475438E-15	-20.940958E-15	-50.619577E-15
39.215803E-3	-5.0210396E-12	39.215688E-3	-22.944537E-15	16.884070E-15	4.0625602E-15	-40.645157E-15
54.902077E-3	-4.6882784E-12	54.901961E-3	-25.243920E-15	15.015312E-15	-5.3179045E-15	-16.515184E-15
70.588350E-3	-4.4024910E-12	70.588239E-3	-48.658756E-15	13.685900E-15	6.0412905E-15	-7.4533716E-15
86.274624E-3	-4.0795887E-12	86.274512E-3	-37.407601E-15	-9.2648464E-15	13.053342E-15	-47.937362E-15
101.96090E-3	-3.8132822E-12	101.96079E-3	33.543979E-15	25.724401E-15	-12.809982E-15	29.159926E-15
117.64717E-3	-3.4527778E-12	117.64706E-3	8.3505497E-15	2.8965240E-15	43.046099E-15	-16.721506E-15
133.33344E-3	-3.1757528E-12	133.33334E-3	37.766401E-15	12.981796E-15	-15.525018E-15	-15.522155E-15
149.01972E-3	-2.8695666E-12	149.01961E-3	23.636043E-15	-73.117971E-15	29.846626E-15	23.409253E-15
164.70599E-3	-2.5512721E-12	164.70589E-3	31.724931E-15	-14.410329E-15	-27.996097E-15	3.7353945E-15
180.39227E-3	-2.2976790E-12	180.39216E-3	2.6429107E-15	-3.4940431E-15	-550.63801E-18	32.998489E-15
196.07854E-3	-1.9877767E-12	196.07843E-3	-20.754872E-15	-17.002946E-15	8.0638604E-15	-7.3675781E-15
211.76481E-3	-1.6841381E-12	211.76471E-3	9.1260185E-15	-1.3663267E-15	-39.087538E-15	15.330778E-15
227.45109E-3	-1.4175579E-12	227.45098E-3	-15.126692E-15	2.8408320E-15	7.6561767E-15	15.498684E-15
243.13736E-3	-1.0650429E-12	243.13726E-3	-25.993173E-15	879.95913E-18	27.102966E-15	-26.176240E-15
258.82363E-3	-795.18515E-15	258.82354E-3	23.945891E-15	88.111125E-15	10.209329E-15	58.775447E-15
274.50991E-3	-504.09774E-15	274.50982E-3	-9.9890418E-15	-12.285002E-15	-5.4133998E-15	31.678168E-15
290.19618E-3	-168.02823E-15	290.19609E-3	2.1969447E-15	29.128020E-15	-39.066566E-15	25.087666E-15
305.88245E-3	114.92703E-15	305.88236E-3	14.652139E-15	13.547508E-15	2.6881554E-15	26.122972E-15
321.56873E-3	427.33633E-15	321.56864E-3	-23.724085E-15	33.462138E-15	-10.238147E-15	-14.081642E-15
337.25500E-3	649.20405E-15	337.25491E-3	-11.820353E-15	-17.436498E-15	-22.343442E-15	7.7756625E-15
352.94127E-3	978.38046E-15	352.94119E-3	8.9868900E-15	-22.448148E-15	27.383118E-15	12.414714E-15
368.62755E-3	1.3316774E-12	368.62746E-3	24.275586E-15	18.504456E-15	-24.781828E-15	-15.151549E-15
384.31382E-3	1.5991995E-12	384.31373E-3	1.1317705E-15	4.2868189E-15	10.558832E-15	-18.132831E-15
400.00010E-3	1.9123282E-12	400.00001E-3	6.3673915E-15	-17.804282E-15	16.662002E-15	-6.7494999E-15
415.68637E-3	2.1699198E-12	415.68628E-3	36.131596E-15	-9.7486301E-15	-27.330550E-15	-34.588685E-15
431.37264E-3	2.4975460E-12	431.37255E-3	-10.433636E-15	5.6818940E-15	-2.5870413E-15	-66.429758E-15
447.05892E-3	2.8252212E-12	447.05883E-3	22.052964E-15	58.068012E-15	-2.7612967E-15	3.4411010E-15
462.74519E-3	3.1175427E-12	462.74510E-3	-39.145943E-15	21.085432E-15	28.239887E-15	-45.700362E-15
478.43146E-3	3.3938544E-12	478.43137E-3	58.145037E-15	5.7831217E-15	58.916867E-15	-40.451935E-15
494.11774E-3	3.6846398E-12	494.11765E-3	16.414714E-15	14.707457E-15	-2.8997968E-15	-7.7486642E-15
509.80401E-3	4.0286498E-12	509.80395E-3	658.29691E-18	-31.700825E-15	13.501703E-15	-42.485658E-15
525.49028E-3	4.2935885E-12	525.49022E-3	-1.8315552E-15	12.320092E-15	-14.721834E-15	-22.326177E-15
541.17656E-3	4.5620591E-12	541.17650E-3	35.775612E-15	-8.1105954E-15	2.5371301E-15	20.817309E-15
556.86283E-3	4.9486222E-12	556.86277E-3	-31.887419E-15	36.707735E-15	-11.897059E-15	11.355387E-15
572.54910E-3	5.2256021E-12	572.54905E-3	385.77250E-18	-15.187189E-15	25.747227E-15	53.638697E-15
588.23538E-3	5.5478864E-12	588.23532E-3	-6.5053507E-15	-13.168242E-15	-43.475027E-15	7.2074931E-15
603.92165E-3	5.8547529E-12	603.92159E-3	16.472268E-15	5.6352026E-15	3.6174931E-15	-30.075558E-15
619.60793E-3	6.1178970E-12	619.60787E-3	-18.493223E-15	-32.143843E-15	-14.441737E-15	14.003203E-15
635.29420E-3	6.4531245E-12	635.29414E-3	-24.958278E-15	-13.701505E-15	-86.366264E-15	1.3206239E-15
650.98047E-3	6.7893594E-12	650.98041E-3	12.661927E-15	20.572348E-15	15.700701E-15	-54.173144E-15
666.66675E-3	7.0643135E-12	666.66669E-3	-2.7441136E-15	13.316684E-15	-34.398753E-15	6.6598160E-15
682.35302E-3	7.3946977E-12	682.35296E-3	-49.451312E-15	-32.802045E-15	54.620879E-15	-16.436989E-15
698.03929E-3	7.7168064E-12	698.03923E-3	3.2983753E-15	-20.009073E-15	-38.177205E-15	25.609723E-15
713.72557E-3	8.0170584E-12	713.72551E-3	-53.600282E-15	244.45371E-18	-23.590869E-15	4.7763938E-15
729.41184E-3	8.3542669E-12	729.41178E-3	12.620189E-15	13.193558E-15	4.2371781E-15	14.765607E-15
745.09811E-3	8.7108003E-12	745.09805E-3	-51.151849E-15	-87.390564E-15	-19.132480E-15	-15.324357E-15
760.78439E-3	9.0352179E-12	760.78433E-3	-27.434880E-15	39.403373E-15	-42.375524E-15	-56.168618E-15
776.47066E-3	9.3834376E-12	776.47060E-3	-15.837736E-15	-14.023688E-15	36.760449E-18	455.50933E-18
792.15693E-3	9.6428265E-12	792.15688E-3	29.103456E-15	66.470538E-15	17.371843E-15	-54.403923E-15
807.84321E-3	10.022045E-12	807.84315E-3	-6.7620093E-15	-45.660077E-15	29.066152E-15	5.9761914E-15
823.52948E-3	10.310510E-12	823.52942E-3	9.1901923E-15	-52.746375E-15	-11.752519E-15	-2.9183542E-15
839.21576E-3	10.657558E-12	839.21570E-3	30.281919E-15	-1.6171046E-15	-15.644585E-15	7.6901232E-15
854.90203E-3	11.026582E-12	854.90197E-3	-32.450510E-15	19.915352E-15	7.1277670E-15	4.2424285E-15
870.58830E-3	11.361186E-12	870.58824E-3	-13.850764E-15	32.168536E-15	11.230861E-15	11.575795E-15
886.27458E-3	11.748231E-12	886.27452E-3	-1.4952023E-15	-58.126823E-15	23.149248E-15	29.412521E-15
901.96085E-3	12.037343E-12	901.96079E-3	-54.771312E-15	15.317070E-15	21.312277E-15	-1.8062101E-15
917.64712E-3	12.407221E-12	917.64706E-3	-15.838715E-15	-59.940632E-15	-5.0161829E-15	-12.511279E-15
933.33340E-3	12.811671E-12	933.33334E-3	-28.968290E-15	-26.838586E-15	-4.4036493E-15	-24.082009E-15
949.01967E-3	13.192924E-12	949.01961E-3	19.023557E-15	21.803675E-15	-25.218399E-15	-46.806797E-15
964.70594E-3	13.435909E-12	964.70588E-3	2.6722769E-15	-47.926798E-15	76.214778E-15	-20.523625E-15
980.39222E-3	13.888667E-12	980.39216E-3	-17.718511E-15	-33.169953E-15	-48.790067E-15	-194.94772E-18
996.07849E-3	14.274160E-12	996.07843E-3	10.803127E-15	-24.086227E-15	-35.369372E-15	-46.448397E-15
1.0117650E+0	14.660882E-12	1.0117648E+0	-6.5706307E-15	2.9830277E-15	-10.592479E-15	-69.503499E-15
1.0274513E+0	14.981773E-12	1.0274510E+0	-4.6925558E-15	-7.5309962E-15	1.9723162E-15	19.319659E-15
1.0431376E+0	15.461027E-12	1.0431373E+0	15.556309E-15	-29.430631E-15	9.5247229E-15	14.068158E-15
1.0588238E+0	15.717700E-12	1.0588236E+0	-27.955235E-15	-46.090854E-15	1.0136191E-15	-12.458906E-15
1.0745101E+0	16.154640E-12	1.0745099E+0	-11.048040E-15	24.215513E-15	19.579956E-15	9.4162357E-15
1.0901964E+0	16.589853E-12	1.0901961E+0	65.485737E-15	41.691053E-15	-12.790054E-15	-19.781763E-15
1.1058826E+0	16.995927E-12	1.1058824E+0	-55.054492E-15	27.369019E-15	25.177792E-15	-57.209689E-15
1.1215689E+0	17.340549E-12	1.1215687E+0	-1.1804426E-15	-66.482986E-15	-14.511872E-15	19.143954E-15
1.1372552E+0	17.772093E-12	1.1372550E+0	-8.3186182E-15	-65.198396E-15	33.783550E-15	26.652891E-15
1.1529415E+0	18.154811E-12	1.1529412E+0	27.568876E-15	-6.4938823E-15	6.5993332E-15	76.900000E-15
1.1686277E+0	18.536931E-12	1.1686275E+0	-25.874429E-15	-54.314033E-15	-2.7508670E-15	4.9760966E-15
1.1843140E+0	18.960692E-12	1.1843138E+0	-22.825520E-15	-7.5566139E-15	12.944409E-15	38.677981E-15
1.2000003E+0	19.355630E-12	1.2000000E+0	67.565386E-15	-24.260494E-15	4.9446179E-15	18.188421E-15
1.2156866E+0	19.914631E-12	1.2156863E+0	-34.996427E-15	50.590886E-15	-7.6492123E-15	-10.977080E-15
1.2313728E+0	20.301769E-12	1.2313726E+0	-66.518317E-15	31.643694E-15	14.838047E-15	-26.262150E-15
1.2470591E+0	20.687587E-12	1.2470589E+0	76.235290E-15	-35.776961E-15	-2.5299896E-15	53.867755E-15
1.2627454E+0	21.076045E-12	1.2627451E+0	6.5421958E-15	4.0306817E-15	8.3203665E-15	-44.923595E-15
1.2784317E+0	21.573847E-12	1.2784314E+0	22.955392E-15	-28.055613E-15	-10.306962E-15	-34.639673E-15
1.2941179E+0	22.104657E-12	1.2941177E+0	-30.807117E-15	45.454217E-15	-59.914042E-15	26.992084E-15
1.3098042E+0	22.435529E-12	1.3098040E+0	-18.606895E-15	-55.369612E-15	10.246149E-15	26.419752E-15
1.3254905E+0	22.988764E-12	1.3254902E+0	-45.933282E-15	-29.724897E-15	-33.683800E-15	-21.945728E-15
1.3411767E+0	23.403607E-12	1.3411765E+0	-36.179887E-15	12.699446E-15	-44.326833E-15	64.568732E-15
1.3568630E+0	23.969949E-12	1.3568628E+0	-7.1471505E-15	-41.908991E-15	-1.9472830E-15	-80.197784E-15
1.3725493E+0	24.366099E-12	1.3725491E+0	-4.4053493E-15	-6.5379390E-15	-37.562743E-15	67.220291E-15
1.3882356E+0	24.773206E-12	1.3882353E+0	59.361919E-15	-12.145490E-15	-28.224293E-15	-18.701256E-15
1.4039218E+0	25.348817E-12	1.4039216E+0	-45.830910E-15	83.665693E-15	2.6497727E-15	59.704960E-15
1.4196081E+0	25.898427E-12	1.4196079E+0	14.293215E-15	48.266502E-15	8.6591128E-15	15.652579E-15
1.4352944E+0	26.447056E-12	1.4352942E+0	-27.744044E-15	-6.8513797E-15	-57.984826E-15	43.406854E-15
1.4509807E+0	26.836410E-12	1.4509804E+0	-44.166168E-15	16.949903E-15	-5.6185478E-15	12.985740E-15
1.4666669E+0	27.495580E-12	1.4666667E+0	78.314715E-15	43.897137E-15	-15.181546E-15	102.87296E-15
1.4823532E+0	27.825880E-12	1.4823530E+0	93.270891E-15	-106.04949E-15	-19.557333E-15	-58.184028E-15
1.4980395E+0	28.386479E-12	1.4980392E+0	-9.6768686E-15	-26.405527E-15	-18.695957E-15	-4.8124672E-15
1.5137258E+0	29.068905E-12	1.5137255E+0	56.839251E-15	5.2977892E-15	28.825249E-15	6.3703861E-15
1.5294120E+0	29.385206E-12	1.5294118E+0	28.164455E-15	6.3287591E-15	22.454572E-15	-7.6406183E-15
1.5450983E+0	30.099655E-12	1.5450981E+0	-21.192698E-15	74.833233E-15	-52.668841E-15	-11.762342E-15
1.5607846E+0	30.716259E-12	1.5607843E+0	-102.65716E-15	-36.000981E-15	-2.0274257E-15	-15.112924E-15
1.5764709E+0	31.328155E-12	1.5764706E+0	-3.5215056E-15	-36.221751E-15	-32.024676E-15	13.721065E-15
1.5921571E+0	31.786483E-12	1.5921569E+0	18.616205E-15	15.880711E-15	-1.5861695E-15	28.712127E-15
1.6078434E+0	32.388647E-12	1.6078432E+0	44.690271E-15	60.387500E-15	11.185376E-15	10.305199E-15
1.6235297E+0	32.914654E-12	1.6235294E+0	43.817211E-15	27.975316E-15	-27.375885E-15	67.505470E-15
1.6392159E+0	33.600019E-12	1.6392157E+0	-18.551738E-15	-17.287246E-15	65.355470E-15	5.5610470E-15
1.6549022E+0	34.211495E-12	1.6549020E+0	-67.814461E-15	-48.151783E-15	1.1248603E-15	-5.5396065E-15
1.6705885E+0	34.768105E-12	1.6705883E+0	24.608567E-15	-161.01267E-15	-54.588814E-15	-5.4613245E-15
1.6862748E+0	35.539516E-12	1.6862745E+0	-127.85656E-15	-21.601444E-15	7.6203133E-15	25.171239E-15
1.7019610E+0	36.110625E-12	1.7019608E+0	-17.920720E-15	-27.636227E-15	19.540599E-15	-40.265419E-15
1.7176473E+0	36.736978E-12	1.7176471E+0	-55.371696E-15	-54.915304E-15	15.946341E-15	-84.442924E-15
1.7333336E+0	37.283617E-12	1.7333333E+0	-43.075186E-15	-25.961075E-15	63.901690E-15	-47.068117E-15
1.7490199E+0	37.967889E-12	1.7490196E+0	-105.04305E-15	-63.210613E-15	21.895891E-15	15.833099E-15
1.7647061E+0	38.783581E-12	1.7647059E+0	-83.515470E-15	-1.9399862E-15	-28.362216E-15	65.655401E-15
1.7803924E+0	39.377761E-12	1.7803922E+0	-22.274334E-15	14.800058E-15	-1.9036407E-15	40.883455E-15
1.7960787E+0	40.151410E-12	1.7960784E+0	-20.197936E-15	-189.42538E-15	41.165449E-15	-27.248830E-15
1.8117650E+0	40.782700E-12	1.8117647E+0	60.749264E-15	54.048102E-15	-41.228018E-15	-86.064165E-15
1.8274512E+0	41.549666E-12	1.8274510E+0	-61.687099E-15	-52.815222E-15	-23.210844E-15	-57.573832E-15
1.8431375E+0	42.184530E-12	1.8431373E+0	47.501767E-15	146.82111E-15	2.1242098E-15	13.740259E-15
1.8588238E+0	42.971827E-12	1.8588235E+0	-168.45657E-15	-46.839790E-15	34.114987E-15	11.608921E-15
1.8745100E+0	43.837493E-12	1.8745098E+0	-8.1441024E-15	4.4371923E-15	-82.244195E-15	-13.532956E-15
1.8901963E+0	44.323215E-12	1.8901961E+0	-10.640672E-15	-65.901366E-15	58.328281E-15	15.285926E-15
1.9058826E+0	45.255303E-12	1.9058824E+0	121.68113E-15	-23.583569E-15	12.778702E-15	78.198854E-15
1.9215689E+0	45.754799E-12	1.9215686E+0	32.750017E-15	-107.72917E-15	-95.983795E-15	15.596778E-15
1.9372551E+0	46.779421E-12	1.9372549E+0	-139.82199E-15	4.7075694E-15	32.662570E-15	-30.324928E-15
1.9529414E+0	47.353201E-12	1.9529412E+0	-1.2883247E-15	-7.6080491E-15	-34.064911E-15	1.9976076E-15
1.9686277E+0	48.192474E-12	1.9686275E+0	45.177681E-15	125.04009E-15	8.0827882E-15	12.183741E-15
1.9843140E+0	49.294541E-12	1.9843137E+0	-48.559674E-15	110.22188E-15	42.704186E-15	42.949646E-15
2.0000000E+0	49.977092E-12	2.0000000E+0	-20.891256E-15	-28.736596E-15	6.1586224E-15	-7.4966609E-15
