Experiment	bias spectroscopy
Saved Date	24.04.2024 14:24:21
User
Date
X (m)	-2E-9
Y (m)	833.333E-12
Z (m)	-561.25E-12
Z offset (m)	0E+0
Settling time (s)	200E-6
Integration time (s)	10E-3
Z-Ctrl hold	TRUE
Final Z (m)	N/A
Start time	24.04.2024 14:24:18
Filter type	None
Order
Cutoff frq
Bias>Bias (V)	2E+0
Bias>Calibration (V/V)	1E+0
Bias>Offset (V)	0E+0
Bias Spectroscopy>Sweep Start (V)	-2E+0
Bias Spectroscopy>Sweep End (V)	2E+0
Bias Spectroscopy>Num Pixel	256
Bias Spectroscopy>Z Avg time (s)	50E-3
Bias Spectroscopy>Z offset (m)	0E+0
Bias Spectroscopy>1st Settling time (s)	5E-3
Bias Spectroscopy>Settling time (s)	200E-6
Bias Spectroscopy>Integration time (s)	10E-3
Bias Spectroscopy>End Settling time (s)	5E-3
Bias Spectroscopy>Z control time (s)	200E-3
Bias Spectroscopy>Max Slew rate (V/s)	Inf
Bias Spectroscopy>backward sweep	FALSE
Bias Spectroscopy>Z-controller hold	TRUE
Bias Spectroscopy>Number of sweeps	1
Bias Spectroscopy>Channels	Current (A);Bias (V);LI Demod 1 X (A);LI Demod 1 Y (A);LI Demod 2 X (A);LI Demod 2 Y (A)
Bias Spectroscopy>Reset Bias	TRUE
Bias Spectroscopy>Record final Z	FALSE
Bias Spectroscopy>Lock-In run	FALSE
Bias Spectroscopy>Revert Z Offset	FALSE
Current>Current (A)	36.1286E-12
Current>Calibration (A/V)	1E-9
Current>Offset (A)	0E+0
Current>Gain	LN 10^9
Lock-in>Lock-in status	OFF
Lock-in>Modulated signal	Bias (V)
Lock-in>Frequency (Hz)	2E+3
Lock-in>Amplitude	100E-3
Lock-in>Demodulated signal	Current (A)
Lock-in>HP Filter Cutoff D1 (Hz)	38.8562E+0
Lock-in>HP Filter Cutoff D2 (Hz)	38.8562E+0
Lock-in>HP Filter Order D1	OFF
Lock-in>HP Filter Order D2	OFF
Lock-in>Harmonic D1	1
Lock-in>Harmonic D2	2
Lock-in>Reference phase D1 (deg)	0E+0
Lock-in>Reference phase D2 (deg)	0E+0
Lock-in>LP Filter Cutoff D1 (Hz)	621.699E+0
Lock-in>LP Filter Cutoff D2 (Hz)	621.699E+0
Lock-in>LP Filter Order D1	OFF
Lock-in>LP Filter Order D2	OFF
Lock-in>Sync Filter D1	ON
Lock-in>Sync Filter D2	ON
Lock-in 2>Lock-in status	OFF
Lock-in 2>Modulated signal	Input 2 (V)
Lock-in 2>Frequency (Hz)	1E+3
Lock-in 2>Amplitude	1E+0
Lock-in 2>Demodulated signal	Current (A)
Lock-in 2>HP Filter Cutoff D3 (Hz)	38.8562E+0
Lock-in 2>HP Filter Cutoff D4 (Hz)	38.8562E+0
Lock-in 2>HP Filter Order D3	OFF
Lock-in 2>HP Filter Order D4	OFF
Lock-in 2>Harmonic D3	1
Lock-in 2>Harmonic D4	1
Lock-in 2>Reference phase D3 (deg)	0E+0
Lock-in 2>Reference phase D4 (deg)	0E+0
Lock-in 2>LP Filter Cutoff D3 (Hz)	621.699E+0
Lock-in 2>LP Filter Cutoff D4 (Hz)	621.699E+0
Lock-in 2>LP Filter Order D3	OFF
Lock-in 2>LP Filter Order D4	OFF
Lock-in 2>Sync Filter D3	ON
Lock-in 2>Sync Filter D4	ON
NanonisMain>Session Path	C:\Users\scbr\Documents\Nanonis Sessions\nanonis_session_sim
NanonisMain>SW Version	Generic 5e
NanonisMain>UI Release	13632
NanonisMain>RT Release	13632
NanonisMain>RT Frequency (Hz)	20E+3
NanonisMain>Signals Oversampling	10
NanonisMain>Acquisition Period (s)	20E-3
NanonisMain>Animations Period (s)	20E-3
NanonisMain>Indicators Period (s)	300E-3
NanonisMain>Measurements Period (s)	500E-3
Piezo Configuration>Active Calib.	Default
Piezo Configuration>Calib. X (m/V)	10E-9
Piezo Configuration>Calib. Y (m/V)	10E-9
Piezo Configuration>Calib. Z (m/V)	5E-9
Piezo Configuration>HV Gain X	15
Piezo Configuration>HV Gain Y	15
Piezo Configuration>HV Gain Z	15
Piezo Configuration>Tilt X (deg)	0
Piezo Configuration>Tilt Y (deg)	0
Piezo Configuration>Curvature radius X (m)	Inf
Piezo Configuration>Curvature radius Y (m)	Inf
Piezo Configuration>2nd order corr X (V/m^2)	0E+0
Piezo Configuration>2nd order corr Y (V/m^2)	0E+0
Piezo Configuration>Drift X (m/s)	0E+0
Piezo Configuration>Drift Y (m/s)	0E+0
Piezo Configuration>Drift Z (m/s)	0E+0
Piezo Configuration>Drift correction status (on/off)	FALSE
Temperature 1>Temperature 1 (K)	515.132E+0
Z-Controller>Z (m)	-561.079E-12
Z-Controller>Controller name	log Current
Z-Controller>Controller status	ON
Z-Controller>Setpoint	50E-12
Z-Controller>Setpoint unit	A
Z-Controller>P gain	200E-12
Z-Controller>I gain	200E-9
Z-Controller>Time const (s)	1E-3
Z-Controller>TipLift (m)	0E+0
Z-Controller>Switch off delay (s)	0E+0

[DATA]
Bias calc (V)	Current (A)	Bias (V)	LI Demod 1 X (A)	LI Demod 1 Y (A)	LI Demod 2 X (A)	LI Demod 2 Y (A)
-2.0000000E+0	-57.307874E-12	-2.0000000E+0	-14.284565E-15	-15.228389E-15	-52.401585E-15	-12.311008E-15
-1.9843137E+0	-56.378745E-12	-1.9843137E+0	-193.91609E-15	94.742743E-15	-895.72199E-18	56.225908E-15
-1.9686275E+0	-55.533540E-12	-1.9686275E+0	-115.42288E-15	-17.002647E-15	116.82724E-15	-49.602361E-15
-1.9529412E+0	-54.541684E-12	-1.9529412E+0	9.7603335E-15	-44.042935E-15	34.004731E-15	16.731699E-15
-1.9372549E+0	-53.860354E-12	-1.9372549E+0	46.197211E-15	34.654256E-15	-6.6146802E-15	47.902369E-15
-1.9215686E+0	-52.875693E-12	-1.9215686E+0	-68.571369E-15	65.357699E-15	6.0141846E-15	6.0782275E-15
-1.9058824E+0	-51.886443E-12	-1.9058824E+0	-83.688617E-15	-39.714539E-15	-172.73945E-18	-40.094742E-15
-1.8901961E+0	-51.100350E-12	-1.8901961E+0	98.229808E-15	-118.79369E-15	20.202430E-15	63.148353E-15
-1.8745098E+0	-50.456448E-12	-1.8745098E+0	9.4162188E-15	23.082393E-15	-43.384679E-15	-97.197546E-15
-1.8588235E+0	-49.561667E-12	-1.8588235E+0	-2.1128225E-15	-25.151534E-15	-11.463184E-15	-16.836840E-15
-1.8431373E+0	-48.650171E-12	-1.8431373E+0	-8.6759061E-15	-2.1348385E-15	-8.3380263E-15	35.945110E-15
-1.8274510E+0	-47.883916E-12	-1.8274510E+0	-88.593080E-15	-154.07281E-15	-27.770395E-15	25.323544E-15
-1.8117647E+0	-47.212192E-12	-1.8117647E+0	-194.59803E-15	-38.976997E-15	3.5744020E-15	-89.290798E-15
-1.7960784E+0	-46.557508E-12	-1.7960784E+0	-50.737192E-15	-423.23949E-18	-29.619160E-15	59.813082E-15
-1.7803922E+0	-45.529670E-12	-1.7803922E+0	68.073809E-15	-16.269841E-15	-59.596086E-15	-27.599632E-15
-1.7647059E+0	-44.901031E-12	-1.7647059E+0	-112.61457E-15	127.49898E-15	22.210756E-15	-3.8118308E-15
-1.7490196E+0	-44.221151E-12	-1.7490196E+0	-4.3771042E-15	-72.265016E-15	12.135367E-15	4.8090969E-15
-1.7333333E+0	-43.515629E-12	-1.7333333E+0	62.315408E-15	-13.200844E-15	-37.824138E-15	32.241438E-15
-1.7176471E+0	-42.828577E-12	-1.7176471E+0	17.492213E-15	-66.367200E-15	-169.74945E-15	-19.873851E-15
-1.7019608E+0	-42.003845E-12	-1.7019608E+0	-92.473751E-15	-62.887799E-15	25.163906E-15	22.732423E-15
-1.6862745E+0	-41.445847E-12	-1.6862745E+0	-4.7829998E-15	151.27950E-15	-61.987152E-15	4.8871425E-15
-1.6705883E+0	-40.433514E-12	-1.6705883E+0	40.841608E-15	39.733113E-15	39.253191E-15	83.149552E-15
-1.6549020E+0	-39.946421E-12	-1.6549020E+0	73.943882E-15	-57.580005E-15	8.4520912E-15	47.812787E-15
-1.6392157E+0	-39.372661E-12	-1.6392157E+0	46.537749E-15	-85.006051E-15	29.906565E-15	-35.173402E-15
-1.6235294E+0	-38.782279E-12	-1.6235294E+0	158.18286E-15	8.3122291E-15	-16.299623E-15	29.126668E-15
-1.6078432E+0	-37.840404E-12	-1.6078432E+0	-73.204829E-15	24.551748E-15	-54.525842E-15	53.885268E-15
-1.5921569E+0	-37.500655E-12	-1.5921569E+0	860.36699E-18	-45.994739E-15	-61.635626E-15	-21.256178E-15
-1.5764706E+0	-36.829085E-12	-1.5764706E+0	-84.673100E-15	-59.763487E-15	-36.228666E-15	-48.381089E-15
-1.5607843E+0	-36.160314E-12	-1.5607843E+0	-12.352889E-15	-6.2754769E-15	-89.337710E-15	-26.599740E-15
-1.5450981E+0	-35.460884E-12	-1.5450981E+0	-67.933255E-15	73.377251E-15	-25.889342E-15	3.5846464E-15
-1.5294118E+0	-35.041692E-12	-1.5294118E+0	-40.489805E-15	34.420000E-15	22.439722E-15	-29.806290E-15
-1.5137255E+0	-34.187039E-12	-1.5137255E+0	-110.48251E-15	49.481327E-15	-63.108413E-15	59.277670E-15
-1.4980392E+0	-33.611797E-12	-1.4980392E+0	73.649305E-15	35.307383E-15	34.424490E-15	20.479956E-15
-1.4823530E+0	-33.112253E-12	-1.4823530E+0	-29.399988E-15	13.535473E-15	-12.431137E-15	115.20655E-15
-1.4666667E+0	-32.575349E-12	-1.4666667E+0	96.351021E-15	39.589849E-15	-11.744214E-15	-13.420732E-15
-1.4509804E+0	-31.939514E-12	-1.4509804E+0	8.3444087E-15	18.566476E-15	44.050243E-15	-29.935303E-15
-1.4352942E+0	-31.635364E-12	-1.4352942E+0	31.237769E-15	-44.995495E-15	-15.553514E-15	2.2638512E-15
-1.4196079E+0	-30.930310E-12	-1.4196079E+0	-4.8033235E-15	-18.011998E-15	-19.298648E-15	-10.344495E-15
-1.4039216E+0	-30.433819E-12	-1.4039216E+0	-35.962359E-15	-52.867978E-15	-17.933238E-15	-14.850546E-15
-1.3882353E+0	-29.997307E-12	-1.3882353E+0	42.623531E-15	-109.76867E-15	33.337706E-15	17.718288E-15
-1.3725491E+0	-29.337248E-12	-1.3725491E+0	-100.77476E-15	23.558898E-15	-31.411759E-15	-73.041576E-15
-1.3568628E+0	-28.913497E-12	-1.3568628E+0	11.700777E-15	3.7869635E-18	61.504214E-15	22.708904E-15
-1.3411765E+0	-28.347654E-12	-1.3411765E+0	37.046626E-15	71.986681E-15	-14.207243E-15	-32.408809E-15
-1.3254902E+0	-27.789413E-12	-1.3254902E+0	6.6437258E-15	59.886686E-15	37.156659E-15	-26.890687E-15
-1.3098040E+0	-27.442975E-12	-1.3098040E+0	-10.038778E-15	74.124592E-15	-5.1455375E-15	-14.379619E-15
-1.2941177E+0	-26.866384E-12	-1.2941177E+0	-46.003525E-15	140.52644E-15	35.857791E-15	-44.340328E-15
-1.2784314E+0	-26.522404E-12	-1.2784314E+0	48.636612E-15	3.1798396E-15	30.084527E-15	48.720417E-15
-1.2627451E+0	-25.842637E-12	-1.2627451E+0	-62.348232E-15	632.74843E-18	9.7077336E-15	-47.763270E-15
-1.2470587E+0	-25.554002E-12	-1.2470589E+0	-30.489236E-15	-12.246254E-15	-18.814885E-15	20.265353E-15
-1.2313725E+0	-24.869677E-12	-1.2313726E+0	33.975413E-15	25.763376E-15	-39.076618E-15	43.894396E-15
-1.2156862E+0	-24.495414E-12	-1.2156863E+0	-35.894349E-15	32.824007E-15	56.751085E-15	-31.989887E-15
-1.1999999E+0	-24.159579E-12	-1.2000000E+0	-19.228929E-15	-7.6521956E-15	9.5414348E-15	29.808018E-15
-1.1843137E+0	-23.739916E-12	-1.1843138E+0	18.265530E-15	31.203057E-15	-43.396723E-15	-26.332826E-15
-1.1686274E+0	-23.221354E-12	-1.1686275E+0	4.1309733E-15	47.893493E-15	-5.5586186E-15	-33.978686E-15
-1.1529411E+0	-22.826765E-12	-1.1529412E+0	-15.415629E-15	62.552130E-15	28.185404E-15	53.564385E-15
-1.1372548E+0	-22.292121E-12	-1.1372550E+0	14.706837E-15	14.673653E-15	25.731194E-15	-52.159405E-15
-1.1215686E+0	-21.960479E-12	-1.1215687E+0	28.328704E-15	11.208256E-15	-10.002395E-15	-33.671396E-15
-1.1058823E+0	-21.535196E-12	-1.1058824E+0	39.860886E-15	36.375820E-15	17.534505E-15	64.847514E-15
-1.0901960E+0	-21.148101E-12	-1.0901961E+0	-53.329980E-15	-10.538140E-15	-7.3796051E-15	-3.4620100E-15
-1.0745097E+0	-20.771593E-12	-1.0745099E+0	-27.247193E-15	-8.6525440E-15	40.746987E-15	-11.135507E-15
-1.0588235E+0	-20.363619E-12	-1.0588236E+0	-27.307868E-15	39.925216E-15	37.839493E-15	754.56591E-18
-1.0431372E+0	-19.925834E-12	-1.0431373E+0	-15.255589E-15	-15.782670E-15	4.2191999E-15	-16.523748E-15
-1.0274509E+0	-19.546795E-12	-1.0274510E+0	26.836409E-15	-43.954810E-15	-24.168088E-15	-11.993138E-15
-1.0117646E+0	-19.149661E-12	-1.0117648E+0	-10.512044E-15	-33.169648E-15	-34.393620E-15	1.0958207E-15
-996.07837E-3	-18.865406E-12	-996.07843E-3	-68.061272E-15	40.540112E-15	6.9225246E-15	25.768221E-15
-980.39210E-3	-18.510688E-12	-980.39216E-3	39.658889E-15	-19.732591E-15	-18.017876E-15	16.598268E-15
-964.70582E-3	-18.099494E-12	-964.70588E-3	-65.863371E-15	-37.253231E-15	-49.363962E-15	1.0238831E-15
-949.01955E-3	-17.759226E-12	-949.01961E-3	-26.648014E-15	-13.496781E-15	6.2660118E-15	76.144278E-15
-933.33328E-3	-17.312707E-12	-933.33334E-3	23.561292E-15	-46.622167E-15	5.7099698E-15	-11.913372E-15
-917.64700E-3	-16.924608E-12	-917.64706E-3	67.465829E-15	5.3970398E-15	23.933118E-15	-4.7106615E-15
-901.96073E-3	-16.682865E-12	-901.96079E-3	-9.1860799E-15	-4.2402465E-15	-37.302206E-15	3.8948269E-15
-886.27446E-3	-16.303184E-12	-886.27452E-3	-18.034267E-15	-18.395379E-15	-23.814487E-15	-4.1363156E-15
-870.58818E-3	-15.924153E-12	-870.58824E-3	-13.054504E-15	45.401545E-15	-57.842579E-15	-8.3714096E-15
-854.90191E-3	-15.639495E-12	-854.90197E-3	-30.906094E-15	-52.498753E-15	20.103819E-15	9.5625598E-15
-839.21564E-3	-15.382353E-12	-839.21570E-3	-13.279296E-15	-11.035877E-15	36.268203E-15	-6.6665563E-15
-823.52936E-3	-14.983820E-12	-823.52942E-3	17.193476E-15	-30.334750E-15	19.076869E-15	75.204369E-15
-807.84309E-3	-14.621589E-12	-807.84315E-3	-79.867760E-15	-3.1319285E-15	23.661891E-15	2.8821772E-15
-792.15682E-3	-14.290368E-12	-792.15688E-3	-17.018813E-15	31.043822E-15	-37.686617E-15	-39.145109E-15
-776.47054E-3	-13.956045E-12	-776.47060E-3	-31.906539E-15	12.568115E-15	-61.915256E-15	-13.290316E-15
-760.78427E-3	-13.659324E-12	-760.78433E-3	842.31926E-18	-14.138332E-15	-34.368125E-15	-25.643624E-15
-745.09799E-3	-13.321639E-12	-745.09805E-3	-35.723706E-15	-1.3797592E-15	-26.762714E-15	-20.508906E-15
-729.41172E-3	-13.015129E-12	-729.41178E-3	-47.708992E-15	6.4580452E-15	-5.3953606E-15	25.805010E-15
-713.72545E-3	-12.638584E-12	-713.72551E-3	30.594329E-15	-31.528294E-15	13.493686E-15	33.477890E-15
-698.03917E-3	-12.428196E-12	-698.03923E-3	29.832741E-15	-17.989318E-15	19.847542E-15	6.5736774E-15
-682.35290E-3	-12.061126E-12	-682.35296E-3	-34.462708E-15	21.568410E-15	-10.372626E-15	28.568592E-15
-666.66663E-3	-11.776288E-12	-666.66669E-3	-37.985657E-15	60.407246E-15	-17.140901E-15	59.890013E-15
-650.98035E-3	-11.507848E-12	-650.98041E-3	-439.28269E-18	13.292464E-15	23.305114E-15	-41.819233E-15
-635.29408E-3	-11.214851E-12	-635.29414E-3	-37.755335E-15	-53.949880E-15	-1.6349902E-15	11.935150E-15
-619.60781E-3	-10.987604E-12	-619.60787E-3	928.75553E-18	5.1498066E-15	-21.523641E-15	46.564989E-15
-603.92153E-3	-10.609666E-12	-603.92159E-3	-20.531188E-15	46.533879E-15	-43.987261E-15	17.529313E-15
-588.23526E-3	-10.356081E-12	-588.23532E-3	16.771469E-15	71.634708E-15	29.072336E-15	-23.099027E-15
-572.54899E-3	-10.070223E-12	-572.54905E-3	55.658952E-15	-8.2018065E-15	4.2068374E-15	22.139039E-15
-556.86271E-3	-9.8102680E-12	-556.86277E-3	38.576056E-15	-27.525804E-15	-5.1437897E-15	-36.871761E-15
-541.17644E-3	-9.5230499E-12	-541.17650E-3	26.709080E-15	31.398810E-15	17.949914E-15	-72.132987E-15
-525.49016E-3	-9.2744553E-12	-525.49022E-3	8.2172996E-15	55.106344E-15	1.8206929E-15	-47.766610E-15
-509.80389E-3	-8.9716229E-12	-509.80395E-3	-6.0833106E-15	15.705349E-15	13.649648E-15	-3.8133741E-15
-494.11750E-3	-8.7027408E-12	-494.11765E-3	6.0542997E-15	48.921747E-15	36.839889E-15	20.305059E-15
-478.43122E-3	-8.4672417E-12	-478.43137E-3	26.361300E-15	49.242840E-15	65.536742E-15	39.075917E-15
-462.74495E-3	-8.2093863E-12	-462.74510E-3	35.836236E-15	-22.589318E-15	11.703902E-15	48.918640E-15
-447.05868E-3	-8.0001266E-12	-447.05883E-3	15.784240E-15	-34.772881E-15	39.487778E-15	-26.776712E-15
-431.37240E-3	-7.6529382E-12	-431.37255E-3	-47.440733E-15	32.214056E-15	26.975677E-15	45.936040E-15
-415.68613E-3	-7.3860414E-12	-415.68628E-3	-43.963500E-15	-13.896855E-15	15.501816E-15	-45.273715E-15
-399.99986E-3	-7.1571772E-12	-400.00001E-3	62.831115E-15	-17.279760E-15	-21.686325E-15	-2.7900670E-15
-384.31358E-3	-6.8817048E-12	-384.31373E-3	-8.1453339E-15	-43.759003E-15	-45.835328E-15	-7.5633342E-15
-368.62731E-3	-6.5923946E-12	-368.62746E-3	-38.858921E-15	41.562158E-15	41.872576E-15	-36.294237E-15
-352.94104E-3	-6.3690351E-12	-352.94119E-3	23.997619E-15	-64.137863E-15	-29.628864E-15	14.314923E-15
-337.25476E-3	-6.0840968E-12	-337.25491E-3	-37.778500E-15	-2.8557144E-15	-5.1680534E-15	14.478358E-15
-321.56849E-3	-5.9139798E-12	-321.56864E-3	9.4569704E-15	44.340826E-15	15.963747E-15	11.152979E-15
-305.88222E-3	-5.6477089E-12	-305.88236E-3	-18.163891E-15	-36.253796E-15	38.905108E-15	18.597093E-15
-290.19594E-3	-5.3856850E-12	-290.19609E-3	-22.047410E-15	-30.818162E-15	-41.420863E-15	783.71416E-18
-274.50967E-3	-5.1262462E-12	-274.50982E-3	34.783940E-15	8.7228334E-15	-38.768237E-15	-12.217720E-15
-258.82339E-3	-4.8989454E-12	-258.82354E-3	29.830993E-15	-8.0701335E-15	-16.376377E-15	-33.779660E-15
-243.13712E-3	-4.6729343E-12	-243.13726E-3	4.4300234E-15	25.285799E-15	-12.246249E-15	-1.7264574E-15
-227.45085E-3	-4.4181061E-12	-227.45098E-3	17.392888E-15	-9.6599584E-15	-16.195653E-15	33.871838E-15
-211.76457E-3	-4.1776214E-12	-211.76471E-3	-28.963482E-15	24.888420E-15	59.675416E-15	-43.699924E-15
-196.07830E-3	-3.8992082E-12	-196.07843E-3	1.4766427E-15	8.6585351E-15	20.816922E-15	-51.809583E-15
-180.39203E-3	-3.6779815E-12	-180.39216E-3	-2.6240496E-15	-24.591704E-15	34.071812E-15	-5.4346765E-15
-164.70575E-3	-3.4440237E-12	-164.70589E-3	-10.448870E-15	-8.1147145E-15	69.648179E-15	-3.8456012E-15
-149.01948E-3	-3.1975889E-12	-149.01961E-3	11.227429E-15	1.8033262E-15	-35.907390E-15	1.1161465E-15
-133.33321E-3	-2.9755970E-12	-133.33334E-3	4.5465878E-15	10.117028E-15	19.758643E-15	-11.558773E-15
-117.64693E-3	-2.7400432E-12	-117.64706E-3	18.455962E-15	-50.554464E-15	15.562663E-15	30.598730E-15
-101.96066E-3	-2.4992799E-12	-101.96079E-3	-30.485536E-15	-1.6347375E-15	-23.050651E-15	17.997565E-15
-86.274385E-3	-2.2220058E-12	-86.274512E-3	9.8814991E-15	17.709184E-15	-30.407927E-15	-4.0758823E-15
-70.588112E-3	-2.0558789E-12	-70.588239E-3	-7.5745752E-15	-9.7376644E-15	-35.420729E-15	12.853314E-15
-54.901838E-3	-1.7864077E-12	-54.901961E-3	9.2714719E-15	10.629554E-15	25.008780E-15	-43.905126E-15
-39.215565E-3	-1.5482306E-12	-39.215688E-3	-10.316011E-15	-30.926715E-15	-43.379895E-15	17.094421E-15
-23.529291E-3	-1.3280581E-12	-23.529412E-3	14.437810E-15	-58.184963E-15	-17.355171E-15	-41.236894E-15
-7.8430176E-3	-1.1020116E-12	-7.8431377E-3	-55.123417E-15	24.620071E-15	-10.949746E-15	-15.456774E-15
7.8432560E-3	-857.72210E-15	7.8431377E-3	19.724245E-15	5.7073961E-15	-27.219538E-15	-14.867595E-15
23.529530E-3	-641.28450E-15	23.529412E-3	-9.0915443E-15	50.927537E-15	-73.947914E-15	19.519541E-15
39.215803E-3	-358.79443E-15	39.215688E-3	-23.605363E-15	1.9392887E-15	24.271406E-15	9.0792056E-15
54.902077E-3	-174.34039E-15	54.901961E-3	-11.910510E-15	-30.741092E-15	-5.9227292E-15	11.496590E-15
70.588350E-3	56.256977E-15	70.588239E-3	-5.6658707E-15	5.0107695E-15	-53.894230E-15	-17.481125E-15
86.274624E-3	300.81276E-15	86.274512E-3	22.295398E-15	14.480840E-15	46.923931E-15	32.906380E-15
101.96090E-3	526.37576E-15	101.96079E-3	-50.738337E-15	-11.573889E-15	25.521624E-15	52.740540E-15
117.64717E-3	764.55351E-15	117.64706E-3	-12.890808E-15	-41.498672E-15	37.959944E-15	2.6249238E-15
133.33344E-3	1.0180806E-12	133.33334E-3	-581.22617E-18	7.7624081E-15	-60.235284E-15	-12.226347E-15
149.01972E-3	1.2026477E-12	149.01961E-3	26.137353E-15	-24.740086E-15	34.885235E-15	23.599134E-15
164.70599E-3	1.4396764E-12	164.70589E-3	34.724898E-15	-35.913631E-15	37.020673E-15	17.519121E-15
180.39227E-3	1.6999642E-12	180.39216E-3	-802.38690E-18	34.216279E-15	9.2287170E-15	8.6754961E-15
196.07854E-3	1.9581626E-12	196.07843E-3	-41.276773E-15	27.703053E-15	-34.436887E-15	-26.817529E-15
211.76481E-3	2.1333547E-12	211.76471E-3	-9.1025667E-15	85.811898E-15	20.040656E-15	-16.745765E-15
227.45109E-3	2.3961506E-12	227.45098E-3	-5.8587202E-15	7.1564162E-15	14.928119E-15	-34.647185E-15
243.13736E-3	2.6402389E-12	243.13726E-3	-21.016997E-15	-30.764023E-15	-44.665735E-15	-25.166309E-15
258.82363E-3	2.8639851E-12	258.82354E-3	-30.881398E-15	-14.035493E-15	-25.708038E-15	-7.5066220E-15
274.50991E-3	3.0965595E-12	274.50982E-3	-7.5489795E-15	-35.962322E-15	-7.3503461E-15	30.689322E-15
290.19618E-3	3.3513938E-12	290.19609E-3	-13.791174E-15	-17.317104E-15	-15.661029E-15	-24.532697E-15
305.88245E-3	3.5890472E-12	305.88236E-3	-22.115326E-15	-6.9787845E-15	63.276241E-15	31.967610E-15
321.56873E-3	3.8030941E-12	321.56864E-3	26.221074E-15	6.1024781E-15	20.656369E-15	-72.396611E-15
337.25500E-3	4.1071374E-12	337.25491E-3	55.812603E-15	-32.946749E-15	5.7428275E-15	-48.070041E-15
352.94127E-3	4.3017400E-12	352.94119E-3	-25.164426E-15	-6.6727214E-15	34.239806E-15	30.791969E-15
368.62755E-3	4.5623436E-12	368.62746E-3	-26.564073E-15	-24.157893E-15	11.920601E-15	24.152897E-15
384.31382E-3	4.7792985E-12	384.31373E-3	-30.820747E-15	38.857941E-15	-18.970353E-15	-22.633693E-15
400.00010E-3	5.0226980E-12	400.00001E-3	-56.093981E-15	42.969548E-15	20.690618E-15	3.0107286E-15
415.68637E-3	5.3107874E-12	415.68628E-3	-5.2270738E-15	-6.9801203E-15	23.463018E-15	11.642667E-15
431.37264E-3	5.5205940E-12	431.37255E-3	-36.011111E-15	-21.127816E-15	-33.221357E-15	8.5765745E-15
447.05892E-3	5.7606966E-12	447.05883E-3	15.750774E-15	16.102305E-15	13.728430E-15	11.181518E-15
462.74519E-3	6.0281823E-12	462.74510E-3	8.3758912E-15	-2.6434573E-15	13.888737E-15	-36.718197E-15
478.43146E-3	6.2464166E-12	478.43137E-3	-7.9053975E-15	7.9165444E-15	-7.3380412E-15	6.2052770E-15
494.11774E-3	6.5704144E-12	494.11765E-3	18.201498E-15	-27.722031E-15	-12.288274E-15	-68.010749E-15
509.80401E-3	6.7379240E-12	509.80395E-3	-16.133105E-15	-9.5861082E-15	61.606062E-15	36.943427E-15
525.49028E-3	7.0531406E-12	525.49022E-3	-39.527385E-15	-11.764443E-15	59.222877E-15	22.401506E-15
541.17656E-3	7.2429484E-12	541.17650E-3	-25.107551E-15	-31.205578E-15	-2.8895834E-15	5.0583181E-15
556.86283E-3	7.5883900E-12	556.86277E-3	-6.3958653E-15	-5.2630507E-15	22.512535E-15	-37.148192E-15
572.54910E-3	7.8711881E-12	572.54905E-3	-22.756167E-15	-2.9173801E-15	-9.9548267E-15	35.096265E-15
588.23538E-3	8.0468063E-12	588.23532E-3	-8.3968807E-15	-17.405816E-15	10.814942E-15	-4.2300495E-15
603.92165E-3	8.3106742E-12	603.92159E-3	-24.767176E-15	11.506206E-15	67.458361E-15	-44.675208E-15
619.60793E-3	8.6461905E-12	619.60787E-3	-61.540501E-15	-6.4646948E-15	45.519405E-15	5.8732418E-15
635.29420E-3	8.8895289E-12	635.29414E-3	7.0638097E-15	-24.726393E-15	-176.56607E-18	34.239769E-15
650.98047E-3	9.1668183E-12	650.98041E-3	5.0761274E-15	-23.720883E-15	25.440004E-15	-27.181543E-15
666.66675E-3	9.3745628E-12	666.66669E-3	17.264885E-15	-43.108973E-15	-79.137949E-15	25.856704E-15
682.35302E-3	9.6730375E-12	682.35296E-3	37.485060E-15	-18.210871E-15	20.585030E-15	-37.946805E-15
698.03929E-3	9.9460848E-12	698.03923E-3	44.500285E-15	-43.747378E-15	20.167710E-15	19.195251E-15
713.72557E-3	10.306285E-12	713.72551E-3	-38.437925E-15	17.071476E-15	22.244813E-15	-32.508745E-15
729.41184E-3	10.548567E-12	729.41178E-3	17.628038E-15	-3.9256470E-15	-32.614478E-15	-37.767461E-15
745.09811E-3	10.819281E-12	745.09805E-3	9.2153195E-15	-17.384877E-15	-82.155176E-15	-13.123292E-15
760.78439E-3	11.093636E-12	760.78433E-3	9.5701730E-15	36.601605E-15	4.3649378E-15	51.744541E-15
776.47066E-3	11.377388E-12	776.47060E-3	-44.057795E-15	-8.9175959E-15	11.320720E-15	16.839743E-15
792.15693E-3	11.748115E-12	792.15688E-3	16.548069E-15	18.839780E-15	-3.2111625E-15	-31.804085E-15
807.84321E-3	12.022729E-12	807.84315E-3	78.116939E-18	-30.567915E-15	12.939853E-15	8.2392259E-15
823.52948E-3	12.302381E-12	823.52942E-3	-36.354298E-15	55.507827E-15	22.434579E-15	21.107148E-15
839.21576E-3	12.616581E-12	839.21570E-3	16.355319E-15	-72.738473E-15	32.671352E-15	11.723951E-15
854.90203E-3	12.956709E-12	854.90197E-3	-54.913854E-15	68.013995E-15	27.546799E-15	946.51252E-18
870.58830E-3	13.225226E-12	870.58824E-3	-476.02537E-18	-12.775448E-15	2.3450018E-15	-43.733178E-15
886.27458E-3	13.511450E-12	886.27452E-3	-25.117925E-15	-52.561722E-15	-37.883067E-15	-595.61271E-18
901.96085E-3	13.858700E-12	901.96079E-3	-38.539847E-15	-1.5189430E-15	-54.652778E-15	-12.996941E-15
917.64712E-3	14.225588E-12	917.64706E-3	20.481953E-15	-1.2716400E-15	23.201391E-15	-35.235832E-15
933.33340E-3	14.449799E-12	933.33334E-3	32.291847E-15	-21.101522E-15	-9.9167323E-15	-52.258816E-15
949.01967E-3	14.770411E-12	949.01961E-3	-44.088881E-15	-319.10415E-18	-10.609161E-15	-70.206902E-15
964.70594E-3	15.116065E-12	964.70588E-3	-30.846379E-15	30.397434E-15	-45.446648E-15	-24.747177E-15
980.39222E-3	15.488387E-12	980.39216E-3	-41.009249E-15	44.869178E-15	-1.2238369E-15	-7.6238776E-15
996.07849E-3	15.811843E-12	996.07843E-3	25.186852E-15	19.346280E-15	-31.545872E-15	-12.930988E-15
1.0117650E+0	16.204730E-12	1.0117648E+0	-43.826095E-15	82.104564E-15	47.074141E-15	48.377335E-15
1.0274513E+0	16.488427E-12	1.0274510E+0	26.800092E-15	71.934090E-15	11.032146E-15	10.274339E-15
1.0431376E+0	16.823206E-12	1.0431373E+0	35.752797E-15	-4.8161552E-15	14.280970E-15	1.8196563E-15
1.0588238E+0	17.259798E-12	1.0588236E+0	-50.578699E-15	63.558601E-15	-64.036599E-15	1.8930454E-15
1.0745101E+0	17.614969E-12	1.0745099E+0	-7.0911239E-15	-37.584532E-15	-60.957275E-15	32.639534E-15
1.0901964E+0	17.877005E-12	1.0901961E+0	14.719340E-15	-24.144588E-15	16.051479E-15	27.062731E-15
1.1058826E+0	18.301610E-12	1.1058824E+0	44.915894E-15	50.880398E-15	8.2817630E-15	39.259076E-15
1.1215689E+0	18.702463E-12	1.1215687E+0	31.431509E-15	-33.112971E-15	-9.5508826E-15	15.894251E-15
1.1372552E+0	19.107101E-12	1.1372550E+0	-71.554836E-15	-77.774823E-15	-62.487782E-15	33.216099E-15
1.1529415E+0	19.325121E-12	1.1529412E+0	-9.2935117E-15	18.439067E-15	16.880997E-15	49.949414E-15
1.1686277E+0	19.848385E-12	1.1686275E+0	-32.117158E-15	-24.929980E-15	9.2388086E-15	10.080863E-15
1.1843140E+0	20.176019E-12	1.1843138E+0	-19.518922E-15	75.702655E-15	-14.824022E-15	-21.268802E-15
1.2000003E+0	20.625618E-12	1.2000000E+0	65.760413E-15	4.5185214E-15	-468.52188E-18	-13.366573E-15
1.2156866E+0	21.010322E-12	1.2156863E+0	37.969356E-15	68.144214E-15	461.40447E-18	10.095311E-15
1.2313728E+0	21.346980E-12	1.2313726E+0	-52.811010E-15	8.1382655E-15	25.803548E-15	-59.319330E-15
1.2470591E+0	21.823716E-12	1.2470589E+0	-10.398895E-15	41.515189E-15	12.270673E-15	21.365154E-15
1.2627454E+0	22.227232E-12	1.2627451E+0	-22.687513E-15	11.160792E-15	30.455131E-15	-16.102535E-15
1.2784317E+0	22.670187E-12	1.2784314E+0	-17.505572E-15	36.876216E-15	-34.122570E-15	30.843475E-15
1.2941179E+0	23.054138E-12	1.2941177E+0	47.195619E-15	52.102809E-15	54.879471E-15	22.836201E-15
1.3098042E+0	23.521579E-12	1.3098040E+0	74.924780E-15	38.330816E-15	-39.844088E-15	6.9561196E-15
1.3254905E+0	23.918747E-12	1.3254902E+0	-17.723527E-15	45.443860E-15	-56.874895E-15	24.616465E-15
1.3411767E+0	24.465166E-12	1.3411765E+0	1.4953388E-15	-8.5732914E-15	-32.031466E-15	33.799952E-15
1.3568630E+0	24.765055E-12	1.3568628E+0	19.329749E-15	73.185449E-15	-45.467617E-15	-40.882967E-15
1.3725493E+0	25.238185E-12	1.3725491E+0	1.0248929E-15	-143.30926E-15	-54.626971E-15	12.670499E-15
1.3882356E+0	25.676376E-12	1.3882353E+0	-41.245548E-15	94.808262E-15	-40.486112E-15	-78.114510E-15
1.4039218E+0	26.274490E-12	1.4039216E+0	84.215512E-15	-21.874243E-15	-11.542789E-15	-14.103948E-15
1.4196081E+0	26.731849E-12	1.4196079E+0	-1.8350124E-15	4.7055573E-15	17.317043E-15	11.425212E-15
1.4352944E+0	27.194668E-12	1.4352942E+0	-28.653630E-15	31.044943E-15	-3.4841898E-15	14.667321E-15
1.4509807E+0	27.726429E-12	1.4509804E+0	-1.8023116E-15	-51.082399E-15	24.158264E-15	-11.035819E-15
1.4666669E+0	28.250735E-12	1.4666667E+0	-50.818277E-15	36.569838E-15	20.533017E-15	17.480703E-15
1.4823532E+0	28.683191E-12	1.4823530E+0	3.3719706E-15	939.06424E-18	22.511866E-15	-54.071351E-15
1.4980395E+0	29.162523E-12	1.4980392E+0	-28.651282E-15	-26.520624E-15	32.602241E-15	-33.291309E-15
1.5137258E+0	29.805897E-12	1.5137255E+0	-44.805695E-15	-15.452410E-15	-67.950514E-15	45.340349E-15
1.5294120E+0	30.182030E-12	1.5294118E+0	-55.662441E-15	36.129584E-15	16.195832E-15	8.3805135E-15
1.5450983E+0	30.806059E-12	1.5450981E+0	-30.549487E-15	-35.548201E-15	-52.935158E-15	27.868329E-15
1.5607846E+0	31.386869E-12	1.5607843E+0	-43.843845E-15	77.070105E-15	-34.568011E-15	45.970250E-15
1.5764709E+0	31.837484E-12	1.5764706E+0	-58.877321E-15	-60.005366E-15	237.73343E-18	62.513850E-15
1.5921571E+0	32.310040E-12	1.5921569E+0	22.703087E-15	239.60727E-15	19.132746E-15	47.115296E-15
1.6078434E+0	32.914466E-12	1.6078432E+0	-2.1884049E-15	-26.949036E-15	73.990015E-15	46.415844E-15
1.6235297E+0	33.653923E-12	1.6235294E+0	-26.243042E-15	14.759300E-15	-35.343561E-15	-40.498858E-15
1.6392159E+0	34.241165E-12	1.6392157E+0	-98.988729E-15	1.3164281E-15	-49.759327E-15	21.927759E-15
1.6549022E+0	34.629574E-12	1.6549020E+0	53.275550E-15	25.888039E-15	-57.622804E-15	2.2170410E-15
1.6705885E+0	35.249827E-12	1.6705883E+0	-53.872369E-15	-55.386658E-15	-79.548001E-15	3.4488228E-15
1.6862748E+0	35.941999E-12	1.6862745E+0	-71.939545E-15	-14.108738E-15	-101.92087E-15	21.811105E-15
1.7019610E+0	36.577113E-12	1.7019608E+0	-20.348200E-15	-68.458395E-15	33.168862E-15	23.449983E-15
1.7176473E+0	37.006485E-12	1.7176471E+0	1.8919743E-15	55.728493E-15	48.502736E-15	-21.080561E-15
1.7333336E+0	37.659997E-12	1.7333333E+0	-45.275260E-15	184.46487E-15	8.9830326E-15	-25.243259E-15
1.7490199E+0	38.432629E-12	1.7490196E+0	13.405741E-15	9.6194660E-15	64.704400E-15	-58.001442E-15
1.7647061E+0	39.010409E-12	1.7647059E+0	55.690810E-15	55.864960E-15	-17.383345E-15	-72.427958E-15
1.7803924E+0	39.815241E-12	1.7803922E+0	2.6979941E-15	-41.674929E-15	30.818521E-15	-27.619986E-15
1.7960787E+0	40.289737E-12	1.7960784E+0	-17.958061E-15	45.969576E-15	-25.492766E-15	11.698095E-15
1.8117650E+0	41.123736E-12	1.8117647E+0	67.106707E-15	-49.594155E-15	-34.376087E-15	15.249930E-15
1.8274512E+0	41.957108E-12	1.8274510E+0	43.999753E-15	-34.099991E-15	1.3143016E-15	-13.178012E-15
1.8431375E+0	42.413829E-12	1.8431373E+0	75.158338E-15	-63.848293E-15	50.463851E-15	-54.141946E-15
1.8588238E+0	43.173916E-12	1.8588235E+0	18.430753E-15	-34.047641E-15	44.292837E-15	23.887722E-15
1.8745100E+0	43.840858E-12	1.8745098E+0	-19.456538E-15	-27.921540E-15	4.5164284E-15	33.697827E-15
1.8901963E+0	44.486918E-12	1.8901961E+0	-127.13193E-15	-168.65129E-15	-49.020179E-15	8.8784155E-15
1.9058826E+0	45.272296E-12	1.9058824E+0	-33.096284E-15	78.599819E-15	20.354004E-15	89.238045E-15
1.9215689E+0	45.939880E-12	1.9215686E+0	-62.174407E-15	45.670827E-15	2.4598957E-15	-34.079009E-15
1.9372551E+0	46.768759E-12	1.9372549E+0	26.442570E-15	88.613477E-15	-52.785447E-15	-19.371042E-15
1.9529414E+0	47.572817E-12	1.9529412E+0	-75.519445E-15	-96.101017E-15	-62.701424E-15	-90.783805E-15
1.9686277E+0	48.509835E-12	1.9686275E+0	47.810439E-15	79.471823E-15	38.773228E-15	-14.522627E-15
1.9843140E+0	49.234349E-12	1.9843137E+0	43.173181E-15	-28.540450E-15	-59.737507E-15	-27.608736E-15
2.0000000E+0	50.243341E-12	2.0000000E+0	-53.300151E-15	38.998454E-15	-56.678336E-15	-9.9103761E-15
