Experiment	bias spectroscopy
Saved Date	24.04.2024 14:24:29
User
Date
X (m)	4E-9
Y (m)	833.333E-12
Z (m)	-677.146E-12
Z offset (m)	0E+0
Settling time (s)	200E-6
Integration time (s)	10E-3
Z-Ctrl hold	TRUE
Final Z (m)	N/A
Start time	24.04.2024 14:24:26
Filter type	None
Order
Cutoff frq
Bias>Bias (V)	2E+0
Bias>Calibration (V/V)	1E+0
Bias>Offset (V)	0E+0
Bias Spectroscopy>Sweep Start (V)	-2E+0
Bias Spectroscopy>Sweep End (V)	2E+0
Bias Spectroscopy>Num Pixel	256
Bias Spectroscopy>Z Avg time (s)	50E-3
Bias Spectroscopy>Z offset (m)	0E+0
Bias Spectroscopy>1st Settling time (s)	5E-3
Bias Spectroscopy>Settling time (s)	200E-6
Bias Spectroscopy>Integration time (s)	10E-3
Bias Spectroscopy>End Settling time (s)	5E-3
Bias Spectroscopy>Z control time (s)	200E-3
Bias Spectroscopy>Max Slew rate (V/s)	Inf
Bias Spectroscopy>backward sweep	FALSE
Bias Spectroscopy>Z-controller hold	TRUE
Bias Spectroscopy>Number of sweeps	1
Bias Spectroscopy>Channels	Current (A);Bias (V);LI Demod 1 X (A);LI Demod 1 Y (A);LI Demod 2 X (A);LI Demod 2 Y (A)
Bias Spectroscopy>Reset Bias	TRUE
Bias Spectroscopy>Record final Z	FALSE
Bias Spectroscopy>Lock-In run	FALSE
Bias Spectroscopy>Revert Z Offset	FALSE
Current>Current (A)	27.3224E-12
Current>Calibration (A/V)	1E-9
Current>Offset (A)	0E+0
Current>Gain	LN 10^9
Lock-in>Lock-in status	OFF
Lock-in>Modulated signal	Bias (V)
Lock-in>Frequency (Hz)	2E+3
Lock-in>Amplitude	100E-3
Lock-in>Demodulated signal	Current (A)
Lock-in>HP Filter Cutoff D1 (Hz)	38.8562E+0
Lock-in>HP Filter Cutoff D2 (Hz)	38.8562E+0
Lock-in>HP Filter Order D1	OFF
Lock-in>HP Filter Order D2	OFF
Lock-in>Harmonic D1	1
Lock-in>Harmonic D2	2
Lock-in>Reference phase D1 (deg)	0E+0
Lock-in>Reference phase D2 (deg)	0E+0
Lock-in>LP Filter Cutoff D1 (Hz)	621.699E+0
Lock-in>LP Filter Cutoff D2 (Hz)	621.699E+0
Lock-in>LP Filter Order D1	OFF
Lock-in>LP Filter Order D2	OFF
Lock-in>Sync Filter D1	ON
Lock-in>Sync Filter D2	ON
Lock-in 2>Lock-in status	OFF
Lock-in 2>Modulated signal	Input 2 (V)
Lock-in 2>Frequency (Hz)	1E+3
Lock-in 2>Amplitude	1E+0
Lock-in 2>Demodulated signal	Current (A)
Lock-in 2>HP Filter Cutoff D3 (Hz)	38.8562E+0
Lock-in 2>HP Filter Cutoff D4 (Hz)	38.8562E+0
Lock-in 2>HP Filter Order D3	OFF
Lock-in 2>HP Filter Order D4	OFF
Lock-in 2>Harmonic D3	1
Lock-in 2>Harmonic D4	1
Lock-in 2>Reference phase D3 (deg)	0E+0
Lock-in 2>Reference phase D4 (deg)	0E+0
Lock-in 2>LP Filter Cutoff D3 (Hz)	621.699E+0
Lock-in 2>LP Filter Cutoff D4 (Hz)	621.699E+0
Lock-in 2>LP Filter Order D3	OFF
Lock-in 2>LP Filter Order D4	OFF
Lock-in 2>Sync Filter D3	ON
Lock-in 2>Sync Filter D4	ON
NanonisMain>Session Path	C:\Users\scbr\Documents\Nanonis Sessions\nanonis_session_sim
NanonisMain>SW Version	Generic 5e
NanonisMain>UI Release	13632
NanonisMain>RT Release	13632
NanonisMain>RT Frequency (Hz)	20E+3
NanonisMain>Signals Oversampling	10
NanonisMain>Acquisition Period (s)	20E-3
NanonisMain>Animations Period (s)	20E-3
NanonisMain>Indicators Period (s)	300E-3
NanonisMain>Measurements Period (s)	500E-3
Piezo Configuration>Active Calib.	Default
Piezo Configuration>Calib. X (m/V)	10E-9
Piezo Configuration>Calib. Y (m/V)	10E-9
Piezo Configuration>Calib. Z (m/V)	5E-9
Piezo Configuration>HV Gain X	15
Piezo Configuration>HV Gain Y	15
Piezo Configuration>HV Gain Z	15
Piezo Configuration>Tilt X (deg)	0
Piezo Configuration>Tilt Y (deg)	0
Piezo Configuration>Curvature radius X (m)	Inf
Piezo Configuration>Curvature radius Y (m)	Inf
Piezo Configuration>2nd order corr X (V/m^2)	0E+0
Piezo Configuration>2nd order corr Y (V/m^2)	0E+0
Piezo Configuration>Drift X (m/s)	0E+0
Piezo Configuration>Drift Y (m/s)	0E+0
Piezo Configuration>Drift Z (m/s)	0E+0
Piezo Configuration>Drift correction status (on/off)	FALSE
Temperature 1>Temperature 1 (K)	515.131E+0
Z-Controller>Z (m)	-677.186E-12
Z-Controller>Controller name	log Current
Z-Controller>Controller status	ON
Z-Controller>Setpoint	50E-12
Z-Controller>Setpoint unit	A
Z-Controller>P gain	200E-12
Z-Controller>I gain	200E-9
Z-Controller>Time const (s)	1E-3
Z-Controller>TipLift (m)	0E+0
Z-Controller>Switch off delay (s)	0E+0

[DATA]
Bias calc (V)	Current (A)	Bias (V)	LI Demod 1 X (A)	LI Demod 1 Y (A)	LI Demod 2 X (A)	LI Demod 2 Y (A)
-2.0000000E+0	-64.915344E-12	-2.0000000E+0	-21.601246E-15	-22.532962E-15	75.538452E-15	830.95769E-18
-1.9843137E+0	-63.721438E-12	-1.9843137E+0	85.708913E-15	35.341640E-15	-12.067611E-15	69.699034E-15
-1.9686275E+0	-62.672055E-12	-1.9686275E+0	98.003243E-15	47.826939E-15	-109.03546E-15	16.304087E-15
-1.9529412E+0	-61.804555E-12	-1.9529412E+0	-45.458828E-15	27.110279E-15	2.3171503E-15	-7.2966815E-15
-1.9372549E+0	-61.015949E-12	-1.9372549E+0	32.740646E-15	-75.442575E-15	52.559804E-15	-25.748411E-15
-1.9215686E+0	-59.866952E-12	-1.9215686E+0	-10.019133E-15	-154.72202E-15	-117.09115E-15	40.461121E-15
-1.9058824E+0	-58.894715E-12	-1.9058824E+0	-20.340395E-15	76.182502E-15	-5.4652582E-15	36.539968E-15
-1.8901961E+0	-57.855672E-12	-1.8901961E+0	221.84773E-15	-50.056483E-15	-41.246025E-15	1.4512014E-15
-1.8745098E+0	-56.957078E-12	-1.8745098E+0	156.63766E-15	-79.746560E-15	-25.032546E-15	92.143619E-15
-1.8588235E+0	-56.118107E-12	-1.8588235E+0	36.611549E-15	112.51240E-15	-85.529931E-15	13.461696E-15
-1.8431373E+0	-55.228246E-12	-1.8431373E+0	-2.7492602E-15	-102.21528E-15	-71.140291E-15	-28.471901E-15
-1.8274510E+0	-54.314758E-12	-1.8274510E+0	-39.611015E-15	64.492174E-15	-20.298904E-15	21.770759E-15
-1.8117647E+0	-53.220366E-12	-1.8117647E+0	104.81990E-15	119.48847E-15	-5.8954861E-15	-61.352799E-15
-1.7960784E+0	-52.294665E-12	-1.7960784E+0	-41.106384E-15	24.733186E-15	225.01753E-18	78.317269E-15
-1.7803922E+0	-51.775209E-12	-1.7803922E+0	-32.107600E-15	-84.269309E-15	-48.662239E-15	-52.681556E-15
-1.7647059E+0	-50.911265E-12	-1.7647059E+0	60.570066E-15	63.634611E-15	6.9751681E-15	27.522957E-15
-1.7490196E+0	-50.031590E-12	-1.7490196E+0	31.058205E-15	5.7745489E-15	3.1108282E-15	-47.782985E-15
-1.7333333E+0	-49.124576E-12	-1.7333333E+0	115.93625E-15	157.51666E-15	-66.035637E-15	32.317424E-15
-1.7176471E+0	-48.371460E-12	-1.7176471E+0	51.272592E-15	-70.450990E-15	52.151727E-15	24.176011E-15
-1.7019608E+0	-47.678580E-12	-1.7019608E+0	100.84634E-15	-22.512682E-15	-27.747036E-15	-52.181772E-18
-1.6862745E+0	-46.714157E-12	-1.6862745E+0	-63.137206E-15	-20.705565E-15	41.371369E-15	25.386128E-15
-1.6705883E+0	-46.180556E-12	-1.6705883E+0	66.444632E-15	-85.474359E-15	19.528253E-15	39.665750E-15
-1.6549020E+0	-45.334129E-12	-1.6549020E+0	-99.434289E-15	-23.651262E-15	-5.4432866E-15	-35.717028E-15
-1.6392157E+0	-44.524277E-12	-1.6392157E+0	-7.4167018E-15	59.336115E-15	-41.624473E-15	52.342957E-15
-1.6235294E+0	-43.746638E-12	-1.6235294E+0	31.390506E-15	-131.34986E-15	35.283357E-15	-128.65837E-15
-1.6078432E+0	-43.098861E-12	-1.6078432E+0	-151.79114E-15	-15.128176E-15	47.447384E-15	-74.689847E-15
-1.5921569E+0	-42.310204E-12	-1.5921569E+0	4.7580750E-15	64.842371E-15	10.869315E-15	-13.851872E-15
-1.5764706E+0	-41.566344E-12	-1.5764706E+0	-59.353774E-15	-95.277939E-15	26.159437E-15	15.990693E-15
-1.5607843E+0	-40.933895E-12	-1.5607843E+0	-27.527261E-15	-61.398396E-15	61.842553E-15	-32.676458E-15
-1.5450981E+0	-40.320865E-12	-1.5450981E+0	35.783832E-15	-11.221349E-15	-62.953007E-15	64.242848E-15
-1.5294118E+0	-39.683996E-12	-1.5294118E+0	68.391683E-15	-49.115307E-15	-18.600386E-15	1.4720240E-15
-1.5137255E+0	-38.928895E-12	-1.5137255E+0	-49.031295E-15	-6.3204688E-15	-61.347899E-15	30.199130E-15
-1.4980392E+0	-38.244921E-12	-1.4980392E+0	-23.589590E-15	64.141387E-15	94.877651E-15	94.199083E-15
-1.4823530E+0	-37.601002E-12	-1.4823530E+0	-11.737827E-15	-8.6086322E-15	-53.408382E-15	64.322354E-15
-1.4666667E+0	-36.958128E-12	-1.4666667E+0	35.680521E-15	11.065754E-15	-13.786970E-15	-5.6858213E-15
-1.4509804E+0	-36.447234E-12	-1.4509804E+0	3.4539257E-15	-22.681215E-15	-59.786899E-15	-68.965680E-15
-1.4352942E+0	-35.745677E-12	-1.4352942E+0	44.000783E-15	-7.0485233E-15	-43.105564E-15	9.2920234E-15
-1.4196079E+0	-35.061145E-12	-1.4196079E+0	126.60440E-15	66.300433E-15	84.620543E-15	-41.432867E-15
-1.4039216E+0	-34.672803E-12	-1.4039216E+0	-55.829764E-15	3.4255654E-15	-11.164447E-15	548.94225E-18
-1.3882353E+0	-33.985866E-12	-1.3882353E+0	-2.1332741E-15	36.619955E-15	-58.733115E-15	66.952913E-15
-1.3725491E+0	-33.374623E-12	-1.3725491E+0	154.22579E-15	-31.806036E-15	101.81721E-15	-67.634768E-15
-1.3568628E+0	-32.818071E-12	-1.3568628E+0	-20.394399E-15	-35.196990E-15	6.7237950E-15	-3.1528220E-15
-1.3411765E+0	-32.208732E-12	-1.3411765E+0	52.601762E-15	-82.852263E-15	36.463569E-15	36.491843E-15
-1.3254902E+0	-31.740575E-12	-1.3254902E+0	-58.925893E-15	-45.586093E-15	-1.4465768E-15	4.3958465E-15
-1.3098040E+0	-31.218226E-12	-1.3098040E+0	27.670747E-15	39.924258E-15	-29.160075E-15	16.560678E-15
-1.2941177E+0	-30.665567E-12	-1.2941177E+0	90.320052E-15	16.818432E-15	8.1217788E-15	31.367626E-15
-1.2784314E+0	-30.075678E-12	-1.2784314E+0	6.2447280E-15	-55.574367E-15	60.552142E-15	-79.156950E-15
-1.2627451E+0	-29.500121E-12	-1.2627451E+0	19.722744E-15	-31.560983E-15	23.671483E-15	-38.779188E-15
-1.2470587E+0	-29.006811E-12	-1.2470589E+0	-16.133863E-15	91.716118E-15	-30.758565E-15	9.5986383E-15
-1.2313725E+0	-28.539150E-12	-1.2313726E+0	-105.77143E-15	37.047737E-15	16.207728E-15	17.905033E-15
-1.2156862E+0	-27.929461E-12	-1.2156863E+0	-37.738099E-15	-1.7255225E-15	20.886989E-15	-31.975104E-15
-1.1999999E+0	-27.504872E-12	-1.2000000E+0	-7.1958752E-15	81.333635E-15	16.924943E-15	25.445803E-15
-1.1843137E+0	-26.869059E-12	-1.1843138E+0	-12.721792E-15	47.302762E-15	1.3734886E-15	-1.9459890E-15
-1.1686274E+0	-26.481446E-12	-1.1686275E+0	32.376117E-15	-24.378631E-15	-56.084735E-15	13.419396E-15
-1.1529411E+0	-26.118519E-12	-1.1529412E+0	38.939429E-15	56.769334E-15	-44.746223E-15	-19.297233E-15
-1.1372548E+0	-25.435628E-12	-1.1372550E+0	-86.690495E-15	-61.655298E-15	-21.573944E-15	-34.232823E-15
-1.1215686E+0	-25.147075E-12	-1.1215687E+0	62.281397E-15	78.172047E-15	-12.202911E-15	-12.750470E-15
-1.1058823E+0	-24.618562E-12	-1.1058824E+0	69.711266E-15	-1.7919450E-15	44.716059E-15	42.692351E-15
-1.0901960E+0	-24.219942E-12	-1.0901961E+0	-13.495604E-15	32.597453E-15	-10.480931E-15	-5.3676097E-15
-1.0745097E+0	-23.713575E-12	-1.0745099E+0	103.97802E-15	26.554405E-15	14.904541E-15	16.248523E-15
-1.0588235E+0	-23.343173E-12	-1.0588236E+0	-1.5050844E-15	9.8646753E-15	2.7972795E-15	-44.898665E-15
-1.0431372E+0	-22.859980E-12	-1.0431373E+0	-94.011699E-15	81.197480E-15	-33.943754E-15	-58.184712E-15
-1.0274509E+0	-22.348633E-12	-1.0274510E+0	9.4029356E-15	-60.259022E-15	32.410405E-15	-32.465540E-15
-1.0117646E+0	-22.040375E-12	-1.0117648E+0	30.698680E-15	11.806963E-15	-76.490097E-15	25.834840E-15
-996.07837E-3	-21.567918E-12	-996.07843E-3	-38.128775E-15	9.5085234E-15	30.872010E-15	-18.293494E-15
-980.39210E-3	-21.101194E-12	-980.39216E-3	-54.843577E-15	-49.146427E-15	21.214416E-15	34.580090E-15
-964.70582E-3	-20.804030E-12	-964.70588E-3	-56.399689E-15	-76.635726E-15	10.476150E-15	-12.819552E-15
-949.01955E-3	-20.350117E-12	-949.01961E-3	-92.890173E-15	-15.322491E-15	-33.366844E-15	-570.02840E-18
-933.33328E-3	-19.937845E-12	-933.33334E-3	9.7417437E-15	-47.379466E-15	-40.872796E-15	19.370620E-15
-917.64700E-3	-19.437724E-12	-917.64706E-3	-27.799130E-15	66.677309E-15	-1.1426292E-15	12.555748E-15
-901.96073E-3	-19.200931E-12	-901.96079E-3	10.048829E-15	50.586468E-15	41.249430E-15	36.416176E-15
-886.27446E-3	-18.761642E-12	-886.27452E-3	31.235959E-15	-27.137635E-15	-18.866304E-15	4.7015648E-15
-870.58818E-3	-18.285059E-12	-870.58824E-3	14.388550E-15	-32.411472E-15	-2.2011951E-15	-33.397733E-15
-854.90191E-3	-18.015055E-12	-854.90197E-3	-42.993268E-15	19.142821E-15	-10.484640E-15	-34.183278E-15
-839.21564E-3	-17.633712E-12	-839.21570E-3	-19.988671E-15	1.3400052E-15	-13.249255E-15	-11.558597E-15
-823.52936E-3	-17.280465E-12	-823.52942E-3	-50.113729E-15	42.340816E-15	-60.157208E-15	6.9819909E-15
-807.84309E-3	-16.868323E-12	-807.84315E-3	3.3594544E-15	42.951547E-15	8.0834345E-15	-26.302516E-15
-792.15682E-3	-16.534588E-12	-792.15688E-3	-47.962326E-15	11.289407E-15	42.366758E-15	-32.399928E-15
-776.47054E-3	-16.116551E-12	-776.47060E-3	-25.510405E-15	-5.1935808E-15	-42.015989E-15	-43.443188E-15
-760.78427E-3	-15.855588E-12	-760.78433E-3	-24.610053E-15	-35.142062E-15	-16.689329E-15	28.339274E-15
-745.09799E-3	-15.487240E-12	-745.09805E-3	-8.7508854E-15	-39.105980E-15	-4.6380742E-15	33.768053E-15
-729.41172E-3	-15.105058E-12	-729.41178E-3	-33.058571E-15	-51.694458E-15	1.8442054E-15	-56.190960E-15
-713.72545E-3	-14.757513E-12	-713.72551E-3	-41.579963E-15	15.075877E-15	-44.460065E-15	3.2662141E-15
-698.03917E-3	-14.408758E-12	-698.03923E-3	-6.9199725E-15	-31.839508E-15	-334.90915E-18	8.7205201E-15
-682.35290E-3	-14.100573E-12	-682.35296E-3	-35.538179E-15	55.903734E-15	22.885312E-15	-4.9952171E-15
-666.66663E-3	-13.733586E-12	-666.66669E-3	40.274706E-15	19.588889E-15	39.092166E-15	5.5176705E-15
-650.98035E-3	-13.454462E-12	-650.98041E-3	26.242783E-15	-585.09177E-18	-52.924096E-15	-11.662566E-15
-635.29408E-3	-13.071528E-12	-635.29414E-3	-7.6361138E-15	-40.644720E-15	-40.420500E-15	-30.922476E-15
-619.60781E-3	-12.853142E-12	-619.60787E-3	-7.3123194E-15	43.780484E-15	55.940146E-15	-17.748938E-15
-603.92153E-3	-12.495825E-12	-603.92159E-3	-82.170565E-15	59.781735E-15	-16.504522E-15	13.120481E-15
-588.23526E-3	-12.197772E-12	-588.23532E-3	-40.780628E-15	-16.579428E-15	27.770336E-15	10.250457E-15
-572.54899E-3	-11.857743E-12	-572.54905E-3	3.0690322E-15	-24.519627E-15	-60.024997E-15	34.129312E-15
-556.86271E-3	-11.578966E-12	-556.86277E-3	33.442951E-15	31.724636E-15	-51.922737E-15	163.32493E-18
-541.17644E-3	-11.267898E-12	-541.17650E-3	-8.0945713E-15	49.713682E-15	-37.497850E-15	-18.649321E-15
-525.49016E-3	-10.959579E-12	-525.49022E-3	10.907055E-15	-4.9561723E-15	-2.2651347E-15	46.187321E-15
-509.80389E-3	-10.623569E-12	-509.80395E-3	-45.923104E-15	58.648805E-15	-62.009303E-15	6.3661027E-15
-494.11750E-3	-10.374265E-12	-494.11765E-3	-5.0444403E-15	2.0193308E-15	-6.1916232E-15	32.045513E-15
-478.43122E-3	-10.031276E-12	-478.43137E-3	-18.018663E-15	23.514964E-15	-8.2585916E-15	-30.928920E-15
-462.74495E-3	-9.7914411E-12	-462.74510E-3	-63.492133E-15	33.356872E-15	-8.9413154E-15	-10.977549E-15
-447.05868E-3	-9.4475547E-12	-447.05883E-3	-28.214359E-15	-46.181795E-15	-19.464829E-15	37.250103E-15
-431.37240E-3	-9.2293256E-12	-431.37255E-3	-26.388930E-15	15.307673E-15	-13.917166E-15	-68.919107E-15
-415.68613E-3	-8.9190226E-12	-415.68628E-3	-38.568941E-15	24.052239E-15	-17.451899E-15	-5.5709404E-15
-399.99986E-3	-8.6468150E-12	-400.00001E-3	-4.6512328E-15	-7.8178600E-15	25.702495E-15	-2.0348804E-15
-384.31358E-3	-8.3522503E-12	-384.31373E-3	-14.765051E-15	-7.9737141E-15	6.6635544E-15	2.8326683E-15
-368.62731E-3	-8.0365306E-12	-368.62746E-3	-14.517423E-15	71.479511E-15	29.726462E-15	24.064973E-15
-352.94104E-3	-7.8160768E-12	-352.94119E-3	-52.096968E-15	6.4577800E-15	29.809420E-15	-8.1909179E-15
-337.25476E-3	-7.5130934E-12	-337.25491E-3	-35.792170E-15	-9.4516070E-15	7.9209507E-15	40.039437E-15
-321.56849E-3	-7.2883236E-12	-321.56864E-3	-25.134922E-15	-19.602003E-15	-5.6929986E-15	57.657980E-15
-305.88222E-3	-7.0008404E-12	-305.88236E-3	14.127518E-15	-13.539425E-15	-52.733429E-15	-18.757700E-15
-290.19594E-3	-6.7395972E-12	-290.19609E-3	-31.036754E-15	18.335441E-15	11.028816E-15	-25.589580E-15
-274.50967E-3	-6.4611385E-12	-274.50982E-3	13.043337E-15	17.026280E-15	-5.9757603E-15	-15.567088E-15
-258.82339E-3	-6.2055400E-12	-258.82354E-3	-20.322929E-15	-8.2633045E-15	9.9511370E-15	65.860132E-15
-243.13712E-3	-5.9310785E-12	-243.13726E-3	-8.4214099E-15	-54.218318E-15	-21.682421E-15	-27.502592E-15
-227.45085E-3	-5.6596325E-12	-227.45098E-3	-36.855156E-15	28.766970E-15	21.631993E-15	55.859590E-15
-211.76457E-3	-5.3735649E-12	-211.76471E-3	-15.877241E-15	-12.967610E-15	31.349238E-15	34.577223E-15
-196.07830E-3	-5.1153864E-12	-196.07843E-3	-20.429389E-15	-1.2031854E-15	-11.437228E-15	-12.663269E-15
-180.39203E-3	-4.8877079E-12	-180.39216E-3	11.476196E-15	8.1047119E-15	11.231479E-15	4.9889673E-15
-164.70575E-3	-4.6355090E-12	-164.70589E-3	53.023138E-15	-10.465375E-15	11.721249E-15	-9.7169705E-15
-149.01948E-3	-4.3667223E-12	-149.01961E-3	-55.330987E-15	49.574467E-15	-39.554402E-15	-37.368918E-15
-133.33321E-3	-4.1091523E-12	-133.33334E-3	-4.1872782E-15	-7.0839860E-15	45.372329E-15	5.8879136E-15
-117.64693E-3	-3.8564893E-12	-117.64706E-3	4.0140332E-15	-29.871925E-15	31.725758E-15	-51.546024E-15
-101.96066E-3	-3.5928218E-12	-101.96079E-3	48.979734E-15	-4.5652154E-15	36.149194E-15	-24.363215E-15
-86.274385E-3	-3.3429294E-12	-86.274512E-3	-27.773978E-15	-5.0028913E-15	63.491455E-15	-64.996158E-15
-70.588112E-3	-3.1272654E-12	-70.588239E-3	-22.609335E-15	26.987332E-15	-22.051476E-15	17.280688E-15
-54.901838E-3	-2.8435704E-12	-54.901961E-3	5.7288891E-15	57.685431E-15	-26.015058E-15	34.124366E-15
-39.215565E-3	-2.6372667E-12	-39.215688E-3	-27.610767E-15	4.2922133E-15	27.992499E-15	23.211362E-15
-23.529291E-3	-2.3305941E-12	-23.529412E-3	-23.926728E-15	-47.014072E-15	-21.828247E-15	-19.725520E-15
-7.8430176E-3	-2.1024046E-12	-7.8431377E-3	15.120680E-15	29.540928E-15	-5.8126171E-15	40.580617E-15
7.8432560E-3	-1.8865430E-12	7.8431377E-3	4.3418744E-15	17.515349E-15	-8.5733126E-15	45.364991E-15
23.529530E-3	-1.5962744E-12	23.529412E-3	17.905419E-15	8.6368705E-15	-6.8237046E-15	15.238246E-15
39.215803E-3	-1.3816813E-12	39.215688E-3	5.2826514E-15	1.5314215E-15	-34.459591E-15	21.429220E-15
54.902077E-3	-1.1281479E-12	54.901961E-3	13.236592E-15	41.115853E-15	-39.255623E-15	-46.307589E-15
70.588350E-3	-836.77417E-15	70.588239E-3	-10.441770E-15	933.35206E-18	-9.0533389E-15	28.510008E-15
86.274624E-3	-616.00773E-15	86.274512E-3	-26.987449E-15	24.247326E-15	24.225288E-15	21.027159E-15
101.96090E-3	-356.44732E-15	101.96079E-3	-13.125584E-15	-19.058639E-15	-61.199791E-15	-5.2532352E-15
117.64717E-3	-157.80853E-15	117.64706E-3	-552.78450E-18	-44.948471E-15	-17.368670E-15	19.038272E-15
133.33344E-3	148.73064E-15	133.33334E-3	-16.267808E-15	-21.667360E-15	-15.633950E-15	6.5190891E-15
149.01972E-3	359.05485E-15	149.01961E-3	-14.684798E-15	-76.890927E-15	31.774567E-15	-13.394679E-15
164.70599E-3	678.20012E-15	164.70589E-3	-55.988556E-15	-2.5011373E-15	33.907058E-15	11.216164E-15
180.39227E-3	852.17591E-15	180.39216E-3	-39.514192E-15	1.4316287E-15	39.087514E-15	10.690682E-15
196.07854E-3	1.1255027E-12	196.07843E-3	-28.144223E-15	-36.204648E-15	-44.559923E-15	5.5429230E-15
211.76481E-3	1.3509269E-12	211.76471E-3	95.459705E-15	-11.765434E-15	6.9889650E-15	37.176862E-15
227.45109E-3	1.5862524E-12	227.45098E-3	29.464898E-15	5.7218147E-15	18.081555E-15	23.015632E-15
243.13736E-3	1.8278408E-12	243.13726E-3	13.908083E-15	14.556685E-15	3.6534708E-15	30.745778E-15
258.82363E-3	2.1002883E-12	258.82354E-3	-26.198328E-15	-29.065986E-15	15.558821E-15	24.014705E-15
274.50991E-3	2.3357783E-12	274.50982E-3	5.2804767E-15	-1.8337008E-15	21.926300E-15	-14.328050E-15
290.19618E-3	2.6027899E-12	290.19609E-3	-20.106877E-15	2.8046633E-15	10.042008E-15	14.564862E-15
305.88245E-3	2.8651638E-12	305.88236E-3	-16.961687E-15	14.196734E-15	-14.048683E-15	-42.319931E-15
321.56873E-3	3.0753152E-12	321.56864E-3	-36.328440E-15	8.8139750E-15	21.874480E-15	-24.368860E-15
337.25500E-3	3.3569482E-12	337.25491E-3	3.4027628E-15	-13.412949E-15	-43.772738E-15	-28.915804E-15
352.94127E-3	3.5819665E-12	352.94119E-3	-12.855563E-15	-18.487314E-15	62.732012E-15	-30.988070E-15
368.62755E-3	3.8797845E-12	368.62746E-3	-42.765464E-15	10.740848E-15	77.042600E-15	36.932907E-15
384.31382E-3	4.1438038E-12	384.31373E-3	-5.3084910E-15	37.181128E-15	-5.9911885E-15	-13.707441E-15
400.00010E-3	4.4109026E-12	400.00001E-3	12.537700E-15	-10.365771E-15	23.859759E-15	-23.676890E-15
415.68637E-3	4.5658659E-12	415.68628E-3	14.088037E-15	-16.187863E-15	-34.568407E-15	10.134704E-15
431.37264E-3	4.8290339E-12	431.37255E-3	3.0933260E-15	-26.869525E-15	11.453570E-15	23.766886E-15
447.05892E-3	5.1617725E-12	447.05883E-3	-296.13609E-18	25.166330E-15	-55.226568E-15	-11.756773E-15
462.74519E-3	5.3898821E-12	462.74510E-3	-1.4527010E-15	-39.763284E-15	52.971486E-15	-24.155155E-15
478.43146E-3	5.6624662E-12	478.43137E-3	-19.861444E-15	60.540731E-15	45.720829E-15	-10.874540E-15
494.11774E-3	5.8967831E-12	494.11765E-3	32.042541E-15	-4.7022128E-15	3.6450119E-15	55.291282E-15
509.80401E-3	6.2229302E-12	509.80395E-3	-21.079979E-15	25.528657E-15	1.5275653E-15	10.623758E-15
525.49028E-3	6.4835316E-12	525.49022E-3	-31.675017E-15	32.835293E-15	-43.473583E-15	86.247734E-15
541.17656E-3	6.7596475E-12	541.17650E-3	75.300911E-15	-14.065985E-15	-26.648554E-15	-23.969914E-15
556.86283E-3	7.0137425E-12	556.86277E-3	-9.4528792E-15	-16.994618E-15	-6.3924526E-15	-27.637091E-15
572.54910E-3	7.2361778E-12	572.54905E-3	15.847834E-15	-14.463360E-15	-1.4320821E-15	4.0420056E-15
588.23538E-3	7.5032515E-12	588.23532E-3	2.1285303E-15	57.502688E-15	-30.387761E-15	13.935387E-15
603.92165E-3	7.7910794E-12	603.92159E-3	33.750075E-15	2.2987710E-15	-17.711171E-15	27.515372E-15
619.60793E-3	8.1079215E-12	619.60787E-3	-9.3326836E-15	-20.345067E-15	9.2530362E-15	9.0930960E-15
635.29420E-3	8.3503074E-12	635.29414E-3	28.214535E-15	58.028093E-15	-80.689721E-15	13.601431E-15
650.98047E-3	8.6947029E-12	650.98041E-3	-44.463243E-15	10.808500E-15	24.200297E-15	8.1588035E-15
666.66675E-3	8.8956429E-12	666.66669E-3	-10.141238E-15	3.6473162E-15	9.4953029E-15	-441.65428E-18
682.35302E-3	9.2104388E-12	682.35296E-3	9.1559916E-15	-67.638325E-15	-41.046265E-15	-14.074448E-15
698.03929E-3	9.4786878E-12	698.03923E-3	-16.124344E-15	-85.247212E-15	-64.462182E-15	6.5246965E-15
713.72557E-3	9.7422894E-12	713.72551E-3	71.003763E-15	35.228402E-15	25.693906E-15	-64.652785E-15
729.41184E-3	10.058157E-12	729.41178E-3	67.302223E-15	-87.907119E-15	3.1273941E-15	43.522542E-15
745.09811E-3	10.365753E-12	745.09805E-3	57.007919E-15	-7.4655019E-15	4.1805985E-15	23.409002E-15
760.78439E-3	10.674442E-12	760.78433E-3	-17.888338E-15	69.101314E-15	993.03453E-18	47.180433E-15
776.47066E-3	10.952018E-12	776.47060E-3	-13.429143E-15	-26.304635E-15	6.6365235E-15	15.597827E-15
792.15693E-3	11.229419E-12	792.15688E-3	-42.938587E-15	-35.599185E-15	-7.8597627E-15	29.600789E-15
807.84321E-3	11.548063E-12	807.84315E-3	-36.202154E-15	-15.316887E-15	57.281091E-15	27.651892E-15
823.52948E-3	11.851120E-12	823.52942E-3	10.396308E-15	16.138919E-15	51.101942E-15	-4.8070246E-15
839.21576E-3	12.183439E-12	839.21570E-3	13.172607E-15	30.916852E-15	-40.677416E-15	12.395229E-15
854.90203E-3	12.496546E-12	854.90197E-3	20.630590E-15	25.838112E-15	-18.684834E-15	36.245821E-15
870.58830E-3	12.835830E-12	870.58824E-3	-22.869381E-15	31.048335E-15	6.1808786E-15	-5.6794825E-15
886.27458E-3	13.083262E-12	886.27452E-3	42.964008E-15	1.1984683E-15	12.902115E-15	-24.514975E-15
901.96085E-3	13.374434E-12	901.96079E-3	29.419169E-15	-3.2623645E-15	-26.824768E-15	-43.544046E-15
917.64712E-3	13.761339E-12	917.64706E-3	-18.337947E-15	59.930312E-15	21.824836E-15	7.4417596E-15
933.33340E-3	14.189288E-12	933.33334E-3	30.304908E-15	17.750668E-15	-140.21429E-18	6.3141427E-15
949.01967E-3	14.478483E-12	949.01961E-3	27.129432E-15	4.5298615E-15	37.369417E-15	-37.097505E-15
964.70594E-3	14.731369E-12	964.70588E-3	81.938864E-15	12.222112E-15	13.775072E-15	-21.486834E-15
980.39222E-3	15.077287E-12	980.39216E-3	1.2114333E-15	-89.843179E-15	-49.097004E-15	13.042555E-15
996.07849E-3	15.497529E-12	996.07843E-3	38.904345E-15	8.3931114E-15	32.604948E-15	9.2800650E-15
1.0117650E+0	15.775492E-12	1.0117648E+0	-64.078429E-15	3.8053692E-15	9.3880117E-15	15.873728E-15
1.0274513E+0	16.169482E-12	1.0274510E+0	57.370741E-15	-32.387687E-15	66.224498E-15	-17.442575E-15
1.0431376E+0	16.516172E-12	1.0431373E+0	4.6943019E-15	39.351026E-15	-28.891572E-15	39.158282E-15
1.0588238E+0	16.828729E-12	1.0588236E+0	-89.131109E-15	16.295089E-15	3.4963390E-15	-26.284544E-15
1.0745101E+0	17.257683E-12	1.0745099E+0	-38.108405E-15	37.082340E-15	-6.6889468E-15	18.244246E-15
1.0901964E+0	17.530040E-12	1.0901961E+0	61.811965E-15	5.0599461E-15	-9.2790554E-15	-13.030184E-15
1.1058826E+0	17.958470E-12	1.1058824E+0	-18.537765E-15	24.153214E-15	-9.7058549E-15	-1.6280462E-15
1.1215689E+0	18.342947E-12	1.1215687E+0	-43.867094E-15	30.778233E-15	19.450460E-15	28.964600E-15
1.1372552E+0	18.730503E-12	1.1372550E+0	4.2342029E-15	-15.137953E-15	30.941121E-15	73.848066E-15
1.1529415E+0	19.231500E-12	1.1529412E+0	-22.148578E-15	-22.159842E-15	-23.712642E-15	-23.652125E-15
1.1686277E+0	19.577413E-12	1.1686275E+0	41.132604E-15	-61.071333E-15	25.112502E-15	-57.595164E-15
1.1843140E+0	19.881180E-12	1.1843138E+0	-68.610977E-15	33.645680E-15	-39.487497E-15	-51.605343E-15
1.2000003E+0	20.402360E-12	1.2000000E+0	42.104653E-15	16.770715E-15	-47.321054E-15	-34.026086E-15
1.2156866E+0	20.793922E-12	1.2156863E+0	88.582929E-15	17.457413E-15	43.871716E-15	2.2597770E-15
1.2313728E+0	21.170730E-12	1.2313726E+0	-46.574835E-15	-14.146180E-15	3.8828774E-15	-28.841187E-15
1.2470591E+0	21.482685E-12	1.2470589E+0	41.385264E-15	-18.825738E-15	-29.726272E-15	19.202779E-15
1.2627454E+0	21.988345E-12	1.2627451E+0	59.987849E-15	-13.165046E-15	-3.0577529E-15	54.980736E-15
1.2784317E+0	22.425352E-12	1.2784314E+0	55.391848E-15	20.066332E-15	-10.895785E-15	-964.48899E-18
1.2941179E+0	22.855356E-12	1.2941177E+0	19.306952E-15	-36.839374E-15	24.158481E-15	-3.5092490E-15
1.3098042E+0	23.257275E-12	1.3098040E+0	-74.356747E-15	15.460525E-15	22.032291E-15	44.453631E-15
1.3254905E+0	23.723941E-12	1.3254902E+0	-34.388589E-15	-98.653717E-15	89.490345E-15	-53.373938E-15
1.3411767E+0	24.140362E-12	1.3411765E+0	-98.585426E-15	50.756166E-15	17.970016E-15	-70.410786E-15
1.3568630E+0	24.604209E-12	1.3568628E+0	-2.5893065E-15	-67.792004E-15	-19.454724E-15	12.704789E-15
1.3725493E+0	25.088756E-12	1.3725491E+0	-73.967633E-15	48.770104E-15	-834.91556E-18	1.9959457E-15
1.3882356E+0	25.518993E-12	1.3882353E+0	73.528077E-15	25.945854E-15	24.381818E-15	13.914746E-15
1.4039218E+0	25.998828E-12	1.4039216E+0	35.666907E-15	-16.472036E-15	5.8518275E-15	-39.502154E-15
1.4196081E+0	26.517172E-12	1.4196079E+0	-55.178721E-15	18.934915E-15	15.874412E-15	1.8876879E-15
1.4352944E+0	26.995177E-12	1.4352942E+0	16.563169E-15	-61.433572E-15	-57.262456E-15	40.851413E-15
1.4509807E+0	27.508875E-12	1.4509804E+0	-19.738783E-15	-43.404699E-15	27.399749E-15	-8.9716315E-15
1.4666669E+0	27.873244E-12	1.4666667E+0	-89.695673E-15	-18.309725E-15	-29.563551E-15	-16.028415E-15
1.4823532E+0	28.507275E-12	1.4823530E+0	-15.802303E-15	41.493396E-15	-63.850794E-15	-88.170533E-15
1.4980395E+0	28.976542E-12	1.4980392E+0	28.773394E-15	42.864553E-15	44.476568E-15	-21.396701E-15
1.5137258E+0	29.475519E-12	1.5137255E+0	62.839992E-15	-20.897699E-15	-31.645903E-15	19.210106E-15
1.5294120E+0	30.141337E-12	1.5294118E+0	-21.884238E-15	-5.1325906E-15	18.170303E-15	-36.263158E-15
1.5450983E+0	30.662774E-12	1.5450981E+0	-31.747357E-15	14.655567E-15	19.466442E-15	-32.650277E-15
1.5607846E+0	31.236319E-12	1.5607843E+0	-154.32275E-15	4.6938610E-15	-15.005483E-15	23.175204E-15
1.5764709E+0	31.614669E-12	1.5764706E+0	20.516817E-15	12.877239E-15	-21.189180E-15	-33.645182E-15
1.5921571E+0	32.232255E-12	1.5921569E+0	-14.075606E-15	-118.51544E-15	56.128045E-15	-37.044105E-15
1.6078434E+0	32.842007E-12	1.6078432E+0	52.728468E-15	71.124991E-15	12.496491E-15	-5.6359908E-15
1.6235297E+0	33.430921E-12	1.6235294E+0	-53.738681E-15	-3.5048262E-15	75.429971E-15	28.366024E-15
1.6392159E+0	33.939476E-12	1.6392157E+0	-66.309066E-15	-29.698456E-15	10.099239E-15	50.970323E-15
1.6549022E+0	34.634531E-12	1.6549020E+0	68.884832E-15	55.948220E-15	53.068074E-15	10.000764E-15
1.6705885E+0	35.000381E-12	1.6705883E+0	40.544150E-15	-6.1711089E-15	-63.616613E-15	46.398357E-15
1.6862748E+0	35.722803E-12	1.6862745E+0	7.5908391E-15	-56.518419E-15	-4.7363609E-15	91.935594E-15
1.7019610E+0	36.312068E-12	1.7019608E+0	102.57483E-15	215.77209E-18	-25.398053E-15	25.952400E-15
1.7176473E+0	37.003706E-12	1.7176471E+0	-64.455189E-15	51.180235E-15	37.112051E-15	40.473057E-15
1.7333336E+0	37.506238E-12	1.7333333E+0	36.174632E-15	-58.625610E-15	-30.154569E-15	-80.396220E-15
1.7490199E+0	38.259500E-12	1.7490196E+0	72.326056E-15	30.077832E-15	-3.2112311E-15	-27.419812E-15
1.7647061E+0	38.926570E-12	1.7647059E+0	-82.920141E-15	-66.277313E-15	-76.886143E-15	49.537075E-15
1.7803924E+0	39.720029E-12	1.7803922E+0	-102.35409E-15	-47.220521E-15	-39.314126E-15	-67.663072E-15
1.7960787E+0	40.256676E-12	1.7960784E+0	-60.214888E-15	-48.827363E-15	-26.779846E-15	23.565231E-15
1.8117650E+0	40.881770E-12	1.8117647E+0	-13.374533E-15	138.87887E-15	23.046286E-15	-58.461733E-15
1.8274512E+0	41.689662E-12	1.8274510E+0	19.189587E-15	21.772035E-15	23.785713E-15	11.478697E-15
1.8431375E+0	42.346637E-12	1.8431373E+0	125.56027E-15	90.327207E-15	-43.970409E-15	26.885366E-15
1.8588238E+0	43.065749E-12	1.8588235E+0	53.501952E-15	181.71121E-15	-39.471468E-15	-37.960124E-15
1.8745100E+0	43.724559E-12	1.8745098E+0	-234.68017E-15	-34.117281E-15	-18.759068E-15	23.317785E-15
1.8901963E+0	44.597652E-12	1.8901961E+0	-101.26378E-15	-9.0488530E-15	-93.872996E-15	-6.5242158E-15
1.9058826E+0	45.238976E-12	1.9058824E+0	-63.936181E-15	26.480459E-15	-97.688750E-15	-63.866101E-15
1.9215689E+0	45.992970E-12	1.9215686E+0	-82.972339E-15	4.4705272E-15	-7.4099044E-15	48.974734E-15
1.9372551E+0	47.058725E-12	1.9372549E+0	-106.94286E-15	48.217889E-15	-104.03187E-15	12.045540E-15
1.9529414E+0	47.625390E-12	1.9529412E+0	23.762579E-15	17.319064E-15	-20.479661E-15	55.925401E-15
1.9686277E+0	48.252478E-12	1.9686275E+0	-102.77438E-15	66.094489E-15	-2.5586237E-15	26.397822E-15
1.9843140E+0	49.308502E-12	1.9843137E+0	-89.577983E-15	-17.470248E-15	-38.158248E-15	1.7372423E-15
2.0000000E+0	49.797246E-12	2.0000000E+0	-66.546662E-15	8.4325332E-15	-88.193457E-15	-5.9060245E-15
