Experiment	bias spectroscopy	
Saved Date	24.04.2024 14:24:12	
User		
Date		
X (m)	2E-9	
Y (m)	-833.333E-12	
Z (m)	-561.079E-12	
Z offset (m)	0E+0	
Settling time (s)	200E-6	
Integration time (s)	10E-3	
Z-Ctrl hold	TRUE	
Final Z (m)	N/A	
Start time	24.04.2024 14:24:10	
Filter type	None	
Order		
Cutoff frq		
Bias>Bias (V)	2E+0	
Bias>Calibration (V/V)	1E+0	
Bias>Offset (V)	0E+0	
Bias Spectroscopy>Sweep Start (V)	-2E+0	
Bias Spectroscopy>Sweep End (V)	2E+0	
Bias Spectroscopy>Num Pixel	256	
Bias Spectroscopy>Z Avg time (s)	50E-3	
Bias Spectroscopy>Z offset (m)	0E+0	
Bias Spectroscopy>1st Settling time (s)	5E-3	
Bias Spectroscopy>Settling time (s)	200E-6	
Bias Spectroscopy>Integration time (s)	10E-3	
Bias Spectroscopy>End Settling time (s)	5E-3	
Bias Spectroscopy>Z control time (s)	200E-3	
Bias Spectroscopy>Max Slew rate (V/s)	Inf	
Bias Spectroscopy>backward sweep	FALSE	
Bias Spectroscopy>Z-controller hold	TRUE	
Bias Spectroscopy>Number of sweeps	1	
Bias Spectroscopy>Channels	Current (A);Bias (V);LI Demod 1 X (A);LI Demod 1 Y (A);LI Demod 2 X (A);LI Demod 2 Y (A)	
Bias Spectroscopy>Reset Bias	TRUE	
Bias Spectroscopy>Record final Z	FALSE	
Bias Spectroscopy>Lock-In run	FALSE	
Bias Spectroscopy>Revert Z Offset	FALSE	
Current>Current (A)	30.2117E-12	
Current>Calibration (A/V)	1E-9	
Current>Offset (A)	0E+0	
Current>Gain	LN 10^9	
Lock-in>Lock-in status	OFF	
Lock-in>Modulated signal	Bias (V)	
Lock-in>Frequency (Hz)	2E+3	
Lock-in>Amplitude	100E-3	
Lock-in>Demodulated signal	Current (A)	
Lock-in>HP Filter Cutoff D1 (Hz)	38.8562E+0	
Lock-in>HP Filter Cutoff D2 (Hz)	38.8562E+0	
Lock-in>HP Filter Order D1	OFF	
Lock-in>HP Filter Order D2	OFF	
Lock-in>Harmonic D1	1	
Lock-in>Harmonic D2	2	
Lock-in>Reference phase D1 (deg)	0E+0	
Lock-in>Reference phase D2 (deg)	0E+0	
Lock-in>LP Filter Cutoff D1 (Hz)	621.699E+0	
Lock-in>LP Filter Cutoff D2 (Hz)	621.699E+0	
Lock-in>LP Filter Order D1	OFF	
Lock-in>LP Filter Order D2	OFF	
Lock-in>Sync Filter D1	ON	
Lock-in>Sync Filter D2	ON	
Lock-in 2>Lock-in status	OFF	
Lock-in 2>Modulated signal	Input 2 (V)	
Lock-in 2>Frequency (Hz)	1E+3	
Lock-in 2>Amplitude	1E+0	
Lock-in 2>Demodulated signal	Current (A)	
Lock-in 2>HP Filter Cutoff D3 (Hz)	38.8562E+0	
Lock-in 2>HP Filter Cutoff D4 (Hz)	38.8562E+0	
Lock-in 2>HP Filter Order D3	OFF	
Lock-in 2>HP Filter Order D4	OFF	
Lock-in 2>Harmonic D3	1	
Lock-in 2>Harmonic D4	1	
Lock-in 2>Reference phase D3 (deg)	0E+0	
Lock-in 2>Reference phase D4 (deg)	0E+0	
Lock-in 2>LP Filter Cutoff D3 (Hz)	621.699E+0	
Lock-in 2>LP Filter Cutoff D4 (Hz)	621.699E+0	
Lock-in 2>LP Filter Order D3	OFF	
Lock-in 2>LP Filter Order D4	OFF	
Lock-in 2>Sync Filter D3	ON	
Lock-in 2>Sync Filter D4	ON	
NanonisMain>Session Path	C:\Users\scbr\Documents\Nanonis Sessions\nanonis_session_sim	
NanonisMain>SW Version	Generic 5e	
NanonisMain>UI Release	13632	
NanonisMain>RT Release	13632	
NanonisMain>RT Frequency (Hz)	20E+3	
NanonisMain>Signals Oversampling	10	
NanonisMain>Acquisition Period (s)	20E-3	
NanonisMain>Animations Period (s)	20E-3	
NanonisMain>Indicators Period (s)	300E-3	
NanonisMain>Measurements Period (s)	500E-3	
Piezo Configuration>Active Calib.	Default	
Piezo Configuration>Calib. X (m/V)	10E-9	
Piezo Configuration>Calib. Y (m/V)	10E-9	
Piezo Configuration>Calib. Z (m/V)	5E-9	
Piezo Configuration>HV Gain X	15	
Piezo Configuration>HV Gain Y	15	
Piezo Configuration>HV Gain Z	15	
Piezo Configuration>Tilt X (deg)	0	
Piezo Configuration>Tilt Y (deg)	0	
Piezo Configuration>Curvature radius X (m)	Inf	
Piezo Configuration>Curvature radius Y (m)	Inf	
Piezo Configuration>2nd order corr X (V/m^2)	0E+0	
Piezo Configuration>2nd order corr Y (V/m^2)	0E+0	
Piezo Configuration>Drift X (m/s)	0E+0	
Piezo Configuration>Drift Y (m/s)	0E+0	
Piezo Configuration>Drift Z (m/s)	0E+0	
Piezo Configuration>Drift correction status (on/off)	FALSE	
Temperature 1>Temperature 1 (K)	515.132E+0	
Z-Controller>Z (m)	-561.107E-12	
Z-Controller>Controller name	log Current	
Z-Controller>Controller status	ON	
Z-Controller>Setpoint	50E-12	
Z-Controller>Setpoint unit	A	
Z-Controller>P gain	200E-12	
Z-Controller>I gain	200E-9	
Z-Controller>Time const (s)	1E-3	
Z-Controller>TipLift (m)	0E+0	
Z-Controller>Switch off delay (s)	0E+0	

[DATA]
Bias calc (V)	Current (A)	Bias (V)	LI Demod 1 X (A)	LI Demod 1 Y (A)	LI Demod 2 X (A)	LI Demod 2 Y (A)
-2.0000000E+0	-57.253955E-12	-2.0000000E+0	105.98814E-15	2.1655263E-15	-99.399987E-15	-49.677886E-15
-1.9843137E+0	-56.325760E-12	-1.9843137E+0	-33.677739E-15	65.289950E-15	-86.103176E-15	64.524212E-15
-1.9686275E+0	-55.285929E-12	-1.9686275E+0	-140.37583E-15	152.73382E-15	34.667730E-15	15.703271E-15
-1.9529412E+0	-54.520718E-12	-1.9529412E+0	-98.665691E-15	146.87596E-15	13.202740E-15	-28.442824E-15
-1.9372549E+0	-53.515557E-12	-1.9372549E+0	-100.19663E-15	-16.837089E-15	-5.0514584E-15	27.279929E-15
-1.9215686E+0	-52.745319E-12	-1.9215686E+0	-10.278450E-15	128.45513E-15	26.668094E-15	43.347524E-15
-1.9058824E+0	-52.004047E-12	-1.9058824E+0	-69.167613E-15	-157.94137E-15	-16.055881E-15	-59.994849E-15
-1.8901961E+0	-51.187072E-12	-1.8901961E+0	-80.094636E-15	-18.026891E-15	-46.008773E-15	-75.327663E-15
-1.8745098E+0	-50.275544E-12	-1.8745098E+0	-123.56686E-15	53.549850E-15	-4.6562172E-15	-9.6177118E-15
-1.8588235E+0	-49.491508E-12	-1.8588235E+0	53.487129E-15	-36.365533E-15	26.267981E-15	14.298235E-15
-1.8431373E+0	-48.649418E-12	-1.8431373E+0	-53.345454E-15	9.1399895E-15	-178.69137E-15	141.37736E-15
-1.8274510E+0	-47.823932E-12	-1.8274510E+0	98.270560E-15	-21.392618E-15	-11.290814E-15	-108.55168E-15
-1.8117647E+0	-47.192143E-12	-1.8117647E+0	82.345480E-15	42.767598E-15	27.074275E-15	55.959960E-15
-1.7960784E+0	-46.323514E-12	-1.7960784E+0	-42.453119E-15	47.071420E-15	27.996326E-15	-52.692615E-15
-1.7803922E+0	-45.418853E-12	-1.7803922E+0	-55.648499E-15	-48.448851E-15	36.736076E-15	-13.704992E-15
-1.7647059E+0	-44.746585E-12	-1.7647059E+0	91.745655E-15	-117.38372E-15	-35.108669E-15	29.947649E-15
-1.7490196E+0	-44.221720E-12	-1.7490196E+0	5.0915892E-15	-55.900868E-15	-4.6275468E-15	27.384961E-15
-1.7333333E+0	-43.214321E-12	-1.7333333E+0	-143.49517E-15	-30.663328E-15	-3.8814518E-15	12.236644E-15
-1.7176471E+0	-42.488828E-12	-1.7176471E+0	51.056703E-15	-98.551443E-15	-50.228369E-15	-64.458828E-15
-1.7019608E+0	-41.869317E-12	-1.7019608E+0	26.443799E-15	123.02350E-15	-17.913539E-15	8.9050285E-15
-1.6862745E+0	-41.232469E-12	-1.6862745E+0	-37.458443E-15	-18.721661E-15	-81.995839E-15	2.9659826E-15
-1.6705883E+0	-40.698646E-12	-1.6705883E+0	9.1476560E-15	-24.927854E-15	13.569618E-15	90.173847E-15
-1.6549020E+0	-39.985789E-12	-1.6549020E+0	-126.49721E-15	39.313459E-15	-38.560592E-15	28.663971E-15
-1.6392157E+0	-39.177578E-12	-1.6392157E+0	-26.228070E-15	-86.589400E-15	-7.1714061E-15	3.1170319E-15
-1.6235294E+0	-38.548598E-12	-1.6235294E+0	-53.777040E-18	42.226053E-15	45.710865E-15	-7.5247239E-15
-1.6078432E+0	-38.041417E-12	-1.6078432E+0	-19.444541E-15	42.625544E-15	-43.978113E-15	-83.605167E-15
-1.5921569E+0	-37.216633E-12	-1.5921569E+0	6.5901865E-15	122.57784E-15	-14.070978E-15	19.047076E-15
-1.5764706E+0	-36.552397E-12	-1.5764706E+0	39.857122E-15	654.77034E-18	-9.8722749E-15	25.769775E-15
-1.5607843E+0	-36.111513E-12	-1.5607843E+0	66.319461E-15	80.357487E-15	-10.818169E-15	17.698870E-15
-1.5450981E+0	-35.451534E-12	-1.5450981E+0	-62.224240E-15	-47.747298E-15	-5.1467653E-15	5.1150685E-15
-1.5294118E+0	-34.876303E-12	-1.5294118E+0	-17.002519E-15	-98.598850E-15	-33.693256E-15	-91.552410E-15
-1.5137255E+0	-34.291445E-12	-1.5137255E+0	3.9336269E-15	37.803575E-15	1.2438824E-15	49.219031E-15
-1.4980392E+0	-33.658951E-12	-1.4980392E+0	47.352869E-15	-31.858908E-15	-5.7611653E-15	29.637595E-15
-1.4823530E+0	-33.012315E-12	-1.4823530E+0	33.662756E-15	-51.216460E-15	-109.62045E-15	21.997457E-15
-1.4666667E+0	-32.606945E-12	-1.4666667E+0	23.252028E-15	-3.1241743E-15	-19.952156E-15	12.447997E-15
-1.4509804E+0	-31.949450E-12	-1.4509804E+0	-66.950216E-15	65.729330E-15	34.712189E-15	-15.298792E-15
-1.4352942E+0	-31.343556E-12	-1.4352942E+0	13.689666E-15	-17.201659E-15	61.353625E-15	-72.131144E-15
-1.4196079E+0	-30.751190E-12	-1.4196079E+0	91.110543E-15	35.137861E-15	128.40441E-15	-50.267787E-15
-1.4039216E+0	-30.267126E-12	-1.4039216E+0	-120.02960E-15	-39.954097E-15	-29.959091E-15	-14.264521E-15
-1.3882353E+0	-29.857537E-12	-1.3882353E+0	-70.922956E-15	-29.409946E-15	1.3750478E-15	-17.126481E-15
-1.3725491E+0	-29.249589E-12	-1.3725491E+0	-40.172635E-15	8.8671458E-15	-48.030966E-15	656.18843E-18
-1.3568628E+0	-28.785802E-12	-1.3568628E+0	-23.876834E-15	-24.130852E-15	31.125293E-15	-49.497414E-15
-1.3411765E+0	-28.235707E-12	-1.3411765E+0	-22.699504E-15	-53.801429E-15	-14.220299E-15	53.028769E-15
-1.3254902E+0	-27.654136E-12	-1.3254902E+0	-90.447479E-15	26.997342E-15	20.152928E-15	85.704230E-15
-1.3098040E+0	-27.277607E-12	-1.3098040E+0	122.05737E-15	9.2464963E-15	7.7302751E-15	8.6569630E-15
-1.2941177E+0	-26.858845E-12	-1.2941177E+0	-100.42114E-15	11.384043E-15	32.600086E-15	37.538572E-15
-1.2784314E+0	-26.250245E-12	-1.2784314E+0	-82.278937E-15	-23.099491E-15	-28.204618E-15	-44.517490E-15
-1.2627451E+0	-25.943787E-12	-1.2627451E+0	-85.741059E-15	11.781907E-15	5.5261230E-15	65.857862E-15
-1.2470587E+0	-25.418693E-12	-1.2470589E+0	-2.9350028E-15	94.346907E-15	-80.618346E-15	8.2788085E-15
-1.2313725E+0	-24.901163E-12	-1.2313726E+0	25.655052E-15	-37.399022E-15	-30.684046E-15	-26.895334E-15
-1.2156862E+0	-24.538463E-12	-1.2156863E+0	10.340962E-15	-61.218283E-15	-27.772213E-15	-15.555526E-15
-1.1999999E+0	-24.026692E-12	-1.2000000E+0	15.635801E-15	-59.344233E-15	-35.042434E-15	38.868367E-15
-1.1843137E+0	-23.583056E-12	-1.1843138E+0	-8.7718588E-15	16.870232E-15	-25.357876E-15	-10.621332E-15
-1.1686274E+0	-23.154735E-12	-1.1686275E+0	44.462331E-15	-23.024744E-15	13.177518E-15	-16.787310E-15
-1.1529411E+0	-22.732587E-12	-1.1529412E+0	33.000753E-15	-739.59677E-18	22.237783E-15	-1.6954291E-15
-1.1372548E+0	-22.361031E-12	-1.1372550E+0	1.8218781E-15	5.5105232E-15	11.781448E-15	3.1951518E-15
-1.1215686E+0	-21.968899E-12	-1.1215687E+0	-66.080428E-15	75.627791E-15	-69.618431E-15	44.908586E-15
-1.1058823E+0	-21.551927E-12	-1.1058824E+0	-71.488239E-15	7.1935527E-15	43.265955E-15	54.541610E-15
-1.0901960E+0	-21.120551E-12	-1.0901961E+0	94.845213E-15	49.633759E-15	4.2734540E-15	34.808338E-15
-1.0745097E+0	-20.640895E-12	-1.0745099E+0	-5.4639021E-15	-75.138273E-15	52.327344E-15	-23.328822E-15
-1.0588235E+0	-20.294325E-12	-1.0588236E+0	-12.006188E-15	-47.021530E-15	39.726326E-15	-18.037350E-15
-1.0431372E+0	-19.983343E-12	-1.0431373E+0	1.9675127E-15	-6.5468367E-15	-2.4761500E-15	49.888523E-15
-1.0274509E+0	-19.596812E-12	-1.0274510E+0	-48.115995E-15	-22.217618E-15	-4.8790305E-15	-12.128255E-15
-1.0117646E+0	-19.143308E-12	-1.0117648E+0	-21.739236E-15	16.168551E-15	20.131479E-15	25.311725E-15
-996.07837E-3	-18.815460E-12	-996.07843E-3	14.532260E-15	18.361691E-15	14.563740E-15	6.4390835E-15
-980.39210E-3	-18.409642E-12	-980.39216E-3	-1.9871922E-15	48.959995E-15	104.84702E-15	-22.629512E-15
-964.70582E-3	-18.032848E-12	-964.70588E-3	-12.363301E-15	59.043617E-15	22.726268E-15	-25.486623E-15
-949.01955E-3	-17.734000E-12	-949.01961E-3	23.118380E-15	-50.966653E-15	40.833480E-15	9.3455110E-15
-933.33328E-3	-17.321131E-12	-933.33334E-3	7.7824252E-15	-8.1223793E-15	29.305365E-15	7.2029166E-15
-917.64700E-3	-16.912194E-12	-917.64706E-3	-23.126246E-15	52.748147E-15	32.949233E-15	16.798522E-15
-901.96073E-3	-16.609093E-12	-901.96079E-3	1.2806274E-15	-812.67634E-18	32.560421E-15	46.626501E-15
-886.27446E-3	-16.275099E-12	-886.27452E-3	49.027182E-15	-30.072234E-15	82.827754E-15	-9.7719726E-15
-870.58818E-3	-15.884202E-12	-870.58824E-3	-41.380131E-15	-34.801809E-15	31.519133E-15	-28.366676E-15
-854.90191E-3	-15.532749E-12	-854.90197E-3	71.725015E-15	22.482709E-15	-11.795332E-15	-4.5899576E-15
-839.21564E-3	-15.215884E-12	-839.21570E-3	-32.344055E-15	-1.6297759E-15	9.7480024E-15	52.252209E-15
-823.52936E-3	-14.975790E-12	-823.52942E-3	64.915846E-15	4.6361107E-15	39.270975E-15	5.0496441E-15
-807.84309E-3	-14.553180E-12	-807.84315E-3	-45.277286E-15	-11.991091E-15	35.660341E-15	77.176912E-15
-792.15682E-3	-14.287654E-12	-792.15688E-3	4.3477079E-15	18.782803E-15	-40.163771E-15	42.159052E-15
-776.47054E-3	-13.932805E-12	-776.47060E-3	-10.444836E-15	33.978591E-15	52.285118E-15	-46.579470E-15
-760.78427E-3	-13.650856E-12	-760.78433E-3	18.165718E-15	53.107773E-15	-26.867319E-15	36.201165E-15
-745.09799E-3	-13.332726E-12	-745.09805E-3	-20.096831E-15	-19.751184E-15	17.187142E-15	3.5234694E-15
-729.41172E-3	-13.058038E-12	-729.41178E-3	37.209138E-15	46.832126E-15	-12.428371E-15	-41.776546E-15
-713.72545E-3	-12.685294E-12	-713.72551E-3	26.516409E-15	79.468618E-15	-2.3402762E-15	11.135251E-15
-698.03917E-3	-12.416180E-12	-698.03923E-3	33.639819E-15	-1.4882442E-15	-13.736939E-15	-18.946477E-15
-682.35290E-3	-12.116084E-12	-682.35296E-3	-27.170738E-15	-43.601485E-15	64.214062E-15	-45.137403E-15
-666.66663E-3	-11.875389E-12	-666.66669E-3	6.4746063E-15	-346.28539E-18	-1.5838071E-15	-26.103539E-15
-650.98035E-3	-11.533666E-12	-650.98041E-3	5.1798585E-15	-75.224766E-15	-42.016747E-15	573.96689E-18
-635.29408E-3	-11.194232E-12	-635.29414E-3	3.4434369E-15	28.440869E-15	14.783654E-15	37.920777E-15
-619.60781E-3	-10.918597E-12	-619.60787E-3	-33.140872E-15	-58.649185E-15	12.041838E-15	-10.306981E-15
-603.92153E-3	-10.677799E-12	-603.92159E-3	-13.406645E-15	18.672433E-15	-11.788420E-15	-19.575883E-15
-588.23526E-3	-10.364286E-12	-588.23532E-3	5.8154076E-15	-4.6636105E-15	20.578608E-15	-26.752394E-15
-572.54899E-3	-10.134043E-12	-572.54905E-3	7.9795128E-15	-4.5634658E-15	19.724765E-15	-41.102626E-15
-556.86271E-3	-9.7760480E-12	-556.86277E-3	21.777871E-15	40.951007E-15	258.79842E-18	30.699981E-15
-541.17644E-3	-9.4908361E-12	-541.17650E-3	-7.0087059E-15	-6.1541585E-15	57.246647E-15	-38.253638E-15
-525.49016E-3	-9.2589721E-12	-525.49022E-3	-56.896531E-15	10.228495E-15	-9.9409870E-15	-33.109949E-15
-509.80389E-3	-8.9447148E-12	-509.80395E-3	-46.015387E-15	21.122147E-15	3.0886760E-15	-6.6396655E-15
-494.11750E-3	-8.7149558E-12	-494.11765E-3	29.373592E-15	60.903234E-15	-32.123985E-15	-11.952407E-15
-478.43122E-3	-8.4708802E-12	-478.43137E-3	-15.521325E-15	-20.491978E-15	-22.220346E-15	-1.3702566E-15
-462.74495E-3	-8.2050868E-12	-462.74510E-3	-22.976319E-15	33.931425E-15	13.133350E-15	48.899453E-15
-447.05868E-3	-7.9159960E-12	-447.05883E-3	-34.619653E-15	-59.775874E-15	-13.342860E-15	-20.405845E-15
-431.37240E-3	-7.6042783E-12	-431.37255E-3	444.77012E-18	14.863910E-15	18.568258E-15	21.768171E-15
-415.68613E-3	-7.3675545E-12	-415.68628E-3	28.911650E-15	-11.932322E-15	13.476253E-15	-47.810378E-15
-399.99986E-3	-7.1059139E-12	-400.00001E-3	18.939774E-15	1.5948916E-15	-25.377378E-15	-21.217281E-15
-384.31358E-3	-6.8558366E-12	-384.31373E-3	-262.59615E-18	34.511561E-15	-11.284209E-15	13.366968E-15
-368.62731E-3	-6.6061006E-12	-368.62746E-3	-440.38225E-18	-21.784273E-15	12.461418E-15	-4.6290935E-15
-352.94104E-3	-6.3230137E-12	-352.94119E-3	-25.625642E-15	-31.590040E-15	56.959205E-15	-40.077005E-15
-337.25476E-3	-6.0803602E-12	-337.25491E-3	-7.8404258E-15	11.739185E-15	-30.033234E-15	-47.397778E-15
-321.56849E-3	-5.8618362E-12	-321.56864E-3	71.172817E-18	42.897306E-15	14.037804E-15	-1.7455923E-15
-305.88222E-3	-5.6316223E-12	-305.88236E-3	-154.73912E-18	-7.1476342E-15	44.307270E-15	-13.630680E-15
-290.19594E-3	-5.3459724E-12	-290.19609E-3	-26.105472E-15	33.755977E-15	-14.578957E-15	-69.487276E-15
-274.50967E-3	-5.0997544E-12	-274.50982E-3	39.263060E-15	74.325711E-15	-24.142628E-15	17.126185E-15
-258.82339E-3	-4.8395250E-12	-258.82354E-3	16.625786E-15	-19.280872E-15	25.810261E-15	3.2875898E-15
-243.13712E-3	-4.6069706E-12	-243.13726E-3	-23.080015E-15	-32.462561E-15	24.292995E-15	-36.638308E-15
-227.45085E-3	-4.3787647E-12	-227.45098E-3	-17.398277E-15	-14.727557E-15	-39.442984E-15	-46.308623E-15
-211.76457E-3	-4.1709548E-12	-211.76471E-3	-32.908548E-15	9.2071855E-15	-38.002286E-15	24.190184E-15
-196.07830E-3	-3.9076763E-12	-196.07843E-3	21.994767E-15	38.961574E-15	64.264945E-15	15.982883E-15
-180.39203E-3	-3.6540471E-12	-180.39216E-3	1.9705796E-15	-33.779067E-15	-18.365885E-15	13.994589E-15
-164.70575E-3	-3.4205464E-12	-164.70589E-3	-48.050116E-15	38.256345E-15	12.389321E-15	-7.7986620E-15
-149.01948E-3	-3.2199651E-12	-149.01961E-3	431.97667E-18	21.020585E-15	-15.815440E-15	-15.947870E-15
-133.33321E-3	-2.9696595E-12	-133.33334E-3	5.5753665E-15	-3.3949968E-15	-21.232204E-15	-44.586388E-15
-117.64693E-3	-2.7416307E-12	-117.64706E-3	-81.505623E-15	-9.9772316E-15	-14.571860E-15	5.7939120E-15
-101.96066E-3	-2.4842012E-12	-101.96079E-3	9.3786249E-15	-20.156389E-15	-12.036273E-15	28.879321E-15
-86.274385E-3	-2.2591150E-12	-86.274512E-3	-4.3946526E-15	2.6767262E-15	34.263950E-15	3.9352465E-15
-70.588112E-3	-2.0111959E-12	-70.588239E-3	-5.3410738E-15	22.396852E-15	-24.720335E-15	-21.995074E-15
-54.901838E-3	-1.8143438E-12	-54.901961E-3	-1.9480970E-15	-15.927790E-15	51.583791E-15	-5.0798616E-15
-39.215565E-3	-1.5993851E-12	-39.215688E-3	-28.769325E-15	32.310187E-15	19.591167E-15	-20.690016E-15
-23.529291E-3	-1.3426636E-12	-23.529412E-3	43.602800E-15	-60.139224E-15	-30.489293E-15	2.7571020E-15
-7.8430176E-3	-1.0969930E-12	-7.8431377E-3	-37.632742E-15	2.8393103E-15	-22.154819E-15	10.244168E-15
7.8432560E-3	-819.20007E-15	7.8431377E-3	-18.925106E-15	61.219543E-15	5.4236379E-15	-27.573477E-15
23.529530E-3	-624.25851E-15	23.529412E-3	-15.724687E-15	-20.369721E-15	-6.2475575E-15	21.185134E-15
39.215803E-3	-373.41658E-15	39.215688E-3	31.257101E-15	31.481450E-15	-22.250356E-15	25.770952E-15
54.902077E-3	-155.46272E-15	54.901961E-3	29.756935E-15	4.1810160E-15	-131.89732E-18	-31.223566E-15
70.588350E-3	72.265761E-15	70.588239E-3	-70.835861E-15	9.4664860E-15	17.150144E-15	-19.087610E-15
86.274624E-3	307.57116E-15	86.274512E-3	-45.401447E-15	-26.222600E-15	-55.867498E-15	24.740616E-15
101.96090E-3	527.07914E-15	101.96079E-3	16.408160E-15	11.507945E-15	-12.390223E-15	-15.925119E-15
117.64717E-3	782.11987E-15	117.64706E-3	-24.292263E-15	19.623429E-15	-44.867223E-15	-11.688303E-15
133.33344E-3	993.96348E-15	133.33334E-3	33.440912E-15	-29.480816E-15	-26.035165E-15	-9.4746691E-15
149.01972E-3	1.2209322E-12	149.01961E-3	-52.365386E-15	-40.569131E-15	10.032756E-15	-2.5224065E-15
164.70599E-3	1.4804965E-12	164.70589E-3	-4.6976748E-15	5.0617702E-15	-48.593952E-15	-6.5312856E-15
180.39227E-3	1.7119443E-12	180.39216E-3	17.548307E-15	-28.617079E-15	67.992886E-15	-13.503752E-15
196.07854E-3	1.9421739E-12	196.07843E-3	-28.670741E-15	-902.93649E-18	28.020404E-15	-18.419162E-15
211.76481E-3	2.1801007E-12	211.76471E-3	-4.2709121E-15	18.504575E-15	-26.938021E-15	-32.243061E-15
227.45109E-3	2.3994307E-12	227.45098E-3	13.857952E-15	-52.440528E-15	-4.6231812E-15	19.270913E-15
243.13736E-3	2.6130931E-12	243.13726E-3	36.488041E-15	6.9043913E-15	-27.540812E-15	12.361041E-15
258.82363E-3	2.8579905E-12	258.82354E-3	17.080389E-15	72.669166E-15	-4.5648876E-15	-1.5906187E-15
274.50991E-3	3.0935645E-12	274.50982E-3	-58.559521E-15	-35.689510E-15	34.316645E-15	-2.1199490E-15
290.19618E-3	3.3422087E-12	290.19609E-3	34.529464E-15	-9.5554803E-15	-29.307204E-15	62.368283E-15
305.88245E-3	3.5747525E-12	305.88236E-3	4.9585652E-15	8.0682201E-15	-34.296445E-15	-22.766375E-15
321.56873E-3	3.8299741E-12	321.56864E-3	27.583352E-15	64.163776E-15	35.648103E-15	19.868965E-15
337.25500E-3	4.0254393E-12	337.25491E-3	-9.3669977E-15	-13.598776E-15	19.339370E-15	3.9810443E-15
352.94127E-3	4.3087361E-12	352.94119E-3	28.500331E-15	13.624778E-15	16.611285E-15	-18.863242E-15
368.62755E-3	4.5573046E-12	368.62746E-3	-10.493112E-15	-11.826951E-15	-56.729429E-15	-2.8716001E-15
384.31382E-3	4.7798935E-12	384.31373E-3	-12.510303E-15	6.1308482E-15	-46.332631E-15	-17.287607E-15
400.00010E-3	5.0323539E-12	400.00001E-3	46.810754E-15	18.566879E-15	24.812873E-15	32.819647E-15
415.68637E-3	5.2893813E-12	415.68628E-3	-13.945076E-15	-53.105937E-15	-12.499416E-15	-35.786786E-15
431.37264E-3	5.5114793E-12	431.37255E-3	-7.4799904E-15	-78.799008E-15	-17.319411E-15	-51.290657E-15
447.05892E-3	5.7697649E-12	447.05883E-3	1.0088533E-15	27.258223E-15	-8.1665962E-15	-10.215144E-15
462.74519E-3	6.0120927E-12	462.74510E-3	-29.658638E-15	-53.287798E-15	9.8379302E-15	66.353993E-15
478.43146E-3	6.2749029E-12	478.43137E-3	-37.122296E-15	-33.996020E-15	422.19772E-18	17.052249E-15
494.11774E-3	6.5336764E-12	494.11765E-3	-58.937515E-15	-14.305362E-15	-14.600036E-15	14.156867E-15
509.80401E-3	6.8018004E-12	509.80395E-3	-27.420288E-15	10.622734E-15	-41.721560E-15	39.884498E-15
525.49028E-3	7.0271263E-12	525.49022E-3	-34.537772E-15	40.857691E-15	-21.480149E-15	-6.9933992E-15
541.17656E-3	7.2562715E-12	541.17650E-3	-21.403638E-15	-7.4659822E-15	-26.949639E-15	18.561362E-15
556.86283E-3	7.5272427E-12	556.86277E-3	775.30477E-18	73.462463E-15	-33.956836E-15	-9.3142462E-15
572.54910E-3	7.8319027E-12	572.54905E-3	11.831644E-15	-54.764559E-15	-2.3021504E-15	2.4089568E-15
588.23538E-3	8.0718279E-12	588.23532E-3	28.859046E-15	17.073184E-15	-25.795406E-15	-52.983256E-15
603.92165E-3	8.3467278E-12	603.92159E-3	32.458814E-15	-49.226990E-15	6.0627048E-15	-29.061426E-15
619.60793E-3	8.5755604E-12	619.60787E-3	6.7445799E-15	8.4103672E-15	5.4175888E-18	39.566545E-15
635.29420E-3	8.8548006E-12	635.29414E-3	11.300032E-15	1.5905594E-15	11.360468E-15	-50.436933E-15
650.98047E-3	9.1807621E-12	650.98041E-3	18.920427E-15	12.726247E-15	59.044071E-15	-49.620877E-15
666.66675E-3	9.3718575E-12	666.66669E-3	-26.928184E-15	41.767537E-15	-55.703275E-15	37.406832E-15
682.35302E-3	9.5997082E-12	682.35296E-3	-44.803649E-15	-481.49927E-18	-54.272071E-15	-28.940287E-15
698.03929E-3	9.9254988E-12	698.03923E-3	-35.190814E-15	-22.408018E-15	16.999465E-15	-20.956674E-15
713.72557E-3	10.227427E-12	713.72551E-3	-21.536284E-15	-8.8241919E-15	17.188020E-15	-5.3466244E-15
729.41184E-3	10.564917E-12	729.41178E-3	30.856617E-15	-2.2082668E-15	-20.267950E-15	32.647513E-15
745.09811E-3	10.781335E-12	745.09805E-3	30.461368E-15	-5.0332371E-15	-11.988727E-15	-55.322693E-15
760.78439E-3	11.086573E-12	760.78433E-3	23.321522E-15	1.1095466E-15	-19.545333E-15	11.184456E-15
776.47066E-3	11.338371E-12	776.47060E-3	16.974295E-15	-12.217303E-15	24.058275E-15	53.743543E-15
792.15693E-3	11.679674E-12	792.15688E-3	-45.446411E-15	37.310317E-15	-6.8206265E-15	17.804622E-15
807.84321E-3	11.962197E-12	807.84315E-3	3.3209104E-15	14.472632E-15	-25.002341E-15	-16.682346E-15
823.52948E-3	12.217003E-12	823.52942E-3	3.7192111E-15	-4.4682165E-15	28.346000E-15	-1.8036184E-15
839.21576E-3	12.600522E-12	839.21570E-3	12.174325E-15	48.524346E-15	-2.6752199E-15	-59.032498E-15
854.90203E-3	12.898170E-12	854.90197E-3	-39.809525E-15	39.751050E-15	20.071459E-15	-78.712082E-15
870.58830E-3	13.217992E-12	870.58824E-3	-18.594892E-15	19.606073E-15	-41.272849E-15	12.393571E-15
886.27458E-3	13.536931E-12	886.27452E-3	4.9372987E-15	-17.614281E-15	-28.588246E-15	874.02249E-18
901.96085E-3	13.840522E-12	901.96079E-3	-33.165216E-15	-16.465457E-15	-18.056056E-15	40.053515E-15
917.64712E-3	14.152638E-12	917.64706E-3	16.177116E-15	43.138856E-15	26.968355E-15	-49.485000E-15
933.33340E-3	14.465285E-12	933.33334E-3	45.420817E-15	-35.081642E-15	-11.819434E-15	13.502951E-15
949.01967E-3	14.765732E-12	949.01961E-3	69.237097E-15	-37.942011E-15	7.6845429E-15	-23.128946E-15
964.70594E-3	15.096287E-12	964.70588E-3	19.636011E-15	-4.2382949E-15	8.0760195E-15	-4.6329996E-15
980.39222E-3	15.470791E-12	980.39216E-3	-50.880876E-15	-16.744093E-15	-34.286115E-15	-24.851615E-15
996.07849E-3	15.758521E-12	996.07843E-3	-49.566457E-15	35.640964E-15	-32.542118E-15	-10.283165E-15
1.0117650E+0	16.062783E-12	1.0117648E+0	-4.4814362E-15	12.346374E-15	28.742742E-15	-10.934368E-15
1.0274513E+0	16.518995E-12	1.0274510E+0	40.177869E-15	-23.765783E-15	65.184525E-15	-5.6219135E-15
1.0431376E+0	16.882053E-12	1.0431373E+0	66.454492E-15	45.805177E-15	-3.6593721E-15	-14.784857E-15
1.0588238E+0	17.114863E-12	1.0588236E+0	18.568688E-15	-72.678544E-15	4.5861938E-15	-1.4488172E-15
1.0745101E+0	17.547771E-12	1.0745099E+0	-53.315113E-15	62.569328E-15	1.9561517E-15	-29.862475E-15
1.0901964E+0	17.876213E-12	1.0901961E+0	-310.83073E-18	-1.4317512E-15	43.325268E-15	30.345657E-15
1.1058826E+0	18.308372E-12	1.1058824E+0	-13.517582E-15	-63.099523E-15	-30.932274E-15	-4.6306262E-15
1.1215689E+0	18.645802E-12	1.1215687E+0	-30.189799E-15	-14.037091E-15	3.7833485E-15	-16.590060E-15
1.1372552E+0	19.114163E-12	1.1372550E+0	-3.0699940E-15	-31.210664E-15	59.511024E-15	10.810317E-15
1.1529415E+0	19.358291E-12	1.1529412E+0	42.264237E-15	41.947125E-15	-49.857271E-15	10.214981E-15
1.1686277E+0	19.782127E-12	1.1686275E+0	-38.156500E-15	73.640075E-15	38.424338E-15	27.736743E-15
1.1843140E+0	20.152539E-12	1.1843138E+0	17.827728E-15	-42.686557E-15	-59.782447E-15	46.773261E-15
1.2000003E+0	20.569133E-12	1.2000000E+0	-3.2587736E-15	54.182306E-15	72.937221E-15	15.484565E-15
1.2156866E+0	20.891478E-12	1.2156863E+0	-4.1812003E-15	-65.552374E-15	3.2912787E-15	9.2215113E-15
1.2313728E+0	21.309015E-12	1.2313726E+0	-7.7570803E-15	6.4881246E-15	48.596266E-15	24.348069E-15
1.2470591E+0	21.722485E-12	1.2470589E+0	10.054266E-15	-24.385377E-15	32.334856E-15	-14.847324E-15
1.2627454E+0	22.088463E-12	1.2627451E+0	-83.349675E-15	-42.457316E-15	37.312160E-15	-47.425913E-15
1.2784317E+0	22.546010E-12	1.2784314E+0	-18.755679E-15	20.917201E-15	-17.890676E-15	-46.334569E-15
1.2941179E+0	23.026915E-12	1.2941177E+0	16.433364E-15	-16.833558E-15	-40.867273E-15	4.8185320E-15
1.3098042E+0	23.425671E-12	1.3098040E+0	-92.569439E-15	-19.776086E-15	-23.777045E-15	14.379245E-15
1.3254905E+0	24.031693E-12	1.3254902E+0	-52.248773E-15	-16.370425E-15	-3.8271570E-15	26.734565E-15
1.3411767E+0	24.369328E-12	1.3411765E+0	-36.682039E-15	21.153428E-15	27.037249E-15	10.965900E-15
1.3568630E+0	24.831599E-12	1.3568628E+0	-33.850981E-15	-52.794507E-15	-57.364222E-15	14.385764E-15
1.3725493E+0	25.239583E-12	1.3725491E+0	-54.002897E-15	14.787576E-15	6.4675743E-15	37.183503E-15
1.3882356E+0	25.670592E-12	1.3882353E+0	101.43182E-15	23.327707E-15	15.073771E-15	22.111505E-15
1.4039218E+0	26.191837E-12	1.4039216E+0	-56.857507E-15	-20.840155E-15	10.122122E-15	79.633864E-15
1.4196081E+0	26.764101E-12	1.4196079E+0	38.487893E-15	-27.668101E-15	-49.840008E-15	-21.689890E-15
1.4352944E+0	27.203387E-12	1.4352942E+0	-64.080191E-15	-115.93625E-15	-32.479956E-15	34.192775E-15
1.4509807E+0	27.613937E-12	1.4509804E+0	-44.947234E-15	-40.455615E-15	70.111750E-15	8.7516029E-15
1.4666669E+0	28.047205E-12	1.4666667E+0	-114.59011E-15	-72.363570E-15	-22.948721E-15	18.923753E-15
1.4823532E+0	28.630877E-12	1.4823530E+0	-109.17412E-15	28.392148E-15	-70.027859E-15	-55.765763E-15
1.4980395E+0	29.172633E-12	1.4980392E+0	12.796718E-15	59.768962E-15	-30.524777E-15	25.485971E-15
1.5137258E+0	29.712517E-12	1.5137255E+0	-41.447795E-15	-21.914358E-15	-18.503387E-15	-73.262549E-15
1.5294120E+0	30.067317E-12	1.5294118E+0	-45.719928E-15	-15.438626E-15	-47.746590E-15	-23.225671E-15
1.5450983E+0	30.735754E-12	1.5450981E+0	11.287810E-15	20.928383E-15	-2.0696462E-15	2.7722264E-15
1.5607846E+0	31.212456E-12	1.5607843E+0	13.880534E-15	-28.140528E-15	-30.998292E-15	-24.422492E-15
1.5764709E+0	31.825695E-12	1.5764706E+0	-9.7394406E-15	-30.600631E-15	-22.091024E-15	78.819695E-15
1.5921571E+0	32.319328E-12	1.5921569E+0	20.110810E-15	37.181009E-15	-63.296360E-15	50.527480E-15
1.6078434E+0	32.801907E-12	1.6078432E+0	95.120065E-15	39.061968E-15	-23.239126E-15	29.061487E-15
1.6235297E+0	33.452865E-12	1.6235294E+0	114.16120E-15	-45.749642E-15	-29.586427E-15	-30.816183E-15
1.6392159E+0	34.032561E-12	1.6392157E+0	-118.00507E-15	28.081055E-15	21.520614E-15	6.9511899E-15
1.6549022E+0	34.727408E-12	1.6549020E+0	-6.3101748E-15	68.317029E-15	-61.419382E-15	33.520899E-15
1.6705885E+0	35.080019E-12	1.6705883E+0	-91.663805E-15	-102.99423E-15	-40.336651E-15	-44.382358E-15
1.6862748E+0	35.745656E-12	1.6862745E+0	-9.4476835E-15	-21.938126E-15	39.185533E-15	49.313269E-15
1.7019610E+0	36.568359E-12	1.7019608E+0	-105.29575E-15	-52.641370E-15	-73.920044E-15	-9.7447778E-15
1.7176473E+0	37.107893E-12	1.7176471E+0	23.838440E-15	-126.53379E-15	43.763641E-15	-15.008431E-15
1.7333336E+0	37.791357E-12	1.7333333E+0	62.549405E-15	38.151479E-15	76.242920E-15	87.951171E-15
1.7490199E+0	38.387925E-12	1.7490196E+0	-13.781767E-15	61.108352E-15	13.499041E-15	-535.54325E-18
1.7647061E+0	39.090758E-12	1.7647059E+0	-91.263910E-15	51.727367E-15	-30.147820E-15	49.774919E-15
1.7803924E+0	39.711456E-12	1.7803922E+0	-83.158259E-15	62.743789E-15	8.7541990E-15	15.775035E-15
1.7960787E+0	40.280938E-12	1.7960784E+0	-54.560265E-15	32.301598E-15	-69.654142E-15	-58.770595E-15
1.8117650E+0	41.025548E-12	1.8117647E+0	-74.233344E-15	100.06852E-15	-83.825877E-15	-752.60328E-18
1.8274512E+0	41.635796E-12	1.8274510E+0	-37.070922E-15	22.062257E-15	81.948283E-15	26.892056E-15
1.8431375E+0	42.267606E-12	1.8431373E+0	154.01471E-15	2.7022600E-15	-15.498175E-15	-32.997026E-15
1.8588238E+0	43.137553E-12	1.8588235E+0	29.032559E-15	-57.388441E-15	-32.169125E-15	-896.28876E-18
1.8745100E+0	43.848175E-12	1.8745098E+0	-42.007742E-15	17.846371E-15	32.362242E-15	-41.365515E-15
1.8901963E+0	44.604077E-12	1.8901961E+0	-42.136843E-15	62.026556E-15	-14.216613E-15	-46.190130E-15
1.9058826E+0	45.379721E-12	1.9058824E+0	-110.82992E-15	-56.682391E-15	-3.3842486E-15	27.173051E-15
1.9215689E+0	46.102077E-12	1.9215686E+0	-63.886125E-15	-17.063114E-15	-53.750315E-15	119.23802E-15
1.9372551E+0	46.832271E-12	1.9372549E+0	33.925055E-15	-68.321650E-15	-40.582612E-15	84.301530E-15
1.9529414E+0	47.574084E-12	1.9529412E+0	98.323347E-15	32.992150E-15	61.610453E-15	49.233922E-15
1.9686277E+0	48.432466E-12	1.9686275E+0	-82.334774E-15	62.791440E-15	-72.088386E-15	-1.9539445E-15
1.9843140E+0	49.105813E-12	1.9843137E+0	82.070093E-15	-93.268987E-15	-46.294623E-15	-74.154231E-15
2.0000000E+0	50.177217E-12	2.0000000E+0	-107.84197E-18	42.695356E-15	9.9561955E-15	-2.8620481E-15
